{"learner":{"attributes":{"scikit_learn":"{\"_estimator_type\": \"regressor\"}"},"feature_names":["lag_1","lag_7","lag_30","rolling_mean_7","rolling_mean_30","day_of_week","month","quarter","is_weekend","is_festival"],"feature_types":["float","float","float","float","float","int","int","int","int","int"],"gradient_booster":{"model":{"cats":{"enc":[],"feature_segments":[],"sorted_idx":[]},"gbtree_model_param":{"num_parallel_tree":"1","num_trees":"300"},"iteration_indptr":[0,1,2,3,4,5,6,7,8,9,10,11,12,13,14,15,16,17,18,19,20,21,22,23,24,25,26,27,28,29,30,31,32,33,34,35,36,37,38,39,40,41,42,43,44,45,46,47,48,49,50,51,52,53,54,55,56,57,58,59,60,61,62,63,64,65,66,67,68,69,70,71,72,73,74,75,76,77,78,79,80,81,82,83,84,85,86,87,88,89,90,91,92,93,94,95,96,97,98,99,100,101,102,103,104,105,106,107,108,109,110,111,112,113,114,115,116,117,118,119,120,121,122,123,124,125,126,127,128,129,130,131,132,133,134,135,136,137,138,139,140,141,142,143,144,145,146,147,148,149,150,151,152,153,154,155,156,157,158,159,160,161,162,163,164,165,166,167,168,169,170,171,172,173,174,175,176,177,178,179,180,181,182,183,184,185,186,187,188,189,190,191,192,193,194,195,196,197,198,199,200,201,202,203,204,205,206,207,208,209,210,211,212,213,214,215,216,217,218,219,220,221,222,223,224,225,226,227,228,229,230,231,232,233,234,235,236,237,238,239,240,241,242,243,244,245,246,247,248,249,250,251,252,253,254,255,256,257,258,259,260,261,262,263,264,265,266,267,268,269,270,271,272,273,274,275,276,277,278,279,280,281,282,283,284,285,286,287,288,289,290,291,292,293,294,295,296,297,298,299,300],"tree_info":[0,0,0,0,0,0,0,0,0,0,0,0,0,0,0,0,0,0,0,0,0,0,0,0,0,0,0,0,0,0,0,0,0,0,0,0,0,0,0,0,0,0,0,0,0,0,0,0,0,0,0,0,0,0,0,0,0,0,0,0,0,0,0,0,0,0,0,0,0,0,0,0,0,0,0,0,0,0,0,0,0,0,0,0,0,0,0,0,0,0,0,0,0,0,0,0,0,0,0,0,0,0,0,0,0,0,0,0,0,0,0,0,0,0,0,0,0,0,0,0,0,0,0,0,0,0,0,0,0,0,0,0,0,0,0,0,0,0,0,0,0,0,0,0,0,0,0,0,0,0,0,0,0,0,0,0,0,0,0,0,0,0,0,0,0,0,0,0,0,0,0,0,0,0,0,0,0,0,0,0,0,0,0,0,0,0,0,0,0,0,0,0,0,0,0,0,0,0,0,0,0,0,0,0,0,0,0,0,0,0,0,0,0,0,0,0,0,0,0,0,0,0,0,0,0,0,0,0,0,0,0,0,0,0,0,0,0,0,0,0,0,0,0,0,0,0,0,0,0,0,0,0,0,0,0,0,0,0,0,0,0,0,0,0,0,0,0,0,0,0,0,0,0,0,0,0,0,0,0,0,0,0,0,0,0,0,0,0,0,0,0,0,0,0,0,0,0,0,0,0],"trees":[{"base_weights":[-3.1659522E-6,-7.122024E0,8.901318E1,-1.3767308E1,1.0000465E1,7.075154E1,1.571578E2,-2.3473852E1,-3.480247E0,-1.6787629E0,2.3869873E1,5.88406E1,9.552142E1,1.25866E2,1.9394594E2,-2.9587994E1,-1.9440826E1,-6.7503195E0,1.4940188E1,-1.857466E1,8.7694067E-1,2.3072117E1,8.940275E1,4.9142742E1,7.334439E1,7.584394E1,1.33085E2,8.02819E1,1.3784172E2,1.3846536E2,2.2726408E2,-3.7663284E1,-2.6847382E1,-1.9875782E1,4.1062576E1,-7.002998E0,7.546386E1,4.657083E-1,2.6244598E1,-4.0821147E0,-2.4826162E1,8.666875E0,-5.9771953E0,1.565768E1,2.8809223E1,-2.5639748E1,9.9944016E1,4.7529354E1,1.6410143E2,6.0819756E1,9.392064E1,1.0595204E2,6.676745E1,4.332452E1,1.3828218E2,-1.8487886E0,8.533058E1,1.4429938E2,1.0173996E2,1.0774227E1,1.4164742E2,1.5471443E2,2.4510352E2,-1.274008E0,-2.1681335E0,-1.0451243E0,-1.5623145E0,-7.803617E-1,-1.1998166E0,4.422961E-1,3.1156764E0,-5.6703573E-1,-2.1613352E-1,-2.983675E-2,4.6615615E0,-3.5109484E-1,1.3900845E-1,2.0037906E0,9.7846043E-1,-6.317331E-1,1.3203822E-1,-1.4966689E0,-5.7984155E-1,1.7247581E-1,6.5800804E-1,-5.837184E-1,7.85449E-4,1.0446169E0,3.6731768E-1,1.3934919E0,2.5308387E0,-1.558708E0,5.0807573E-2,5.837135E0,1.7053372E0,2.6591375E0,1.2286805E0,1.4008076E0,8.620722E0,3.2512436E0,-3.7537006E-1,3.7322712E0,5.956105E0,5.911599E0,2.7323225E0,2.079817E0,3.721579E0,2.9424155E-1,3.1605594E0,8.294192E0,5.945394E0,4.8033724E0,2.706087E0,5.2182436E0,7.587044E0,7.800051E0,-8.2661074E-1,1.076762E-3,1.0758076E0,5.291575E0,7.9099274E0,1.254588E1,6.189445E0,4.707663E0,1.2582557E1],"categories":[],"categories_nodes":[],"categories_segments":[],"categories_sizes":[],"default_left":[0,0,0,0,0,0,0,0,0,0,0,0,0,0,0,0,0,0,0,0,0,0,0,0,0,0,0,0,0,0,0,0,0,0,0,0,0,0,0,0,0,0,0,0,0,0,0,0,0,0,0,0,0,0,0,0,0,0,0,0,0,0,0,0,0,0,0,0,0,0,0,0,0,0,0,0,0,0,0,0,0,0,0,0,0,0,0,0,0,0,0,0,0,0,0,0,0,0,0,0,0,0,0,0,0,0,0,0,0,0,0,0,0,0,0,0,0,0,0,0,0,0,0,0,0],"id":0,"left_children":[1,3,5,7,9,11,13,15,17,19,21,23,25,27,29,31,33,35,37,39,41,43,45,47,49,51,53,55,57,59,61,63,65,67,69,71,73,75,77,79,81,83,85,87,89,91,93,95,97,99,101,103,105,107,109,-1,111,113,115,117,119,121,123,-1,-1,-1,-1,-1,-1,-1,-1,-1,-1,-1,-1,-1,-1,-1,-1,-1,-1,-1,-1,-1,-1,-1,-1,-1,-1,-1,-1,-1,-1,-1,-1,-1,-1,-1,-1,-1,-1,-1,-1,-1,-1,-1,-1,-1,-1,-1,-1,-1,-1,-1,-1,-1,-1,-1,-1,-1,-1,-1,-1,-1,-1],"loss_changes":[2.7768444E7,4.6148675E6,4.027066E6,2.917389E6,1.8369386E6,7.49959E5,7.64138E5,3.70116E5,8.54611E5,2.658811E5,2.68953E5,2.40011E5,6.034065E5,1.92555E5,5.47115E5,1.31179E5,2.3926725E5,2.5081069E5,3.4998262E5,7.319419E4,2.856524E5,2.1746825E5,7.77495E4,1.8527775E5,1.7262325E5,1.4240775E5,1.264955E5,5.0514906E4,5.386E4,4.7232E4,2.13163E5,1.038135E5,1.1605925E5,1.5787175E5,4.3950023E4,1.396085E5,5.0057297E4,1.6292172E4,1.1010256E5,1.4120313E4,3.7827125E4,5.865608E4,9.7170055E4,9.71715E4,5.77315E4,9.168257E2,5.9059125E4,1.3210475E5,1.10075E4,1.24899125E5,1.1740675E5,7.2292625E4,7.850675E4,1.2285371E4,1.23591E5,0E0,2.0602188E4,5.75655E4,3.1062253E5,4.6155505E2,5.26145E4,9.091969E4,1.28514E5,0E0,0E0,0E0,0E0,0E0,0E0,0E0,0E0,0E0,0E0,0E0,0E0,0E0,0E0,0E0,0E0,0E0,0E0,0E0,0E0,0E0,0E0,0E0,0E0,0E0,0E0,0E0,0E0,0E0,0E0,0E0,0E0,0E0,0E0,0E0,0E0,0E0,0E0,0E0,0E0,0E0,0E0,0E0,0E0,0E0,0E0,0E0,0E0,0E0,0E0,0E0,0E0,0E0,0E0,0E0,0E0,0E0,0E0,0E0,0E0,0E0,0E0],"parents":[2147483647,0,0,1,1,2,2,3,3,4,4,5,5,6,6,7,7,8,8,9,9,10,10,11,11,12,12,13,13,14,14,15,15,16,16,17,17,18,18,19,19,20,20,21,21,22,22,23,23,24,24,25,25,26,26,27,27,28,28,29,29,30,30,31,31,32,32,33,33,34,34,35,35,36,36,37,37,38,38,39,39,40,40,41,41,42,42,43,43,44,44,45,45,46,46,47,47,48,48,49,49,50,50,51,51,52,52,53,53,54,54,56,56,57,57,58,58,59,59,60,60,61,61,62,62],"right_children":[2,4,6,8,10,12,14,16,18,20,22,24,26,28,30,32,34,36,38,40,42,44,46,48,50,52,54,56,58,60,62,64,66,68,70,72,74,76,78,80,82,84,86,88,90,92,94,96,98,100,102,104,106,108,110,-1,112,114,116,118,120,122,124,-1,-1,-1,-1,-1,-1,-1,-1,-1,-1,-1,-1,-1,-1,-1,-1,-1,-1,-1,-1,-1,-1,-1,-1,-1,-1,-1,-1,-1,-1,-1,-1,-1,-1,-1,-1,-1,-1,-1,-1,-1,-1,-1,-1,-1,-1,-1,-1,-1,-1,-1,-1,-1,-1,-1,-1,-1,-1,-1,-1,-1,-1],"split_conditions":[1.2871428E2,5E0,2.1685715E2,7.263333E1,7.0566666E1,5E0,5E0,5.9633335E1,9.957143E1,4.8433334E1,2.06E2,1.65E2,1.7028572E2,9E0,9E0,4.71E1,1.53E2,1.7E2,1E0,1.2E1,7E1,7.96E1,1.8E1,3.13E2,3E0,9.7E1,9.78E1,1.4E1,2.44E2,1.13666664E2,1.38E2,1.2E1,4.1E1,5.8E1,5.2E1,8.06E1,1E0,8.39E1,9.1E1,5.8E1,4.4866665E1,5.9433334E1,6.16E1,1.09E2,1.2357143E2,6E0,6E0,1.48E2,1.4214285E2,1.1E1,9E0,1.31E2,1.3457143E2,9.1933334E1,6E0,-1.8487886E0,2.42E2,4E1,2E0,4.3E1,1.89E2,1.44E2,1.4326666E2,-1.274008E0,-2.1681335E0,-1.0451243E0,-1.5623145E0,-7.803617E-1,-1.1998166E0,4.422961E-1,3.1156764E0,-5.6703573E-1,-2.1613352E-1,-2.983675E-2,4.6615615E0,-3.5109484E-1,1.3900845E-1,2.0037906E0,9.7846043E-1,-6.317331E-1,1.3203822E-1,-1.4966689E0,-5.7984155E-1,1.7247581E-1,6.5800804E-1,-5.837184E-1,7.85449E-4,1.0446169E0,3.6731768E-1,1.3934919E0,2.5308387E0,-1.558708E0,5.0807573E-2,5.837135E0,1.7053372E0,2.6591375E0,1.2286805E0,1.4008076E0,8.620722E0,3.2512436E0,-3.7537006E-1,3.7322712E0,5.956105E0,5.911599E0,2.7323225E0,2.079817E0,3.721579E0,2.9424155E-1,3.1605594E0,8.294192E0,5.945394E0,4.8033724E0,2.706087E0,5.2182436E0,7.587044E0,7.800051E0,-8.2661074E-1,1.076762E-3,1.0758076E0,5.291575E0,7.9099274E0,1.254588E1,6.189445E0,4.707663E0,1.2582557E1],"split_indices":[3,5,3,4,4,5,5,4,3,4,0,3,3,6,6,4,0,0,5,2,0,4,1,0,5,0,4,2,2,4,1,2,0,0,1,4,5,4,1,1,4,4,4,0,3,5,5,2,3,6,6,2,3,4,5,0,0,2,5,2,1,0,4,0,0,0,0,0,0,0,0,0,0,0,0,0,0,0,0,0,0,0,0,0,0,0,0,0,0,0,0,0,0,0,0,0,0,0,0,0,0,0,0,0,0,0,0,0,0,0,0,0,0,0,0,0,0,0,0,0,0,0,0,0,0],"split_type":[0,0,0,0,0,0,0,0,0,0,0,0,0,0,0,0,0,0,0,0,0,0,0,0,0,0,0,0,0,0,0,0,0,0,0,0,0,0,0,0,0,0,0,0,0,0,0,0,0,0,0,0,0,0,0,0,0,0,0,0,0,0,0,0,0,0,0,0,0,0,0,0,0,0,0,0,0,0,0,0,0,0,0,0,0,0,0,0,0,0,0,0,0,0,0,0,0,0,0,0,0,0,0,0,0,0,0,0,0,0,0,0,0,0,0,0,0,0,0,0,0,0,0,0,0],"sum_hessian":[4.38E4,4.0556E4,3.244E3,2.9217E4,1.1339E4,2.56E3,6.84E2,1.5032E4,1.4185E4,6.156E3,5.183E3,1.731E3,8.29E2,3.72E2,3.12E2,5.972E3,9.06E3,1.2047E4,2.138E3,8.08E2,5.348E3,5.122E3,6.1E1,1.04E3,6.91E2,5.46E2,2.83E2,7.9E1,2.93E2,1.19E2,1.93E2,1.51E3,4.462E3,8.996E3,6.4E1,1.2011E4,3.6E1,9.38E2,1.2E3,2.44E2,5.64E2,2.503E3,2.845E3,2.236E3,2.886E3,5E0,5.6E1,1.027E3,1.3E1,4.32E2,2.59E2,1.24E2,4.22E2,1.6E1,2.67E2,3E0,7.6E1,2.46E2,4.7E1,3E0,1.16E2,4E1,1.53E2,4.83E2,1.027E3,1.9E3,2.562E3,4.421E3,4.575E3,2.6E1,3.8E1,4.586E3,7.425E3,7E0,2.9E1,2.21E2,7.17E2,3.89E2,8.11E2,1.07E2,1.37E2,4.06E2,1.58E2,1.159E3,1.344E3,1.458E3,1.387E3,1.371E3,8.65E2,2.769E3,1.17E2,4E0,1E0,4.4E1,1.2E1,8.23E2,2.04E2,1E0,1.2E1,4.07E2,2.5E1,1.49E2,1.1E2,9.9E1,2.5E1,1E2,3.22E2,6E0,1E1,1.07E2,1.6E2,5.5E1,2.1E1,4.1E1,2.05E2,3.2E1,1.5E1,2E0,1E0,3.9E1,7.7E1,8E0,3.2E1,7E0,1.46E2],"tree_param":{"num_deleted":"0","num_feature":"10","num_nodes":"125","size_leaf_vector":"1"}},{"base_weights":[3.3205869E-3,-6.7656465E0,8.4603935E1,-1.3078868E1,9.50124E0,6.7236855E1,1.4941048E2,-2.2300455E1,-3.3057673E0,-1.5952033E0,2.2678574E1,5.5913857E1,9.078407E1,1.196409E2,1.8440935E2,-2.6512945E1,-1.6983332E1,-6.330404E0,1.46954775E1,-1.7649113E1,8.3313996E-1,2.1919552E1,8.502994E1,4.669897E1,6.9695335E1,7.2078156E1,1.2649306E2,7.633856E1,1.310169E2,1.3166109E2,2.1608658E2,-3.5782394E1,-2.447213E1,-1.7399584E1,3.514073E1,-6.568643E0,7.181585E1,6.0432136E-1,2.5656103E1,-3.880049E0,-2.3588531E1,8.233864E0,-5.678541E0,1.4875427E1,2.737012E1,-2.4609076E1,9.507914E1,4.515667E1,1.5661218E2,5.778541E1,8.926187E1,9.7612915E1,6.2361973E1,4.1361515E1,1.314212E2,-1.7794592E0,8.1161575E1,1.3713625E2,9.679825E1,1.0504738E1,1.3467787E2,3.0254443E2,2.0090535E2,-1.2104391E0,-2.0598323E0,-9.8840123E-1,-1.4245273E0,-6.4853513E-1,-1.0620147E0,1.1462107E-2,2.9022117E0,-5.3886515E-1,-1.9955707E-1,1.404085E0,5.1899943E0,4.255087E-1,-9.1767795E-2,1.9452047E0,9.563851E-1,-6.606372E-1,8.6026095E-2,-1.4220195E0,-5.510318E-1,1.6385937E-1,6.2513226E-1,-5.545525E-1,7.4618723E-4,1.1380136E0,4.901355E-1,1.6262544E0,1.1751074E0,-1.4963596E0,4.953747E-2,5.5517635E0,1.6266292E0,2.5263422E0,1.167546E0,1.3657874E0,8.222842E0,3.0890799E0,-3.5732326E-1,3.5469017E0,5.660983E0,5.654643E0,2.0964005E0,1.861936E0,3.4779453E0,2.8163114E-1,3.0168972E0,7.883323E0,5.6499705E0,4.4633455E0,2.2340415E0,4.9635434E0,7.209533E0,7.421867E0,-7.8786325E-1,1.0409037E-3,1.0489124E0,5.033611E0,7.5195017E0,4.3766966E0,1.6288675E1,6.006556E0,1.0988015E1],"categories":[],"categories_nodes":[],"categories_segments":[],"categories_sizes":[],"default_left":[0,0,0,0,0,0,0,0,0,0,0,0,0,0,0,0,0,0,0,0,0,0,0,0,0,0,0,0,0,0,0,0,0,0,0,0,0,0,0,0,0,0,0,0,0,0,0,0,0,0,0,0,0,0,0,0,0,0,0,0,0,0,0,0,0,0,0,0,0,0,0,0,0,0,0,0,0,0,0,0,0,0,0,0,0,0,0,0,0,0,0,0,0,0,0,0,0,0,0,0,0,0,0,0,0,0,0,0,0,0,0,0,0,0,0,0,0,0,0,0,0,0,0,0,0],"id":1,"left_children":[1,3,5,7,9,11,13,15,17,19,21,23,25,27,29,31,33,35,37,39,41,43,45,47,49,51,53,55,57,59,61,63,65,67,69,71,73,75,77,79,81,83,85,87,89,91,93,95,97,99,101,103,105,107,109,-1,111,113,115,117,119,121,123,-1,-1,-1,-1,-1,-1,-1,-1,-1,-1,-1,-1,-1,-1,-1,-1,-1,-1,-1,-1,-1,-1,-1,-1,-1,-1,-1,-1,-1,-1,-1,-1,-1,-1,-1,-1,-1,-1,-1,-1,-1,-1,-1,-1,-1,-1,-1,-1,-1,-1,-1,-1,-1,-1,-1,-1,-1,-1,-1,-1,-1,-1],"loss_changes":[2.5083596E7,4.1651848E6,3.642204E6,2.6331545E6,1.6581882E6,6.7775E5,6.91641E5,3.36264E5,7.7248125E5,2.4004167E5,2.4347425E5,2.167E5,5.452965E5,1.73741E5,4.94547E5,1.577645E5,1.4485112E5,2.2660028E5,3.152126E5,6.606864E4,2.5782123E5,1.9628775E5,7.0650375E4,1.6939725E5,1.56103E5,1.2962375E5,1.13714E5,4.6074844E4,4.82875E4,4.2445875E4,1.9385E5,9.36855E4,1.29414E5,1.1192275E5,4.2365246E4,1.3132419E5,4.8840516E4,1.725885E4,9.8544375E4,1.2828495E4,3.413897E4,5.294108E4,8.770232E4,8.92515E4,5.680025E4,8.465078E2,5.3273844E4,1.19199625E5,9.707781E3,1.12796125E5,1.06108E5,1.23696E5,6.9553E4,1.1186256E4,1.11758E5,0E0,1.8779531E4,5.16645E4,2.8132766E5,4.3877704E2,4.737325E4,1.06335E5,2.294625E5,0E0,0E0,0E0,0E0,0E0,0E0,0E0,0E0,0E0,0E0,0E0,0E0,0E0,0E0,0E0,0E0,0E0,0E0,0E0,0E0,0E0,0E0,0E0,0E0,0E0,0E0,0E0,0E0,0E0,0E0,0E0,0E0,0E0,0E0,0E0,0E0,0E0,0E0,0E0,0E0,0E0,0E0,0E0,0E0,0E0,0E0,0E0,0E0,0E0,0E0,0E0,0E0,0E0,0E0,0E0,0E0,0E0,0E0,0E0,0E0,0E0,0E0],"parents":[2147483647,0,0,1,1,2,2,3,3,4,4,5,5,6,6,7,7,8,8,9,9,10,10,11,11,12,12,13,13,14,14,15,15,16,16,17,17,18,18,19,19,20,20,21,21,22,22,23,23,24,24,25,25,26,26,27,27,28,28,29,29,30,30,31,31,32,32,33,33,34,34,35,35,36,36,37,37,38,38,39,39,40,40,41,41,42,42,43,43,44,44,45,45,46,46,47,47,48,48,49,49,50,50,51,51,52,52,53,53,54,54,56,56,57,57,58,58,59,59,60,60,61,61,62,62],"right_children":[2,4,6,8,10,12,14,16,18,20,22,24,26,28,30,32,34,36,38,40,42,44,46,48,50,52,54,56,58,60,62,64,66,68,70,72,74,76,78,80,82,84,86,88,90,92,94,96,98,100,102,104,106,108,110,-1,112,114,116,118,120,122,124,-1,-1,-1,-1,-1,-1,-1,-1,-1,-1,-1,-1,-1,-1,-1,-1,-1,-1,-1,-1,-1,-1,-1,-1,-1,-1,-1,-1,-1,-1,-1,-1,-1,-1,-1,-1,-1,-1,-1,-1,-1,-1,-1,-1,-1,-1,-1,-1,-1,-1,-1,-1,-1,-1,-1,-1,-1,-1,-1,-1,-1,-1],"split_conditions":[1.2871428E2,5E0,2.1685715E2,7.263333E1,7.0566666E1,5E0,5E0,6.3E1,1.0028571E2,4.8433334E1,2.06E2,1.65E2,1.7028572E2,9E0,9E0,4.71E1,1.53E2,1.7E2,1E0,1.2E1,7E1,7.96E1,1.8E1,3.13E2,3E0,1.08E2,9.78E1,1.4E1,2.44E2,1.13666664E2,1.38E2,1.2E1,4.8E1,5.6E1,5.6E1,8.06E1,5E0,6.8E1,9.1E1,5E1,4.4866665E1,5.9433334E1,6.16E1,8.2E1,9.9E1,6E0,6E0,1.48E2,1.4214285E2,1.1E1,9E0,1.31E2,1.3457143E2,9.1933334E1,6E0,-1.7794592E0,2.6E2,4E1,2E0,4.3E1,1.89E2,1.409E2,1.38E2,-1.2104391E0,-2.0598323E0,-9.8840123E-1,-1.4245273E0,-6.4853513E-1,-1.0620147E0,1.1462107E-2,2.9022117E0,-5.3886515E-1,-1.9955707E-1,1.404085E0,5.1899943E0,4.255087E-1,-9.1767795E-2,1.9452047E0,9.563851E-1,-6.606372E-1,8.6026095E-2,-1.4220195E0,-5.510318E-1,1.6385937E-1,6.2513226E-1,-5.545525E-1,7.4618723E-4,1.1380136E0,4.901355E-1,1.6262544E0,1.1751074E0,-1.4963596E0,4.953747E-2,5.5517635E0,1.6266292E0,2.5263422E0,1.167546E0,1.3657874E0,8.222842E0,3.0890799E0,-3.5732326E-1,3.5469017E0,5.660983E0,5.654643E0,2.0964005E0,1.861936E0,3.4779453E0,2.8163114E-1,3.0168972E0,7.883323E0,5.6499705E0,4.4633455E0,2.2340415E0,4.9635434E0,7.209533E0,7.421867E0,-7.8786325E-1,1.0409037E-3,1.0489124E0,5.033611E0,7.5195017E0,4.3766966E0,1.6288675E1,6.006556E0,1.0988015E1],"split_indices":[3,5,3,4,4,5,5,4,3,4,0,3,3,6,6,4,0,0,5,2,0,4,1,0,5,0,4,2,2,4,0,2,0,0,1,4,6,0,1,1,4,4,4,0,0,5,5,2,3,6,6,2,3,4,5,0,0,2,5,2,1,4,1,0,0,0,0,0,0,0,0,0,0,0,0,0,0,0,0,0,0,0,0,0,0,0,0,0,0,0,0,0,0,0,0,0,0,0,0,0,0,0,0,0,0,0,0,0,0,0,0,0,0,0,0,0,0,0,0,0,0,0,0,0,0],"split_type":[0,0,0,0,0,0,0,0,0,0,0,0,0,0,0,0,0,0,0,0,0,0,0,0,0,0,0,0,0,0,0,0,0,0,0,0,0,0,0,0,0,0,0,0,0,0,0,0,0,0,0,0,0,0,0,0,0,0,0,0,0,0,0,0,0,0,0,0,0,0,0,0,0,0,0,0,0,0,0,0,0,0,0,0,0,0,0,0,0,0,0,0,0,0,0,0,0,0,0,0,0,0,0,0,0,0,0,0,0,0,0,0,0,0,0,0,0,0,0,0,0,0,0,0,0],"sum_hessian":[4.38E4,4.0556E4,3.244E3,2.9217E4,1.1339E4,2.56E3,6.84E2,1.5032E4,1.4185E4,6.156E3,5.183E3,1.731E3,8.29E2,3.72E2,3.12E2,8.385E3,6.647E3,1.2145E4,2.04E3,8.08E2,5.348E3,5.122E3,6.1E1,1.04E3,6.91E2,5.46E2,2.83E2,7.9E1,2.93E2,1.19E2,1.93E2,1.51E3,6.875E3,6.595E3,5.2E1,1.2109E4,3.6E1,8.93E2,1.147E3,2.44E2,5.64E2,2.503E3,2.845E3,2.236E3,2.886E3,5E0,5.6E1,1.027E3,1.3E1,4.32E2,2.59E2,1.48E2,3.98E2,1.6E1,2.67E2,3E0,7.6E1,2.46E2,4.7E1,3E0,1.16E2,2.6E1,1.67E2,4.83E2,1.027E3,3.17E3,3.705E3,3.065E3,3.53E3,2.1E1,3.1E1,4.598E3,7.511E3,1.6E1,2E1,2.1E2,6.83E2,3.77E2,7.7E2,9.1E1,1.53E2,4.06E2,1.58E2,1.159E3,1.344E3,1.458E3,1.387E3,8.74E2,1.362E3,1.234E3,1.652E3,4E0,1E0,4.4E1,1.2E1,8.23E2,2.04E2,1E0,1.2E1,4.07E2,2.5E1,1.49E2,1.1E2,1.15E2,3.3E1,9E1,3.08E2,6E0,1E1,1.07E2,1.6E2,6.1E1,1.5E1,4.1E1,2.05E2,3.2E1,1.5E1,2E0,1E0,3.9E1,7.7E1,3E0,2.3E1,3.3E1,1.34E2],"tree_param":{"num_deleted":"0","num_feature":"10","num_nodes":"125","size_leaf_vector":"1"}},{"base_weights":[6.4097266E-3,-6.427057E0,8.041384E1,-1.24247675E1,9.02687E0,6.389654E1,1.4204944E2,-2.124748E1,-3.2028742E0,-9.8103166E-1,2.2241922E1,4.5891903E1,7.739942E1,1.1372246E2,1.7535268E2,-2.7037968E1,-1.7754873E1,-6.8483243E0,1.041125E1,-1.6769806E1,1.2814727E0,2.1470877E1,8.2891014E1,4.2810387E1,8.684798E1,6.240896E1,1.069174E2,7.258311E1,1.2453003E2,1.2519139E2,2.0547638E2,-3.399544E1,-2.4471046E1,-1.8145292E1,3.7243576E1,-1.0511139E1,-4.367644E0,-1.1434158E0,1.9370188E1,-2.287812E1,-4.626267E0,8.054665E0,-4.6654873E0,1.721336E1,2.9103241E1,-2.3619759E1,9.2822685E1,4.8892323E1,1.8973864E1,3.700265E1,1.077808E2,6.728756E1,3.1925175E1,1.12154594E2,5.624591E1,-1.7127297E0,7.7190475E1,1.3032872E2,9.209655E1,1.6823315E2,1.1325125E2,2.8818262E2,1.9096124E2,-1.1500422E0,-1.9569409E0,-9.4679594E-1,-1.4285163E0,-7.198724E-1,-1.0900995E0,4.0913078E-1,2.8576448E0,-3.7179777E-1,-7.6684445E-1,-2.259012E-1,3.3998954E0,-1.3256712E-1,4.237476E-1,5.984413E-1,1.509336E0,-1.284889E0,-5.572123E-1,2.1013407E-1,-4.0355894E-1,3.274886E-1,1.07586E0,-5.298591E-1,4.1434225E-2,1.1316818E0,5.8451307E-1,1.1509899E0,1.6986955E0,-1.4365052E0,4.8299026E-2,7.5836473E0,3.5751736E0,2.0890987E0,3.1842055E0,1.6134866E0,-6.2810236E-1,4.3323245E0,1.137078E0,9.250869E0,4.972313E0,4.4599285E0,2.939407E0,2.177904E0,6.726884E-1,2.9947455E0,5.8379154E0,3.4846482E0,-9.110924E-2,4.34831E0,2.4399087E0,4.721275E0,6.8508067E0,7.0620193E0,-7.5093216E-1,-1.0323219E0,8.867149E0,5.8900824E0,-1.099786E0,4.21257E0,1.5508178E1,5.715061E0,1.0442684E1],"categories":[],"categories_nodes":[],"categories_segments":[],"categories_sizes":[],"default_left":[0,0,0,0,0,0,0,0,0,0,0,0,0,0,0,0,0,0,0,0,0,0,0,0,0,0,0,0,0,0,0,0,0,0,0,0,0,0,0,0,0,0,0,0,0,0,0,0,0,0,0,0,0,0,0,0,0,0,0,0,0,0,0,0,0,0,0,0,0,0,0,0,0,0,0,0,0,0,0,0,0,0,0,0,0,0,0,0,0,0,0,0,0,0,0,0,0,0,0,0,0,0,0,0,0,0,0,0,0,0,0,0,0,0,0,0,0,0,0,0,0,0,0,0,0],"id":2,"left_children":[1,3,5,7,9,11,13,15,17,19,21,23,25,27,29,31,33,35,37,39,41,43,45,47,49,51,53,55,57,59,61,63,65,67,69,71,73,75,77,79,81,83,85,87,89,91,93,95,97,99,101,103,105,107,109,-1,111,113,115,117,119,121,123,-1,-1,-1,-1,-1,-1,-1,-1,-1,-1,-1,-1,-1,-1,-1,-1,-1,-1,-1,-1,-1,-1,-1,-1,-1,-1,-1,-1,-1,-1,-1,-1,-1,-1,-1,-1,-1,-1,-1,-1,-1,-1,-1,-1,-1,-1,-1,-1,-1,-1,-1,-1,-1,-1,-1,-1,-1,-1,-1,-1,-1,-1],"loss_changes":[2.2658708E7,3.7592665E6,3.294506E6,2.3771705E6,1.499793E6,6.19066E5,6.26274E5,3.015035E5,7.091297E5,2.3057236E5,2.26752E5,1.3510925E5,6.40244E5,1.56803E5,4.47233E5,9.946575E4,2.00734E5,1.02356375E5,3.1243803E5,5.9902984E4,2.2745792E5,1.5635175E5,6.672006E4,1.4766888E5,7.531044E4,1.42406E5,1.239915E5,4.2023438E4,4.329E4,4.2618375E4,1.778645E5,8.454575E4,9.262425E4,1.26482E5,3.7718875E4,6.740828E4,7.344744E4,1.9152973E4,1.3573569E5,1.7513656E4,8.306785E3,5.3344625E4,9.800617E4,9.256925E4,5.038975E4,7.816023E2,5.9414812E4,8.3161625E4,8.845781E4,1.502093E4,1.57185E4,1.5063125E5,2.863711E4,9.98285E4,3.760753E4,0E0,1.7127938E4,4.6367E4,2.5479566E5,4.4957375E4,6.22875E4,9.48985E4,2.06562E5,0E0,0E0,0E0,0E0,0E0,0E0,0E0,0E0,0E0,0E0,0E0,0E0,0E0,0E0,0E0,0E0,0E0,0E0,0E0,0E0,0E0,0E0,0E0,0E0,0E0,0E0,0E0,0E0,0E0,0E0,0E0,0E0,0E0,0E0,0E0,0E0,0E0,0E0,0E0,0E0,0E0,0E0,0E0,0E0,0E0,0E0,0E0,0E0,0E0,0E0,0E0,0E0,0E0,0E0,0E0,0E0,0E0,0E0,0E0,0E0,0E0,0E0],"parents":[2147483647,0,0,1,1,2,2,3,3,4,4,5,5,6,6,7,7,8,8,9,9,10,10,11,11,12,12,13,13,14,14,15,15,16,16,17,17,18,18,19,19,20,20,21,21,22,22,23,23,24,24,25,25,26,26,27,27,28,28,29,29,30,30,31,31,32,32,33,33,34,34,35,35,36,36,37,37,38,38,39,39,40,40,41,41,42,42,43,43,44,44,45,45,46,46,47,47,48,48,49,49,50,50,51,51,52,52,53,53,54,54,56,56,57,57,58,58,59,59,60,60,61,61,62,62],"right_children":[2,4,6,8,10,12,14,16,18,20,22,24,26,28,30,32,34,36,38,40,42,44,46,48,50,52,54,56,58,60,62,64,66,68,70,72,74,76,78,80,82,84,86,88,90,92,94,96,98,100,102,104,106,108,110,-1,112,114,116,118,120,122,124,-1,-1,-1,-1,-1,-1,-1,-1,-1,-1,-1,-1,-1,-1,-1,-1,-1,-1,-1,-1,-1,-1,-1,-1,-1,-1,-1,-1,-1,-1,-1,-1,-1,-1,-1,-1,-1,-1,-1,-1,-1,-1,-1,-1,-1,-1,-1,-1,-1,-1,-1,-1,-1,-1,-1,-1,-1,-1,-1,-1,-1,-1],"split_conditions":[1.2871428E2,5E0,2.1685715E2,7.246667E1,7.1666664E1,3E0,5E0,5.9066666E1,9.4E1,4.8433334E1,2.06E2,2.6E2,1.7028572E2,9E0,9E0,4.71E1,1.53E2,8.06E1,1E0,5.5E1,7.1E1,8.6566666E1,1.8E1,1.43E2,1E0,1.9E2,1.7296666E2,1.4E1,2.44E2,1.62E2,1.38E2,1.2E1,4.1E1,5.8E1,5.2E1,8E1,1.75E2,1.1814286E2,1.0871429E2,4.4866665E1,5.3E1,1.1E2,6.16E1,9.9E1,8.7E1,6E0,1.0385714E2,1.4726666E2,2E0,3E1,1.6E1,1.08E2,1.75E2,9.78E1,2.42E2,-1.7127297E0,2.42E2,4E1,2E0,3.3E1,1.47E2,1.409E2,1.38E2,-1.1500422E0,-1.9569409E0,-9.4679594E-1,-1.4285163E0,-7.198724E-1,-1.0900995E0,4.0913078E-1,2.8576448E0,-3.7179777E-1,-7.6684445E-1,-2.259012E-1,3.3998954E0,-1.3256712E-1,4.237476E-1,5.984413E-1,1.509336E0,-1.284889E0,-5.572123E-1,2.1013407E-1,-4.0355894E-1,3.274886E-1,1.07586E0,-5.298591E-1,4.1434225E-2,1.1316818E0,5.8451307E-1,1.1509899E0,1.6986955E0,-1.4365052E0,4.8299026E-2,7.5836473E0,3.5751736E0,2.0890987E0,3.1842055E0,1.6134866E0,-6.2810236E-1,4.3323245E0,1.137078E0,9.250869E0,4.972313E0,4.4599285E0,2.939407E0,2.177904E0,6.726884E-1,2.9947455E0,5.8379154E0,3.4846482E0,-9.110924E-2,4.34831E0,2.4399087E0,4.721275E0,6.8508067E0,7.0620193E0,-7.5093216E-1,-1.0323219E0,8.867149E0,5.8900824E0,-1.099786E0,4.21257E0,1.5508178E1,5.715061E0,1.0442684E1],"split_indices":[3,5,3,4,4,5,5,4,3,4,0,0,3,6,6,4,0,4,5,3,0,4,1,2,5,2,4,2,2,0,0,2,0,0,1,0,0,3,3,4,0,1,4,0,1,5,3,4,5,2,2,0,1,4,0,0,0,2,5,1,2,4,1,0,0,0,0,0,0,0,0,0,0,0,0,0,0,0,0,0,0,0,0,0,0,0,0,0,0,0,0,0,0,0,0,0,0,0,0,0,0,0,0,0,0,0,0,0,0,0,0,0,0,0,0,0,0,0,0,0,0,0,0,0,0],"split_type":[0,0,0,0,0,0,0,0,0,0,0,0,0,0,0,0,0,0,0,0,0,0,0,0,0,0,0,0,0,0,0,0,0,0,0,0,0,0,0,0,0,0,0,0,0,0,0,0,0,0,0,0,0,0,0,0,0,0,0,0,0,0,0,0,0,0,0,0,0,0,0,0,0,0,0,0,0,0,0,0,0,0,0,0,0,0,0,0,0,0,0,0,0,0,0,0,0,0,0,0,0,0,0,0,0,0,0,0,0,0,0,0,0,0,0,0,0,0,0,0,0,0,0,0,0],"sum_hessian":[4.38E4,4.0556E4,3.244E3,2.9217E4,1.1339E4,2.56E3,6.84E2,1.4931E4,1.4286E4,6.453E3,4.886E3,1.099E3,1.461E3,3.72E2,3.12E2,5.615E3,9.316E3,1.1269E4,3.017E3,8.08E2,5.645E3,4.826E3,6E1,1.024E3,7.5E1,9.71E2,4.9E2,7.9E1,2.93E2,1.19E2,1.93E2,1.51E3,4.105E3,9.251E3,6.5E1,4.549E3,6.72E3,1.318E3,1.699E3,5.37E2,2.71E2,2.639E3,3.006E3,3.1E3,1.726E3,5E0,5.5E1,8.15E2,2.09E2,2.3E1,5.2E1,8.36E2,1.35E2,4.43E2,4.7E1,3E0,7.6E1,2.46E2,4.7E1,2.3E1,9.6E1,2.6E1,1.67E2,4.83E2,1.027E3,1.749E3,2.356E3,4.571E3,4.68E3,2.7E1,3.8E1,2.78E3,1.769E3,6.707E3,1.3E1,1.14E3,1.78E2,1.01E3,6.89E2,4.32E2,1.05E2,7.6E1,1.95E2,2.375E3,2.64E2,1.445E3,1.561E3,1.563E3,1.537E3,7.7E2,9.56E2,4E0,1E0,1.3E1,4.2E1,5.53E2,2.62E2,1.47E2,6.2E1,4E0,1.9E1,3E0,4.9E1,2.31E2,6.05E2,8.2E1,5.3E1,3.7E1,4.06E2,3.8E1,9E0,5.5E1,2.1E1,4.1E1,2.05E2,3.2E1,1.5E1,1E0,2.2E1,9.3E1,3E0,3E0,2.3E1,3.3E1,1.34E2],"tree_param":{"num_deleted":"0","num_feature":"10","num_nodes":"125","size_leaf_vector":"1"}},{"base_weights":[9.136797E-3,-6.105369E0,7.643009E1,-1.1803515E1,8.576691E0,6.0720623E1,1.3505128E2,-2.0542892E1,-3.3891568E0,1.2759438E-2,2.2534784E1,5.036289E1,8.226144E1,1.08097885E2,1.6674E2,-3.043535E1,-1.8761896E1,-7.095914E0,8.7358675E0,-5.6180983E0,6.6639113E0,2.170462E1,8.1003944E1,4.187874E1,6.3053116E1,6.531912E1,1.1460364E2,6.901739E1,1.1836436E2,1.1903703E2,1.953875E2,-2.2019869E1,-3.292593E1,-1.9071962E1,2.4442434E1,-1.0402968E1,-4.4855795E0,-1.9106947E0,1.6863117E1,8.405157E-1,-1.0068439E1,1.3006456E1,2.9357302E-1,1.7633032E1,2.7649729E1,-2.2670137E1,9.084104E1,4.044005E1,1.4452852E2,5.2498875E1,8.0387474E1,5.9595837E1,1.06126755E2,8.759283E1,1.285846E2,-1.6485022E0,7.341911E1,1.3790375E2,1.0892599E2,1.5457448E2,1.0601329E2,2.7450388E2,1.8150935E2,-1.2148277E0,-6.983713E-1,-1.8984498E0,-1.3251642E0,-7.320008E-1,-1.128407E0,3.762025E0,6.407249E-1,-3.5849065E-1,-7.343549E-1,-1.057071E0,-1.9166376E-1,-1.700902E-1,3.6680907E-1,5.2692676E-1,1.4309181E0,-7.436754E-1,2.847112E-1,-1.1524836E0,-4.3582305E-1,2.9035756E-1,7.421877E-1,-2.5330368E-2,1.344879E0,1.2569182E0,7.204461E-1,1.0935149E0,1.6138496E0,-1.3790449E0,4.7091484E-2,5.3950744E0,1.3711287E0,2.2135246E0,7.4956554E-1,1.2073349E0,7.596561E0,2.8134663E0,-4.3436676E-1,3.1689308E0,5.13241E0,2.7647934E0,5.110478E0,6.0473623E0,5.5186415E-1,1.4121507E-1,4.6486773E0,7.1378436E0,3.9231625E0,4.039103E0,2.01495E0,2.897543E-1,7.114587E0,2.7462263E0,5.6783156E0,-1.006514E0,8.064647E0,5.4812922E0,-1.8248405E0,6.0055385E0,1.5206682E1,8.095458E0,1.2699755E1],"categories":[],"categories_nodes":[],"categories_segments":[],"categories_sizes":[],"default_left":[0,0,0,0,0,0,0,0,0,0,0,0,0,0,0,0,0,0,0,0,0,0,0,0,0,0,0,0,0,0,0,0,0,0,0,0,0,0,0,0,0,0,0,0,0,0,0,0,0,0,0,0,0,0,0,0,0,0,0,0,0,0,0,0,0,0,0,0,0,0,0,0,0,0,0,0,0,0,0,0,0,0,0,0,0,0,0,0,0,0,0,0,0,0,0,0,0,0,0,0,0,0,0,0,0,0,0,0,0,0,0,0,0,0,0,0,0,0,0,0,0,0,0,0,0],"id":3,"left_children":[1,3,5,7,9,11,13,15,17,19,21,23,25,27,29,31,33,35,37,39,41,43,45,47,49,51,53,55,57,59,61,63,65,67,69,71,73,75,77,79,81,83,85,87,89,91,93,95,97,99,101,103,105,107,109,-1,111,113,115,117,119,121,123,-1,-1,-1,-1,-1,-1,-1,-1,-1,-1,-1,-1,-1,-1,-1,-1,-1,-1,-1,-1,-1,-1,-1,-1,-1,-1,-1,-1,-1,-1,-1,-1,-1,-1,-1,-1,-1,-1,-1,-1,-1,-1,-1,-1,-1,-1,-1,-1,-1,-1,-1,-1,-1,-1,-1,-1,-1,-1,-1,-1,-1,-1],"loss_changes":[2.0467638E7,3.3931215E6,2.980146E6,2.148513E6,1.3555398E6,5.67252E5,5.67047E5,2.519365E5,6.69151E5,2.6328534E5,2.0754175E5,1.838365E5,4.473145E5,1.414855E5,4.04478E5,4.5071375E4,1.63203E5,9.838131E4,3.0166625E5,1.0943318E5,1.3021878E5,1.0246075E5,6.325053E4,1.4789175E5,1.2238175E5,1.2142925E5,9.5986E4,3.833422E4,3.9198E4,3.9152625E4,1.631845E5,8.863734E3,5.353825E4,1.865685E5,5.0424707E4,6.9552625E4,6.917041E4,2.084499E4,1.4668244E5,1.1861027E5,3.935753E4,2.1275812E4,3.4266027E4,6.0786125E4,4.5479125E4,7.216929E2,5.6548156E4,9.9545625E4,8.8074375E3,1.0038175E5,9.1938125E4,8.266875E4,9.167694E4,4.5348812E4,1.2021025E5,0E0,1.5521906E4,5.2507E4,4.4631E4,3.845925E4,5.085E4,8.6985375E4,1.97559E5,0E0,0E0,0E0,0E0,0E0,0E0,0E0,0E0,0E0,0E0,0E0,0E0,0E0,0E0,0E0,0E0,0E0,0E0,0E0,0E0,0E0,0E0,0E0,0E0,0E0,0E0,0E0,0E0,0E0,0E0,0E0,0E0,0E0,0E0,0E0,0E0,0E0,0E0,0E0,0E0,0E0,0E0,0E0,0E0,0E0,0E0,0E0,0E0,0E0,0E0,0E0,0E0,0E0,0E0,0E0,0E0,0E0,0E0,0E0,0E0,0E0,0E0],"parents":[2147483647,0,0,1,1,2,2,3,3,4,4,5,5,6,6,7,7,8,8,9,9,10,10,11,11,12,12,13,13,14,14,15,15,16,16,17,17,18,18,19,19,20,20,21,21,22,22,23,23,24,24,25,25,26,26,27,27,28,28,29,29,30,30,31,31,32,32,33,33,34,34,35,35,36,36,37,37,38,38,39,39,40,40,41,41,42,42,43,43,44,44,45,45,46,46,47,47,48,48,49,49,50,50,51,51,52,52,53,53,54,54,56,56,57,57,58,58,59,59,60,60,61,61,62,62],"right_children":[2,4,6,8,10,12,14,16,18,20,22,24,26,28,30,32,34,36,38,40,42,44,46,48,50,52,54,56,58,60,62,64,66,68,70,72,74,76,78,80,82,84,86,88,90,92,94,96,98,100,102,104,106,108,110,-1,112,114,116,118,120,122,124,-1,-1,-1,-1,-1,-1,-1,-1,-1,-1,-1,-1,-1,-1,-1,-1,-1,-1,-1,-1,-1,-1,-1,-1,-1,-1,-1,-1,-1,-1,-1,-1,-1,-1,-1,-1,-1,-1,-1,-1,-1,-1,-1,-1,-1,-1,-1,-1,-1,-1,-1,-1,-1,-1,-1,-1,-1,-1,-1,-1,-1,-1],"split_conditions":[1.2871428E2,5E0,2.1685715E2,7.15E1,7.396667E1,5E0,5E0,5.1933334E1,9.171429E1,6.1933334E1,2.06E2,1.65E2,1.7028572E2,9E0,9E0,1.1E1,1.42E2,8.06E1,1E0,5.2E1,8.5E1,8.6566666E1,1.8E1,3.13E2,3E0,2.17E2,1.17166664E2,1.4E1,1.82E2,1.89E2,1.38E2,5.9285713E1,4.4866665E1,4.9E1,7.157143E1,7.5E1,5.342857E1,1.2E1,1.0871429E2,4.8433334E1,4.8E1,6.3E1,1.75E2,7.5E1,8.7E1,6E0,6E0,1.9E2,1.4214285E2,1.1E1,9E0,1E0,1.67E2,9.1933334E1,1.1E1,-1.6485022E0,2.6E2,3.2E1,8.5E1,3.3E1,1.47E2,2.3314285E2,2.1933333E2,-1.2148277E0,-6.983713E-1,-1.8984498E0,-1.3251642E0,-7.320008E-1,-1.128407E0,3.762025E0,6.407249E-1,-3.5849065E-1,-7.343549E-1,-1.057071E0,-1.9166376E-1,-1.700902E-1,3.6680907E-1,5.2692676E-1,1.4309181E0,-7.436754E-1,2.847112E-1,-1.1524836E0,-4.3582305E-1,2.9035756E-1,7.421877E-1,-2.5330368E-2,1.344879E0,1.2569182E0,7.204461E-1,1.0935149E0,1.6138496E0,-1.3790449E0,4.7091484E-2,5.3950744E0,1.3711287E0,2.2135246E0,7.4956554E-1,1.2073349E0,7.596561E0,2.8134663E0,-4.3436676E-1,3.1689308E0,5.13241E0,2.7647934E0,5.110478E0,6.0473623E0,5.5186415E-1,1.4121507E-1,4.6486773E0,7.1378436E0,3.9231625E0,4.039103E0,2.01495E0,2.897543E-1,7.114587E0,2.7462263E0,5.6783156E0,-1.006514E0,8.064647E0,5.4812922E0,-1.8248405E0,6.0055385E0,1.5206682E1,8.095458E0,1.2699755E1],"split_indices":[3,5,3,4,4,5,5,4,3,4,0,3,3,6,6,2,0,4,5,0,0,4,1,0,5,1,4,2,0,0,0,3,4,0,3,0,3,6,3,4,3,3,0,0,1,5,5,2,3,6,6,9,2,4,6,0,0,0,1,1,2,3,4,0,0,0,0,0,0,0,0,0,0,0,0,0,0,0,0,0,0,0,0,0,0,0,0,0,0,0,0,0,0,0,0,0,0,0,0,0,0,0,0,0,0,0,0,0,0,0,0,0,0,0,0,0,0,0,0,0,0,0,0,0,0],"split_type":[0,0,0,0,0,0,0,0,0,0,0,0,0,0,0,0,0,0,0,0,0,0,0,0,0,0,0,0,0,0,0,0,0,0,0,0,0,0,0,0,0,0,0,0,0,0,0,0,0,0,0,0,0,0,0,0,0,0,0,0,0,0,0,0,0,0,0,0,0,0,0,0,0,0,0,0,0,0,0,0,0,0,0,0,0,0,0,0,0,0,0,0,0,0,0,0,0,0,0,0,0,0,0,0,0,0,0,0,0,0,0,0,0,0,0,0,0,0,0,0,0,0,0,0,0],"sum_hessian":[4.38E4,4.0556E4,3.244E3,2.9217E4,1.1339E4,2.56E3,6.84E2,1.4331E4,1.4886E4,7.028E3,4.311E3,1.731E3,8.29E2,3.72E2,3.12E2,2.184E3,1.2147E4,1.1401E4,3.485E3,3.806E3,3.222E3,4.252E3,5.9E1,1.04E3,6.91E2,5.46E2,2.83E2,7.9E1,2.93E2,1.19E2,1.93E2,5.01E2,1.683E3,1.2061E4,8.6E1,5.028E3,6.373E3,1.509E3,1.976E3,1.553E3,2.253E3,1.614E3,1.608E3,2.526E3,1.726E3,5E0,5.4E1,1.027E3,1.3E1,4.32E2,2.59E2,4.81E2,6.5E1,9.9E1,1.84E2,3E0,7.6E1,9.1E1,2.02E2,2.9E1,9E1,2.6E1,1.67E2,3.89E2,1.12E2,9.4E2,7.43E2,5.321E3,6.74E3,1.5E1,7.1E1,2.867E3,2.161E3,2.39E2,6.134E3,1.3E3,2.09E2,1.286E3,6.9E2,3.66E2,1.187E3,2.11E2,2.042E3,3.29E2,1.285E3,1.562E3,4.6E1,7.57E2,1.769E3,7.7E2,9.56E2,4E0,1E0,4.2E1,1.2E1,8.92E2,1.35E2,1E0,1.2E1,4.07E2,2.5E1,1.49E2,1.1E2,4.39E2,4.2E1,5.6E1,9E0,6E0,9.3E1,1.42E2,4.2E1,6.1E1,1.5E1,3E0,8.8E1,1.7E1,1.85E2,1E0,2.8E1,8.8E1,2E0,5E0,2.1E1,1.34E2,3.3E1],"tree_param":{"num_deleted":"0","num_feature":"10","num_nodes":"125","size_leaf_vector":"1"}},{"base_weights":[1.1725633E-2,-5.799911E0,7.264733E1,-1.1393249E1,7.786695E0,5.7705196E1,1.2840523E2,-1.5321301E1,2.1993873E0,-6.5041165E0,1.2267479E1,4.1287403E1,7.001838E1,9.2990295E1,1.5052896E2,-2.1070786E1,-8.7808895E0,-5.1673665E0,1.1329608E1,-1.1871837E1,-9.2644453E-1,7.9760656E0,2.4466122E1,4.5335228E1,1.4099508E1,5.6525654E1,9.6586426E1,1.0209895E2,-2.4151178E1,1.1267385E2,1.7315842E2,-2.8966175E1,-1.9288883E1,-5.7480993E0,-1.1107059E1,-1.8335905E1,-2.5239408E0,5.9448204E0,1.5353136E1,-1.3295672E1,9.263713E-1,-4.560172E0,4.221895E0,7.2208323E0,6.1252007E1,2.3114157E1,6.678832E1,4.2130596E1,8.356489E1,-4.8232546E0,3.9925945E1,6.0978382E1,2.8706085E1,1.0139762E2,5.007066E1,7.545E1,1.4617654E2,5.146221E0,-3.426006E1,3.2439808E1,1.17806526E2,2.5723276E2,1.5986154E2,-1.0461344E0,-1.5675492E0,-7.412719E-1,-1.1472818E0,-3.968906E-1,-1.3625121E-1,-6.894648E-1,-3.687831E-1,-2.0237954E-1,-1.2480538E0,1.8185806E-1,-4.3541342E-1,5.130218E-1,-4.537433E-2,-1.587185E-1,8.226023E-1,-1.6740222E-1,-7.836142E-1,1.5394308E-1,-1.8159941E0,6.155358E-1,-2.9604074E-1,6.139639E-1,9.4096534E-2,8.529345E-2,6.045987E-1,6.7050976E-1,3.7509809E0,1.6844171E0,8.716389E-1,1.6285391E0,4.8273444E0,2.3649528E0,9.9767876E-1,2.0108964E0,4.9581704E0,8.5253376E-1,-6.429991E-1,1.0032462E0,2.4925678E0,4.088312E0,2.6459687E0,4.7059627E0,1.2745466E0,2.6448505E0,5.28384E0,3.140146E0,-2.2961114E-1,5.2070413E0,3.1805327E0,9.696084E0,6.420031E0,-5.436952E-1,7.93738E-1,6.1628723E-1,-1.9234015E0,-4.4620177E-1,5.352877E0,6.0079865E0,-1.8776941E0,-9.813511E-1,1.3310862E1,7.222042E0,1.1904654E1],"categories":[],"categories_nodes":[],"categories_segments":[],"categories_sizes":[],"default_left":[0,0,0,0,0,0,0,0,0,0,0,0,0,0,0,0,0,0,0,0,0,0,0,0,0,0,0,0,0,0,0,0,0,0,0,0,0,0,0,0,0,0,0,0,0,0,0,0,0,0,0,0,0,0,0,0,0,0,0,0,0,0,0,0,0,0,0,0,0,0,0,0,0,0,0,0,0,0,0,0,0,0,0,0,0,0,0,0,0,0,0,0,0,0,0,0,0,0,0,0,0,0,0,0,0,0,0,0,0,0,0,0,0,0,0,0,0,0,0,0,0,0,0,0,0,0,0],"id":4,"left_children":[1,3,5,7,9,11,13,15,17,19,21,23,25,27,29,31,33,35,37,39,41,43,45,47,49,51,53,55,57,59,61,63,65,67,69,71,73,75,77,79,81,83,85,87,89,91,93,95,97,99,101,103,105,107,109,111,113,115,117,119,121,123,125,-1,-1,-1,-1,-1,-1,-1,-1,-1,-1,-1,-1,-1,-1,-1,-1,-1,-1,-1,-1,-1,-1,-1,-1,-1,-1,-1,-1,-1,-1,-1,-1,-1,-1,-1,-1,-1,-1,-1,-1,-1,-1,-1,-1,-1,-1,-1,-1,-1,-1,-1,-1,-1,-1,-1,-1,-1,-1,-1,-1,-1,-1,-1,-1],"loss_changes":[1.8490216E7,3.0821962E6,2.696134E6,1.534003E6,7.574745E5,5.14829E5,5.22707E5,8.379705E5,4.3334803E5,8.453782E4,4.7121138E5,1.2041775E5,5.18632E5,2.8628825E5,3.40279E5,1.66311E5,7.35105E4,1.2408636E5,6.2241344E4,2.6234594E4,2.5948076E4,2.6764862E5,1.3251838E5,1.137235E5,7.056645E4,1.18654E5,1.04807E5,2.7910275E5,6.099589E3,6.206875E4,2.50657E5,4.11995E4,1.576545E5,2.9958828E4,5.8958438E4,5.6317812E4,1.1323353E5,3.644192E4,3.3564875E4,3.0563453E4,1.1736793E4,1.8735508E4,1.0799081E4,1.7650381E5,6.0250062E4,1.3590525E5,7.017044E4,1.00495625E5,4.5370656E4,1.4986035E4,1.1024594E4,1.3589525E5,2.620343E4,8.6559E4,3.3695547E4,4.636575E4,5.3181875E4,1.2038557E3,3.414621E3,3.4906625E4,5.9351875E4,8.9798E4,2.40666E5,0E0,0E0,0E0,0E0,0E0,0E0,0E0,0E0,0E0,0E0,0E0,0E0,0E0,0E0,0E0,0E0,0E0,0E0,0E0,0E0,0E0,0E0,0E0,0E0,0E0,0E0,0E0,0E0,0E0,0E0,0E0,0E0,0E0,0E0,0E0,0E0,0E0,0E0,0E0,0E0,0E0,0E0,0E0,0E0,0E0,0E0,0E0,0E0,0E0,0E0,0E0,0E0,0E0,0E0,0E0,0E0,0E0,0E0,0E0,0E0,0E0,0E0,0E0,0E0],"parents":[2147483647,0,0,1,1,2,2,3,3,4,4,5,5,6,6,7,7,8,8,9,9,10,10,11,11,12,12,13,13,14,14,15,15,16,16,17,17,18,18,19,19,20,20,21,21,22,22,23,23,24,24,25,25,26,26,27,27,28,28,29,29,30,30,31,31,32,32,33,33,34,34,35,35,36,36,37,37,38,38,39,39,40,40,41,41,42,42,43,43,44,44,45,45,46,46,47,47,48,48,49,49,50,50,51,51,52,52,53,53,54,54,55,55,56,56,57,57,58,58,59,59,60,60,61,61,62,62],"right_children":[2,4,6,8,10,12,14,16,18,20,22,24,26,28,30,32,34,36,38,40,42,44,46,48,50,52,54,56,58,60,62,64,66,68,70,72,74,76,78,80,82,84,86,88,90,92,94,96,98,100,102,104,106,108,110,112,114,116,118,120,122,124,126,-1,-1,-1,-1,-1,-1,-1,-1,-1,-1,-1,-1,-1,-1,-1,-1,-1,-1,-1,-1,-1,-1,-1,-1,-1,-1,-1,-1,-1,-1,-1,-1,-1,-1,-1,-1,-1,-1,-1,-1,-1,-1,-1,-1,-1,-1,-1,-1,-1,-1,-1,-1,-1,-1,-1,-1,-1,-1,-1,-1,-1,-1,-1,-1],"split_conditions":[1.2871428E2,8.085714E1,2.1685715E2,5E0,1E0,3E0,3E0,6.846667E1,6.1933334E1,8.236667E1,1.0314286E2,1.1E1,1.7028572E2,2E0,1.508E2,5.1933334E1,6.1E1,4.4866665E1,6.846667E1,1.2E1,1.0471429E2,1.82E2,2.27E2,2.6E2,1E0,1.9E2,1.7296666E2,2.4753334E2,5.1E1,2.1E1,1.48E2,1.1E1,4.8E1,7.8E1,8.103333E1,1E1,6.7E1,8.8E1,5.6E1,4.5E1,1.0757143E2,3E1,6.8E1,5E0,3E0,9.9E1,6.4E1,1.44E2,1E0,1.3457143E2,1.034E2,1.08E2,3.5E1,9.78E1,2.42E2,1.42E2,1.89E2,2.27E2,5E1,1.3786667E2,1.59E2,3.3E1,2.1933333E2,-1.0461344E0,-1.5675492E0,-7.412719E-1,-1.1472818E0,-3.968906E-1,-1.3625121E-1,-6.894648E-1,-3.687831E-1,-2.0237954E-1,-1.2480538E0,1.8185806E-1,-4.3541342E-1,5.130218E-1,-4.537433E-2,-1.587185E-1,8.226023E-1,-1.6740222E-1,-7.836142E-1,1.5394308E-1,-1.8159941E0,6.155358E-1,-2.9604074E-1,6.139639E-1,9.4096534E-2,8.529345E-2,6.045987E-1,6.7050976E-1,3.7509809E0,1.6844171E0,8.716389E-1,1.6285391E0,4.8273444E0,2.3649528E0,9.9767876E-1,2.0108964E0,4.9581704E0,8.5253376E-1,-6.429991E-1,1.0032462E0,2.4925678E0,4.088312E0,2.6459687E0,4.7059627E0,1.2745466E0,2.6448505E0,5.28384E0,3.140146E0,-2.2961114E-1,5.2070413E0,3.1805327E0,9.696084E0,6.420031E0,-5.436952E-1,7.93738E-1,6.1628723E-1,-1.9234015E0,-4.4620177E-1,5.352877E0,6.0079865E0,-1.8776941E0,-9.813511E-1,1.3310862E1,7.222042E0,1.1904654E1],"split_indices":[3,3,3,5,5,5,5,4,4,4,3,6,3,5,4,4,0,4,4,6,3,0,0,0,5,2,4,4,0,2,0,2,0,1,4,2,0,0,3,0,3,0,0,5,6,0,2,2,5,3,4,0,0,4,0,0,0,1,1,4,2,1,4,0,0,0,0,0,0,0,0,0,0,0,0,0,0,0,0,0,0,0,0,0,0,0,0,0,0,0,0,0,0,0,0,0,0,0,0,0,0,0,0,0,0,0,0,0,0,0,0,0,0,0,0,0,0,0,0,0,0,0,0,0,0,0,0],"split_type":[0,0,0,0,0,0,0,0,0,0,0,0,0,0,0,0,0,0,0,0,0,0,0,0,0,0,0,0,0,0,0,0,0,0,0,0,0,0,0,0,0,0,0,0,0,0,0,0,0,0,0,0,0,0,0,0,0,0,0,0,0,0,0,0,0,0,0,0,0,0,0,0,0,0,0,0,0,0,0,0,0,0,0,0,0,0,0,0,0,0,0,0,0,0,0,0,0,0,0,0,0,0,0,0,0,0,0,0,0,0,0,0,0,0,0,0,0,0,0,0,0,0,0,0,0,0,0],"sum_hessian":[4.38E4,4.0556E4,3.244E3,2.8729E4,1.1827E4,2.56E3,6.84E2,2.2288E4,6.441E3,2.823E3,9.004E3,1.099E3,1.461E3,2.65E2,4.19E2,1.186E4,1.0428E4,3.565E3,2.876E3,1.438E3,1.385E3,6.662E3,2.342E3,9.56E2,1.43E2,9.71E2,4.9E2,2.46E2,1.9E1,1.59E2,2.6E2,2.181E3,9.679E3,4.528E3,5.9E3,5.95E2,2.97E3,1.231E3,1.645E3,1.294E3,1.44E2,8.12E2,5.73E2,6.57E3,9.2E1,2.271E3,7.1E1,8.84E2,7.2E1,8.3E1,6E1,8.36E2,1.35E2,4.43E2,4.7E1,1.55E2,9.1E1,5E0,1.4E1,1E1,1.49E2,3.3E1,2.27E2,5.01E2,1.68E3,4.361E3,5.318E3,2.625E3,1.903E3,3.431E3,2.469E3,1.89E2,4.06E2,1.488E3,1.482E3,7.55E2,4.76E2,9.2E1,1.553E3,2.5E2,1.044E3,1.37E2,7E0,6E1,7.52E2,1.28E2,4.45E2,3.082E3,3.488E3,2.1E1,7.1E1,7.92E2,1.479E3,3.4E1,3.7E1,7.16E2,1.68E2,2E1,5.2E1,2.2E1,6.1E1,2.1E1,3.9E1,2.31E2,6.05E2,5E0,1.3E2,3.7E1,4.06E2,3.8E1,9E0,4.3E1,1.12E2,2.2E1,6.9E1,2E0,3E0,1E0,1.3E1,7E0,3E0,1.47E2,2E0,1E0,3.2E1,1.92E2,3.5E1],"tree_param":{"num_deleted":"0","num_feature":"10","num_nodes":"127","size_leaf_vector":"1"}},{"base_weights":[1.359222E-2,-5.50977E0,6.904626E1,-1.0823817E1,7.39842E0,5.4834618E1,1.2207831E2,-1.4555508E1,2.0893295E0,-3.1818419E0,1.2924531E1,4.535608E1,7.454787E1,8.8428925E1,1.4309892E2,-2.0390684E1,-8.714835E0,-4.909475E0,1.076352E1,-6.5924544E0,5.5038505E0,9.691032E0,2.8117002E1,4.336559E1,9.27013E1,5.920173E1,1.038429E2,9.709321E1,-2.2996473E1,1.0709664E2,1.6462102E2,-2.8747087E1,-1.8885258E1,-1.1838194E1,-6.3164334E0,-1.57146E1,-1.9919977E0,5.6479573E0,1.4585884E1,-7.0188875E0,8.227189E1,1.2221041E0,1.6074762E1,8.9102155E-1,1.2643747E1,2.6175573E1,7.2961136E1,3.5910233E1,5.5058533E1,1.7127201E1,1.0522018E2,5.3781094E1,9.7891785E1,7.8452324E1,1.1700623E2,7.173126E1,1.390429E2,4.9305825E0,-3.2634197E1,3.1263884E1,1.1194373E2,2.4473375E2,1.5195236E2,-9.9394083E-1,-1.6212816E0,-7.405893E-1,-1.114467E0,-4.4990325E-1,-7.8206444E-1,-1.461014E-1,-4.1536155E-1,-1.9917877E-1,-9.8573923E-1,2.1523896E-1,-4.042271E-1,5.178982E-1,-1.127329E-3,-1.5086773E-1,7.814987E-1,-6.364264E-1,-1.9913457E-1,1.399392E0,4.726614E0,3.358868E-1,-7.9960726E-2,1.052189E0,-4.576467E-1,5.4498357E-1,-2.5535542E-1,2.2906218E-1,9.962044E-1,1.913332E0,1.0125717E0,2.0261302E0,4.890703E0,2.0225196E0,8.786786E-1,2.8651893E0,-7.2466683E-1,-4.9194145E-1,2.061935E0,-1.4839197E0,5.4028854E0,2.4851265E0,4.713226E0,5.5899563E0,4.4153816E-1,2.1812331E-2,4.1713715E0,6.524101E0,3.4735181E0,4.7449245E0,2.9267943E0,9.232359E0,6.1036153E0,-5.2557206E-1,7.6397276E-1,6.008801E-1,-1.8341007E0,-4.266803E-1,5.152145E0,5.709617E0,-1.8151045E0,-9.5681727E-1,1.2665484E1,6.8628106E0,1.1325955E1],"categories":[],"categories_nodes":[],"categories_segments":[],"categories_sizes":[],"default_left":[0,0,0,0,0,0,0,0,0,0,0,0,0,0,0,0,0,0,0,0,0,0,0,0,0,0,0,0,0,0,0,0,0,0,0,0,0,0,0,0,0,0,0,0,0,0,0,0,0,0,0,0,0,0,0,0,0,0,0,0,0,0,0,0,0,0,0,0,0,0,0,0,0,0,0,0,0,0,0,0,0,0,0,0,0,0,0,0,0,0,0,0,0,0,0,0,0,0,0,0,0,0,0,0,0,0,0,0,0,0,0,0,0,0,0,0,0,0,0,0,0,0,0,0,0,0,0],"id":5,"left_children":[1,3,5,7,9,11,13,15,17,19,21,23,25,27,29,31,33,35,37,39,41,43,45,47,49,51,53,55,57,59,61,63,65,67,69,71,73,75,77,79,81,83,85,87,89,91,93,95,97,99,101,103,105,107,109,111,113,115,117,119,121,123,125,-1,-1,-1,-1,-1,-1,-1,-1,-1,-1,-1,-1,-1,-1,-1,-1,-1,-1,-1,-1,-1,-1,-1,-1,-1,-1,-1,-1,-1,-1,-1,-1,-1,-1,-1,-1,-1,-1,-1,-1,-1,-1,-1,-1,-1,-1,-1,-1,-1,-1,-1,-1,-1,-1,-1,-1,-1,-1,-1,-1,-1,-1,-1,-1],"loss_changes":[1.6701369E7,2.7820765E6,2.438973E6,1.384468E6,6.91597E5,4.751495E5,4.71867E5,7.594615E5,3.9114E5,1.202782E5,3.8142775E5,1.5920375E5,3.66992E5,2.59035E5,3.07804E5,1.397105E5,8.338319E4,1.1238224E5,5.6173156E4,1.1104045E5,5.18053E4,1.6649369E5,1.1675525E5,1.43082E5,6.3478938E4,1.09454625E5,8.574025E4,2.52816E5,5.5439717E3,5.531125E4,2.277065E5,5.4813375E4,1.307075E5,5.2115875E4,4.2575484E4,3.5491562E4,1.0779756E5,3.2904617E4,3.0299594E4,5.025717E4,6.6718516E3,1.2662764E4,4.1560367E4,9.676911E4,2.8154062E5,9.2916E4,4.1183094E4,8.4122125E4,1.01711125E5,7.557845E3,2.5791E4,7.4899875E4,8.076044E4,3.8777438E4,1.0944325E5,4.213425E4,4.866125E4,1.1194543E3,3.151963E3,3.2302191E4,5.4147375E4,8.178725E4,2.18761E5,0E0,0E0,0E0,0E0,0E0,0E0,0E0,0E0,0E0,0E0,0E0,0E0,0E0,0E0,0E0,0E0,0E0,0E0,0E0,0E0,0E0,0E0,0E0,0E0,0E0,0E0,0E0,0E0,0E0,0E0,0E0,0E0,0E0,0E0,0E0,0E0,0E0,0E0,0E0,0E0,0E0,0E0,0E0,0E0,0E0,0E0,0E0,0E0,0E0,0E0,0E0,0E0,0E0,0E0,0E0,0E0,0E0,0E0,0E0,0E0,0E0,0E0,0E0,0E0],"parents":[2147483647,0,0,1,1,2,2,3,3,4,4,5,5,6,6,7,7,8,8,9,9,10,10,11,11,12,12,13,13,14,14,15,15,16,16,17,17,18,18,19,19,20,20,21,21,22,22,23,23,24,24,25,25,26,26,27,27,28,28,29,29,30,30,31,31,32,32,33,33,34,34,35,35,36,36,37,37,38,38,39,39,40,40,41,41,42,42,43,43,44,44,45,45,46,46,47,47,48,48,49,49,50,50,51,51,52,52,53,53,54,54,55,55,56,56,57,57,58,58,59,59,60,60,61,61,62,62],"right_children":[2,4,6,8,10,12,14,16,18,20,22,24,26,28,30,32,34,36,38,40,42,44,46,48,50,52,54,56,58,60,62,64,66,68,70,72,74,76,78,80,82,84,86,88,90,92,94,96,98,100,102,104,106,108,110,112,114,116,118,120,122,124,126,-1,-1,-1,-1,-1,-1,-1,-1,-1,-1,-1,-1,-1,-1,-1,-1,-1,-1,-1,-1,-1,-1,-1,-1,-1,-1,-1,-1,-1,-1,-1,-1,-1,-1,-1,-1,-1,-1,-1,-1,-1,-1,-1,-1,-1,-1,-1,-1,-1,-1,-1,-1,-1,-1,-1,-1,-1,-1,-1,-1,-1,-1,-1,-1],"split_conditions":[1.2871428E2,8.085714E1,2.1685715E2,5E0,2E0,5E0,3E0,6.73E1,6.1933334E1,1.0171429E2,1.0871429E2,2.83E2,1.7028572E2,2E0,1.508E2,4.93E1,7.596667E1,4.8433334E1,6.846667E1,1.89E2,1E0,7.396667E1,2.27E2,1.65E2,1E0,2.17E2,1.17166664E2,2.4753334E2,5.1E1,2.1E1,1.48E2,1.2E1,4.8E1,7.1E1,5.7E1,1.2E1,6.7E1,7.8E1,5.6E1,7.7333336E1,8.885714E1,8.5E1,1.3223334E2,8.5E1,5E0,9.9E1,6.4E1,1.48E2,2.4753334E2,1.3E2,1.3E1,1E0,1.67E2,9.1933334E1,1.1E1,1.62E2,1.89E2,2.27E2,5E1,1.3786667E2,1.59E2,3.3E1,2.1933333E2,-9.9394083E-1,-1.6212816E0,-7.405893E-1,-1.114467E0,-4.4990325E-1,-7.8206444E-1,-1.461014E-1,-4.1536155E-1,-1.9917877E-1,-9.8573923E-1,2.1523896E-1,-4.042271E-1,5.178982E-1,-1.127329E-3,-1.5086773E-1,7.814987E-1,-6.364264E-1,-1.9913457E-1,1.399392E0,4.726614E0,3.358868E-1,-7.9960726E-2,1.052189E0,-4.576467E-1,5.4498357E-1,-2.5535542E-1,2.2906218E-1,9.962044E-1,1.913332E0,1.0125717E0,2.0261302E0,4.890703E0,2.0225196E0,8.786786E-1,2.8651893E0,-7.2466683E-1,-4.9194145E-1,2.061935E0,-1.4839197E0,5.4028854E0,2.4851265E0,4.713226E0,5.5899563E0,4.4153816E-1,2.1812331E-2,4.1713715E0,6.524101E0,3.4735181E0,4.7449245E0,2.9267943E0,9.232359E0,6.1036153E0,-5.2557206E-1,7.6397276E-1,6.008801E-1,-1.8341007E0,-4.266803E-1,5.152145E0,5.709617E0,-1.8151045E0,-9.5681727E-1,1.2665484E1,6.8628106E0,1.1325955E1],"split_indices":[3,3,3,5,5,5,5,4,4,3,3,0,3,5,4,4,4,4,4,0,5,4,0,3,5,1,4,4,0,2,0,2,0,0,0,2,0,0,3,4,3,0,4,0,5,0,2,2,4,1,1,9,2,4,6,0,0,1,1,4,2,1,4,0,0,0,0,0,0,0,0,0,0,0,0,0,0,0,0,0,0,0,0,0,0,0,0,0,0,0,0,0,0,0,0,0,0,0,0,0,0,0,0,0,0,0,0,0,0,0,0,0,0,0,0,0,0,0,0,0,0,0,0,0,0,0,0],"split_type":[0,0,0,0,0,0,0,0,0,0,0,0,0,0,0,0,0,0,0,0,0,0,0,0,0,0,0,0,0,0,0,0,0,0,0,0,0,0,0,0,0,0,0,0,0,0,0,0,0,0,0,0,0,0,0,0,0,0,0,0,0,0,0,0,0,0,0,0,0,0,0,0,0,0,0,0,0,0,0,0,0,0,0,0,0,0,0,0,0,0,0,0,0,0,0,0,0,0,0,0,0,0,0,0,0,0,0,0,0,0,0,0,0,0,0,0,0,0,0,0,0,0,0,0,0,0,0],"sum_hessian":[4.38E4,4.0556E4,3.244E3,2.8729E4,1.1827E4,2.56E3,6.84E2,2.2288E4,6.441E3,4.058E3,7.769E3,1.731E3,8.29E2,2.65E2,4.19E2,1.1148E4,1.114E4,3.565E3,2.876E3,2.914E3,1.144E3,6.407E3,1.362E3,1.663E3,6.8E1,5.46E2,2.83E2,2.46E2,1.9E1,1.59E2,2.6E2,1.699E3,9.449E3,4.837E3,6.303E3,7.57E2,2.808E3,1.231E3,1.645E3,2.901E3,1.3E1,8.15E2,3.29E2,1.61E3,4.797E3,1.307E3,5.5E1,1.018E3,6.45E2,1E1,5.8E1,4.81E2,6.5E1,9.9E1,1.84E2,1.55E2,9.1E1,5E0,1.4E1,1E1,1.49E2,3.3E1,2.27E2,5E2,1.199E3,4.304E3,5.145E3,2.771E3,2.066E3,2.331E3,3.972E3,1.93E2,5.64E2,1.381E3,1.427E3,6.72E2,5.59E2,9.2E1,1.553E3,1.006E3,1.895E3,3E0,1E1,2.76E2,5.39E2,2.75E2,5.4E1,6.03E2,1.007E3,2.277E3,2.52E3,4.28E2,8.79E2,2.5E1,3E1,8.15E2,2.03E2,6.25E2,2E1,5E0,5E0,1E0,5.7E1,4.39E2,4.2E1,5.6E1,9E0,6E0,9.3E1,1.42E2,4.2E1,5.4E1,1.01E2,2.2E1,6.9E1,2E0,3E0,1E0,1.3E1,7E0,3E0,1.47E2,2E0,1E0,3.2E1,1.92E2,3.5E1],"tree_param":{"num_deleted":"0","num_feature":"10","num_nodes":"127","size_leaf_vector":"1"}},{"base_weights":[1.541235E-2,-5.23401E0,6.562429E1,-9.561888E0,9.131967E0,5.4255608E1,1.25784E2,-1.3389758E1,2.971199E0,-4.229787E0,1.3429762E1,4.324954E1,7.253181E1,1.0069355E2,1.5389224E2,-1.9091991E1,-7.881254E0,-3.7184567E0,1.2216023E1,-9.100401E0,-3.53679E-1,1.0043338E1,2.5420895E1,2.6144745E1,4.98809E1,4.7141666E1,9.094901E1,4.9814957E1,1.04703926E2,1.0549096E2,1.7308875E2,-2.61511E1,-1.747439E1,-1.1528231E1,-5.8375416E0,-1.4532933E1,-1.3165946E0,1.2020371E1,6.471683E0,-3.524734E0,-1.3059575E1,-4.2412617E1,4.6210874E-2,9.474801E0,6.458633E1,2.3911867E1,6.0994534E1,2.3826138E1,8.1025444E1,5.4658333E1,1.8077326E1,5.0838955E1,7.854633E-1,9.302873E1,1.5010874E1,8.503577E1,1.889011E1,1.10988785E2,7.815529E1,5.2453403E1,1.1759749E2,2.661188E2,1.582904E2,-9.4442505E-1,-1.4150275E0,-6.796913E-1,-1.0309256E0,-4.365842E-1,-7.57633E-1,-1.3345873E-1,-3.780664E-1,-1.4461707E-1,-9.3653935E-1,2.5784734E-1,-3.6692995E-1,4.335272E-1,8.785316E-1,-2.038517E-1,1.1136348E0,-7.5666815E-1,1.06398106E-1,-2.471132E0,-8.018452E-1,-1.3927917E-1,2.4394798E-1,8.7814325E-1,3.2189414E-1,1.6345566E-2,3.9972801E0,1.659455E0,9.0526533E-1,-5.8316964E-1,3.5142524E0,1.6907166E0,5.863424E-1,-1.323121E0,8.080206E0,2.6143045E0,5.000142E0,-1.0581074E0,1.2867297E0,2.698068E0,-4.1155982E-1,2.9261777E0,-7.1063817E-1,2.3775651E0,4.802836E0,4.469807E0,-4.334521E-2,5.387196E0,-1.9322878E-1,3.30266E0,-9.421736E-1,4.9451823E0,7.047307E0,5.1307683E0,-1.1171372E0,7.3841643E0,1.32212E0,-1.7473904E0,6.047279E0,7.269578E0,1.4653719E1,4.419088E0,8.78796E0],"categories":[],"categories_nodes":[],"categories_segments":[],"categories_sizes":[],"default_left":[0,0,0,0,0,0,0,0,0,0,0,0,0,0,0,0,0,0,0,0,0,0,0,0,0,0,0,0,0,0,0,0,0,0,0,0,0,0,0,0,0,0,0,0,0,0,0,0,0,0,0,0,0,0,0,0,0,0,0,0,0,0,0,0,0,0,0,0,0,0,0,0,0,0,0,0,0,0,0,0,0,0,0,0,0,0,0,0,0,0,0,0,0,0,0,0,0,0,0,0,0,0,0,0,0,0,0,0,0,0,0,0,0,0,0,0,0,0,0,0,0,0,0,0,0],"id":6,"left_children":[1,3,5,7,9,11,13,15,17,19,21,23,25,27,29,31,33,35,37,39,41,43,45,47,49,51,53,55,57,59,61,63,65,67,69,71,73,75,-1,77,79,81,83,85,87,89,91,93,95,97,99,101,103,105,107,109,111,113,115,117,119,121,123,-1,-1,-1,-1,-1,-1,-1,-1,-1,-1,-1,-1,-1,-1,-1,-1,-1,-1,-1,-1,-1,-1,-1,-1,-1,-1,-1,-1,-1,-1,-1,-1,-1,-1,-1,-1,-1,-1,-1,-1,-1,-1,-1,-1,-1,-1,-1,-1,-1,-1,-1,-1,-1,-1,-1,-1,-1,-1,-1,-1,-1,-1],"loss_changes":[1.508579E7,2.521686E6,2.212549E6,1.4953258E6,5.392876E5,5.462015E5,3.47707E5,7.49813E5,4.5107875E5,4.315423E4,2.8825788E5,1.923175E5,4.75018E5,5.0896E4,2.05662E5,1.334975E5,9.0461375E4,1.0990656E5,6.866769E4,2.2315977E4,2.1429293E4,1.7124381E5,8.2499625E4,5.902075E4,1.857455E5,7.4173E4,9.2256E4,2.2356027E4,3.370675E4,3.942075E4,1.9329E5,3.35745E4,1.1620225E5,4.407025E4,4.250372E4,3.7523406E4,1.3507736E5,5.670325E4,0E0,6.103427E3,1.8677672E4,1.4261484E3,1.7298188E4,1.3463838E5,5.6231625E4,8.031006E4,4.334664E4,5.531533E4,1.6883978E5,1.0965425E5,4.9220277E4,7.440475E4,2.9408758E4,7.48885E4,2.0155734E4,2.0604016E4,2.437989E4,5.955375E4,1.3011856E5,3.325028E4,3.3338625E4,2.89835E4,1.67649E5,0E0,0E0,0E0,0E0,0E0,0E0,0E0,0E0,0E0,0E0,0E0,0E0,0E0,0E0,0E0,0E0,0E0,0E0,0E0,0E0,0E0,0E0,0E0,0E0,0E0,0E0,0E0,0E0,0E0,0E0,0E0,0E0,0E0,0E0,0E0,0E0,0E0,0E0,0E0,0E0,0E0,0E0,0E0,0E0,0E0,0E0,0E0,0E0,0E0,0E0,0E0,0E0,0E0,0E0,0E0,0E0,0E0,0E0,0E0,0E0,0E0,0E0],"parents":[2147483647,0,0,1,1,2,2,3,3,4,4,5,5,6,6,7,7,8,8,9,9,10,10,11,11,12,12,13,13,14,14,15,15,16,16,17,17,18,18,19,19,20,20,21,21,22,22,23,23,24,24,25,25,26,26,27,27,28,28,29,29,30,30,31,31,32,32,33,33,34,34,35,35,36,36,37,37,39,39,40,40,41,41,42,42,43,43,44,44,45,45,46,46,47,47,48,48,49,49,50,50,51,51,52,52,53,53,54,54,55,55,56,56,57,57,58,58,59,59,60,60,61,61,62,62],"right_children":[2,4,6,8,10,12,14,16,18,20,22,24,26,28,30,32,34,36,38,40,42,44,46,48,50,52,54,56,58,60,62,64,66,68,70,72,74,76,-1,78,80,82,84,86,88,90,92,94,96,98,100,102,104,106,108,110,112,114,116,118,120,122,124,-1,-1,-1,-1,-1,-1,-1,-1,-1,-1,-1,-1,-1,-1,-1,-1,-1,-1,-1,-1,-1,-1,-1,-1,-1,-1,-1,-1,-1,-1,-1,-1,-1,-1,-1,-1,-1,-1,-1,-1,-1,-1,-1,-1,-1,-1,-1,-1,-1,-1,-1,-1,-1,-1,-1,-1,-1,-1,-1,-1,-1,-1],"split_conditions":[1.2871428E2,8.528571E1,2.3314285E2,5E0,1E0,1.7028572E2,5E0,6.8E1,6.436667E1,8.236667E1,1.0871429E2,2E0,3E0,2.9E1,9E0,5.1933334E1,7.536667E1,4.8433334E1,1.97E2,7.5E1,1.8E1,2.06E2,2.27E2,1.9026666E2,1.9E2,2.4753334E2,2.44E2,2.42E2,2.18E2,1.27E2,1.38E2,1.1E1,4.8E1,7.1E1,5.7E1,1.2E1,6.7E1,7.536667E1,6.471683E0,7.4E1,1.2E1,1.2E2,1.0757143E2,7.3E1,7.5166664E1,1.09E2,2.1E1,4E0,9E0,2.83E2,3E0,1.1E1,2E0,9.78E1,3.3E1,2.7E1,1.5E1,2.4753334E2,2E0,1.4E1,1.2E1,5.7E1,1.43E2,-9.4442505E-1,-1.4150275E0,-6.796913E-1,-1.0309256E0,-4.365842E-1,-7.57633E-1,-1.3345873E-1,-3.780664E-1,-1.4461707E-1,-9.3653935E-1,2.5784734E-1,-3.6692995E-1,4.335272E-1,8.785316E-1,-2.038517E-1,1.1136348E0,-7.5666815E-1,1.06398106E-1,-2.471132E0,-8.018452E-1,-1.3927917E-1,2.4394798E-1,8.7814325E-1,3.2189414E-1,1.6345566E-2,3.9972801E0,1.659455E0,9.0526533E-1,-5.8316964E-1,3.5142524E0,1.6907166E0,5.863424E-1,-1.323121E0,8.080206E0,2.6143045E0,5.000142E0,-1.0581074E0,1.2867297E0,2.698068E0,-4.1155982E-1,2.9261777E0,-7.1063817E-1,2.3775651E0,4.802836E0,4.469807E0,-4.334521E-2,5.387196E0,-1.9322878E-1,3.30266E0,-9.421736E-1,4.9451823E0,7.047307E0,5.1307683E0,-1.1171372E0,7.3841643E0,1.32212E0,-1.7473904E0,6.047279E0,7.269578E0,1.4653719E1,4.419088E0,8.78796E0],"split_indices":[3,3,3,5,5,3,5,4,4,4,3,5,5,2,6,4,4,4,0,0,1,0,0,4,2,4,2,0,2,1,0,2,0,0,0,2,0,4,0,0,6,2,3,0,4,0,2,6,6,0,5,6,5,4,0,2,2,4,5,2,2,2,1,0,0,0,0,0,0,0,0,0,0,0,0,0,0,0,0,0,0,0,0,0,0,0,0,0,0,0,0,0,0,0,0,0,0,0,0,0,0,0,0,0,0,0,0,0,0,0,0,0,0,0,0,0,0,0,0,0,0,0,0,0,0],"split_type":[0,0,0,0,0,0,0,0,0,0,0,0,0,0,0,0,0,0,0,0,0,0,0,0,0,0,0,0,0,0,0,0,0,0,0,0,0,0,0,0,0,0,0,0,0,0,0,0,0,0,0,0,0,0,0,0,0,0,0,0,0,0,0,0,0,0,0,0,0,0,0,0,0,0,0,0,0,0,0,0,0,0,0,0,0,0,0,0,0,0,0,0,0,0,0,0,0,0,0,0,0,0,0,0,0,0,0,0,0,0,0,0,0,0,0,0,0,0,0,0,0,0,0,0,0],"sum_hessian":[4.38E4,4.0556E4,3.244E3,3.1167E4,9.389E3,2.73E3,5.14E2,2.3875E4,7.292E3,2.285E3,7.104E3,1.706E3,1.024E3,2.74E2,2.4E2,1.173E4,1.2145E4,4.231E3,3.061E3,1.012E3,1.273E3,5.541E3,1.563E3,4.78E2,1.228E3,4.32E2,5.92E2,2.1E1,2.53E2,7E1,1.7E2,2.184E3,9.546E3,4.36E3,7.785E3,7.68E2,3.463E3,3.057E3,4E0,4.21E2,5.91E2,1.1E1,1.262E3,5.485E3,5.6E1,1.501E3,6.2E1,4.6E2,1.8E1,1.067E3,1.61E2,4E2,3.2E1,5.76E2,1.6E1,9E0,1.2E1,2.02E2,5.1E1,1.4E1,5.6E1,2.1E1,1.49E2,5.01E2,1.683E3,4.275E3,5.271E3,2.463E3,1.897E3,2.744E3,5.041E3,2.04E2,5.64E2,1.669E3,1.794E3,1.908E3,1.149E3,4.13E2,8E0,5.2E2,7.1E1,8E0,3E0,7.96E2,4.66E2,1.496E3,3.989E3,1.1E1,4.5E1,5.76E2,9.25E2,7E0,5.5E1,2.51E2,2.09E2,8E0,1E1,1.016E3,5.1E1,2.6E1,1.35E2,3.8E2,2E1,6E0,2.6E1,3.7E1,5.39E2,2E0,1.4E1,7E0,2E0,5E0,7E0,1.47E2,5.5E1,4.1E1,1E1,2E0,1.2E1,1E0,5.5E1,5E0,1.6E1,3.1E1,1.18E2],"tree_param":{"num_deleted":"0","num_feature":"10","num_nodes":"125","size_leaf_vector":"1"}},{"base_weights":[1.7228186E-2,-4.9720974E0,6.2375336E1,-9.001551E0,8.967831E0,4.9483208E1,1.104839E2,-1.2661706E1,2.8748035E0,-3.8168373E0,1.3101593E1,4.0791664E1,6.7560646E1,7.970854E1,1.2971191E2,-1.7897675E1,-7.194167E0,-3.5522738E0,1.1526041E1,-8.305826E0,-3.667739E-1,9.843953E0,2.4153364E1,4.4201664E1,1.6001081E1,5.364779E1,9.41197E1,8.7600845E1,-2.1746805E1,1.1833474E2,1.900282E2,-2.660571E1,-1.6674868E1,-9.46933E0,-4.4606695E0,-1.5241402E1,-1.5913491E0,8.132047E0,1.703312E1,-2.9480066E0,-1.2022928E1,-4.0564735E1,2.0349044E-2,9.280151E0,6.257488E1,2.3269974E1,7.986805E1,3.934787E1,6.238274E1,-6.7533584E0,3.0808674E1,7.8765564E1,4.609845E1,7.020487E1,1.06537865E2,6.426486E1,1.2621838E2,-3.254312E1,2.9525104E0,1.8370374E2,1.070532E2,-1.761954E0,1.9409862E2,-8.888739E-1,-1.5368155E0,-6.5503377E-1,-9.8057765E-1,-3.3972844E-1,-6.6267514E-1,-9.6314156E-1,-1.8821573E-1,-1.319553E-1,-1.1038446E0,2.1500745E-1,-3.6067402E-1,6.3105524E-1,1.8127471E-1,8.3910084E-1,5.5981936E0,-8.246576E-2,-9.113871E-1,-7.0247746E-1,1.3268192E-1,-2.361304E0,-7.7177614E-1,-1.6415735E-1,1.9559333E-1,8.80396E-1,3.1034353E-1,2.9878167E-2,3.801761E0,1.7951685E0,9.938551E-1,6.1475987E0,1.6977291E0,1.5389804E0,2.3277388E0,4.4256997E0,1.3284999E0,7.1185493E-1,-7.2156084E-1,1.9565804E0,8.9459276E-1,-1.8354899E0,4.0953016E0,3.6075196E0,1.9905922E0,5.7163677E0,3.021978E0,5.968492E0,3.069324E0,4.5184813E0,2.676573E0,8.5217495E0,5.4943476E0,-4.8436496E-1,-1.7772573E0,7.670541E-1,-5.0870943E-1,6.224356E0,1.1586505E1,4.400196E0,6.0594664E0,2.533618E0,9.778544E0],"categories":[],"categories_nodes":[],"categories_segments":[],"categories_sizes":[],"default_left":[0,0,0,0,0,0,0,0,0,0,0,0,0,0,0,0,0,0,0,0,0,0,0,0,0,0,0,0,0,0,0,0,0,0,0,0,0,0,0,0,0,0,0,0,0,0,0,0,0,0,0,0,0,0,0,0,0,0,0,0,0,0,0,0,0,0,0,0,0,0,0,0,0,0,0,0,0,0,0,0,0,0,0,0,0,0,0,0,0,0,0,0,0,0,0,0,0,0,0,0,0,0,0,0,0,0,0,0,0,0,0,0,0,0,0,0,0,0,0,0,0,0,0,0,0],"id":7,"left_children":[1,3,5,7,9,11,13,15,17,19,21,23,25,27,29,31,33,35,37,39,41,43,45,47,49,51,53,55,57,59,61,63,65,67,69,71,73,75,77,79,81,83,85,87,89,91,93,95,97,99,101,103,105,107,109,111,113,115,117,119,121,-1,123,-1,-1,-1,-1,-1,-1,-1,-1,-1,-1,-1,-1,-1,-1,-1,-1,-1,-1,-1,-1,-1,-1,-1,-1,-1,-1,-1,-1,-1,-1,-1,-1,-1,-1,-1,-1,-1,-1,-1,-1,-1,-1,-1,-1,-1,-1,-1,-1,-1,-1,-1,-1,-1,-1,-1,-1,-1,-1,-1,-1,-1,-1],"loss_changes":[1.3627893E7,2.278179E6,2.007152E6,1.3677115E6,4.8070975E5,3.996305E5,3.95008E5,6.8839975E5,4.1221988E5,3.442521E4,2.4720875E5,1.4570875E5,3.01646E5,2.1489562E5,2.657295E5,1.3037E5,7.31385E4,9.74838E4,5.8925E4,1.9203E4,1.9577258E4,1.5728434E5,7.511825E4,1.3185775E5,7.1302086E4,1.00092625E5,7.68625E4,2.1447962E5,5.4293154E3,2.428705E5,6.64405E4,5.45535E4,1.1284075E5,6.4901812E4,5.5041977E4,5.2575062E4,1.20730414E5,3.9544688E4,2.6821188E4,7.8478706E3,1.6991266E4,1.2797754E3,1.604379E4,1.343849E5,4.667178E4,6.5338938E4,4.330039E4,7.291475E4,2.961785E5,1.3743044E4,1.3060602E4,4.83375E4,6.640575E4,3.6177125E4,9.9858E4,3.88725E4,4.77065E4,6.162578E2,1.2944304E3,1.161945E5,7.17355E4,0E0,3.6045E3,0E0,0E0,0E0,0E0,0E0,0E0,0E0,0E0,0E0,0E0,0E0,0E0,0E0,0E0,0E0,0E0,0E0,0E0,0E0,0E0,0E0,0E0,0E0,0E0,0E0,0E0,0E0,0E0,0E0,0E0,0E0,0E0,0E0,0E0,0E0,0E0,0E0,0E0,0E0,0E0,0E0,0E0,0E0,0E0,0E0,0E0,0E0,0E0,0E0,0E0,0E0,0E0,0E0,0E0,0E0,0E0,0E0,0E0,0E0,0E0,0E0,0E0],"parents":[2147483647,0,0,1,1,2,2,3,3,4,4,5,5,6,6,7,7,8,8,9,9,10,10,11,11,12,12,13,13,14,14,15,15,16,16,17,17,18,18,19,19,20,20,21,21,22,22,23,23,24,24,25,25,26,26,27,27,28,28,29,29,30,30,31,31,32,32,33,33,34,34,35,35,36,36,37,37,38,38,39,39,40,40,41,41,42,42,43,43,44,44,45,45,46,46,47,47,48,48,49,49,50,50,51,51,52,52,53,53,54,54,55,55,56,56,57,57,58,58,59,59,60,60,62,62],"right_children":[2,4,6,8,10,12,14,16,18,20,22,24,26,28,30,32,34,36,38,40,42,44,46,48,50,52,54,56,58,60,62,64,66,68,70,72,74,76,78,80,82,84,86,88,90,92,94,96,98,100,102,104,106,108,110,112,114,116,118,120,122,-1,124,-1,-1,-1,-1,-1,-1,-1,-1,-1,-1,-1,-1,-1,-1,-1,-1,-1,-1,-1,-1,-1,-1,-1,-1,-1,-1,-1,-1,-1,-1,-1,-1,-1,-1,-1,-1,-1,-1,-1,-1,-1,-1,-1,-1,-1,-1,-1,-1,-1,-1,-1,-1,-1,-1,-1,-1,-1,-1,-1,-1,-1,-1],"split_conditions":[1.2871428E2,8.585714E1,2.1685715E2,5E0,1E0,5E0,3E0,6.88E1,6.436667E1,8.236667E1,1.0871429E2,1.1E1,1.7028572E2,2E0,2.0143333E2,4.71E1,8.06E1,4.4866665E1,7.536667E1,7.5E1,1.8E1,2.06E2,2.83E2,9E0,1E0,9.7E1,1.17166664E2,2.4753334E2,3.15E2,1.38E2,1.3E1,1.2E1,4.8E1,7.5E1,5.342857E1,1.5E1,6.7E1,7.8E1,2.06E2,1.62E2,1.2E1,1.2E2,1.0471429E2,7.3E1,7.5166664E1,7.1E1,1.1642857E2,2E0,1.9026666E2,1.3457143E2,1.7E2,1.7E1,2E0,8.5E1,1.1E1,1.42E2,1.89E2,5.1E1,4.3E1,1.4326666E2,1.508E2,-1.761954E0,2.3314285E2,-8.888739E-1,-1.5368155E0,-6.5503377E-1,-9.8057765E-1,-3.3972844E-1,-6.6267514E-1,-9.6314156E-1,-1.8821573E-1,-1.319553E-1,-1.1038446E0,2.1500745E-1,-3.6067402E-1,6.3105524E-1,1.8127471E-1,8.3910084E-1,5.5981936E0,-8.246576E-2,-9.113871E-1,-7.0247746E-1,1.3268192E-1,-2.361304E0,-7.7177614E-1,-1.6415735E-1,1.9559333E-1,8.80396E-1,3.1034353E-1,2.9878167E-2,3.801761E0,1.7951685E0,9.938551E-1,6.1475987E0,1.6977291E0,1.5389804E0,2.3277388E0,4.4256997E0,1.3284999E0,7.1185493E-1,-7.2156084E-1,1.9565804E0,8.9459276E-1,-1.8354899E0,4.0953016E0,3.6075196E0,1.9905922E0,5.7163677E0,3.021978E0,5.968492E0,3.069324E0,4.5184813E0,2.676573E0,8.5217495E0,5.4943476E0,-4.8436496E-1,-1.7772573E0,7.670541E-1,-5.0870943E-1,6.224356E0,1.1586505E1,4.400196E0,6.0594664E0,2.533618E0,9.778544E0],"split_indices":[3,3,3,5,5,5,5,4,4,4,3,6,3,5,4,4,4,4,4,0,1,0,0,6,5,0,4,4,2,0,2,2,0,0,3,2,0,0,0,1,6,2,3,0,4,0,3,5,4,3,1,2,6,1,6,0,0,0,0,4,4,0,3,0,0,0,0,0,0,0,0,0,0,0,0,0,0,0,0,0,0,0,0,0,0,0,0,0,0,0,0,0,0,0,0,0,0,0,0,0,0,0,0,0,0,0,0,0,0,0,0,0,0,0,0,0,0,0,0,0,0,0,0,0,0],"split_type":[0,0,0,0,0,0,0,0,0,0,0,0,0,0,0,0,0,0,0,0,0,0,0,0,0,0,0,0,0,0,0,0,0,0,0,0,0,0,0,0,0,0,0,0,0,0,0,0,0,0,0,0,0,0,0,0,0,0,0,0,0,0,0,0,0,0,0,0,0,0,0,0,0,0,0,0,0,0,0,0,0,0,0,0,0,0,0,0,0,0,0,0,0,0,0,0,0,0,0,0,0,0,0,0,0,0,0,0,0,0,0,0,0,0,0,0,0,0,0,0,0,0,0,0,0],"sum_hessian":[4.38E4,4.0556E4,3.244E3,3.1462E4,9.094E3,2.56E3,6.84E2,2.405E4,7.412E3,2.222E3,6.872E3,1.731E3,8.29E2,2.65E2,4.19E2,1.2284E4,1.1766E4,4.253E3,3.159E3,9.65E2,1.257E3,5.309E3,1.563E3,1.521E3,2.1E2,5.46E2,2.83E2,2.46E2,1.9E1,3.55E2,6.4E1,1.51E3,1.0774E4,6.42E3,5.346E3,6.1E2,3.643E3,1.956E3,1.203E3,3.96E2,5.69E2,1.1E1,1.246E3,5.254E3,5.5E1,1.54E3,2.3E1,1.203E3,3.18E2,8.3E1,1.27E2,1.24E2,4.22E2,9.9E1,1.84E2,1.55E2,9.1E1,1.3E1,6E0,5E1,3.05E2,1E0,6.3E1,4.83E2,1.027E3,4.862E3,5.912E3,3.763E3,2.657E3,2.39E2,5.107E3,2.15E2,3.95E2,1.779E3,1.864E3,9.79E2,9.77E2,1.201E3,2E0,3.66E2,3E1,5E2,6.9E1,8E0,3E0,6.74E2,5.72E2,1.415E3,3.839E3,1E1,4.5E1,3.24E2,1.216E3,1.1E1,1.2E1,5.52E2,6.51E2,1.83E2,1.35E2,2.2E1,6.1E1,7.6E1,5.1E1,3E0,1.21E2,8E1,3.42E2,1.6E1,8.3E1,1.42E2,4.2E1,4.3E1,1.12E2,2.2E1,6.9E1,2E0,1.1E1,3E0,3E0,2.4E1,2.6E1,1.33E2,1.72E2,1E0,6.2E1],"tree_param":{"num_deleted":"0","num_feature":"10","num_nodes":"125","size_leaf_vector":"1"}},{"base_weights":[1.8804612E-2,-4.5901737E0,6.099867E1,-8.551484E0,8.866885E0,5.036431E1,1.1382487E2,-1.2028879E1,2.7318544E0,-3.3880122E0,1.2797394E1,4.0430206E1,7.074084E1,9.12335E1,1.391311E2,-1.6350231E1,-6.0142274E0,-3.3749843E0,1.0952032E1,-7.7214336E0,2.7686125E-1,9.352703E0,2.3524216E1,3.553308E1,6.216885E1,5.5592655E1,9.113683E1,4.3833145E1,9.497985E1,8.479801E1,1.5399736E2,-2.0334581E1,-1.3682862E1,-3.2538881E0,-7.4813447E0,-1.3033127E1,-1.2299185E0,5.8867536E0,1.4411203E1,7.219976E0,-9.088821E0,-1.4410477E0,8.739972E0,8.415477E0,3.870973E1,2.2041101E1,5.8348156E1,4.029238E1,1.7622362E1,9.62576E1,5.2256374E1,4.995235E1,9.2491325E1,6.950903E1,1.034201E2,7.7388985E1,1.4649179E1,1.1647296E2,8.697178E1,-1.9285542E0,9.028473E1,1.0751315E2,1.709802E2,-1.2775332E0,-9.280371E-1,-5.328319E-1,-8.2320803E-1,-8.877069E-1,-1.4303435E-1,-6.8551797E-1,-3.1405056E-1,-8.7240905E-1,-1.4565359E-1,2.3599315E-1,-3.364339E-1,2.2138686E-1,1.0709091E0,6.8706805E-1,1.9560006E0,-1.0535541E-2,6.3614494E-1,-6.607358E-1,-3.2750028E-1,-1.5706894E-1,4.7858444E-1,3.5515592E-1,2.712933E0,8.364073E-1,2.6296094E-1,6.677183E-1,2.4092834E0,1.5251313E0,8.496904E-1,1.5421199E0,4.3709908E0,1.1139488E0,2.3127918E0,1.0897299E0,-6.6738266E-1,1.1867678E0,5.6190677E0,2.8885686E0,1.5784639E-1,2.313449E0,4.297811E0,6.321138E0,3.0867047E0,6.2717495E0,2.9497755E0,5.5915575E0,3.2054653E0,4.951826E0,-3.0670536E-1,5.8293786E0,-1.7806588E-1,4.9895215E0,8.565439E0,5.1033607E0,3.7094438E0,1.0924113E1,3.5999067E0,-1.8137105E0,5.548794E0,3.061116E-1,8.796476E0],"categories":[],"categories_nodes":[],"categories_segments":[],"categories_sizes":[],"default_left":[0,0,0,0,0,0,0,0,0,0,0,0,0,0,0,0,0,0,0,0,0,0,0,0,0,0,0,0,0,0,0,0,0,0,0,0,0,0,0,0,0,0,0,0,0,0,0,0,0,0,0,0,0,0,0,0,0,0,0,0,0,0,0,0,0,0,0,0,0,0,0,0,0,0,0,0,0,0,0,0,0,0,0,0,0,0,0,0,0,0,0,0,0,0,0,0,0,0,0,0,0,0,0,0,0,0,0,0,0,0,0,0,0,0,0,0,0,0,0,0,0,0,0,0,0],"id":8,"left_children":[1,3,5,7,9,11,13,15,17,19,21,23,25,27,29,31,33,35,37,39,41,43,45,47,49,51,53,55,57,59,61,63,65,67,69,71,73,75,77,79,81,83,85,87,89,91,93,95,97,99,101,103,105,107,109,111,113,115,117,-1,119,121,123,-1,-1,-1,-1,-1,-1,-1,-1,-1,-1,-1,-1,-1,-1,-1,-1,-1,-1,-1,-1,-1,-1,-1,-1,-1,-1,-1,-1,-1,-1,-1,-1,-1,-1,-1,-1,-1,-1,-1,-1,-1,-1,-1,-1,-1,-1,-1,-1,-1,-1,-1,-1,-1,-1,-1,-1,-1,-1,-1,-1,-1,-1],"loss_changes":[1.2310765E7,2.1709738E6,1.723404E6,1.2345352E6,4.4617506E5,5.161515E5,2.817335E5,6.25021E5,3.721643E5,3.5735383E4,2.5891438E5,1.815355E5,2.541525E5,4.467075E4,1.816045E5,1.48457E5,4.0703906E4,8.811558E4,5.5283656E4,2.1129664E4,1.7749996E4,1.4577453E5,8.6722E4,1.1956725E5,1.017475E5,9.6109625E4,8.73865E4,2.0410754E4,3.358825E4,4.003453E4,1.300305E5,5.143225E4,7.0408E4,1.9858895E4,4.9007156E4,3.4487266E4,1.1395031E5,2.900139E4,3.0528719E4,3.5601533E3,9.812211E3,1.9036244E4,1.4963127E4,1.349535E5,3.8760125E4,6.935156E4,5.247878E4,1.18637625E5,3.879675E4,7.918569E4,6.6701E4,5.198675E4,5.79445E4,7.021306E4,6.722575E4,1.8688191E4,2.4547738E4,4.3281875E4,2.889775E4,0E0,1.0617303E5,3.0414E4,1.0989025E5,0E0,0E0,0E0,0E0,0E0,0E0,0E0,0E0,0E0,0E0,0E0,0E0,0E0,0E0,0E0,0E0,0E0,0E0,0E0,0E0,0E0,0E0,0E0,0E0,0E0,0E0,0E0,0E0,0E0,0E0,0E0,0E0,0E0,0E0,0E0,0E0,0E0,0E0,0E0,0E0,0E0,0E0,0E0,0E0,0E0,0E0,0E0,0E0,0E0,0E0,0E0,0E0,0E0,0E0,0E0,0E0,0E0,0E0,0E0,0E0,0E0,0E0],"parents":[2147483647,0,0,1,1,2,2,3,3,4,4,5,5,6,6,7,7,8,8,9,9,10,10,11,11,12,12,13,13,14,14,15,15,16,16,17,17,18,18,19,19,20,20,21,21,22,22,23,23,24,24,25,25,26,26,27,27,28,28,29,29,30,30,31,31,32,32,33,33,34,34,35,35,36,36,37,37,38,38,39,39,40,40,41,41,42,42,43,43,44,44,45,45,46,46,47,47,48,48,49,49,50,50,51,51,52,52,53,53,54,54,55,55,56,56,57,57,58,58,60,60,61,61,62,62],"right_children":[2,4,6,8,10,12,14,16,18,20,22,24,26,28,30,32,34,36,38,40,42,44,46,48,50,52,54,56,58,60,62,64,66,68,70,72,74,76,78,80,82,84,86,88,90,92,94,96,98,100,102,104,106,108,110,112,114,116,118,-1,120,122,124,-1,-1,-1,-1,-1,-1,-1,-1,-1,-1,-1,-1,-1,-1,-1,-1,-1,-1,-1,-1,-1,-1,-1,-1,-1,-1,-1,-1,-1,-1,-1,-1,-1,-1,-1,-1,-1,-1,-1,-1,-1,-1,-1,-1,-1,-1,-1,-1,-1,-1,-1,-1,-1,-1,-1,-1,-1,-1,-1,-1,-1,-1],"split_conditions":[1.3142857E2,8.585714E1,2.3314285E2,5E0,1E0,5E0,5E0,7.15E1,6.436667E1,9.671429E1,1.0871429E2,1.9371428E2,1.7028572E2,2.9E1,1.43E2,5.9066666E1,5.5E1,4.8433334E1,7.0566666E1,3.3E1,1.1814286E2,1.75E2,2.27E2,1.44E2,1.2513333E2,2.17E2,1.2303333E2,2.42E2,1.82E2,5.7E1,9E0,4.4866665E1,5.5E1,4.7714287E1,3.8E1,5.5E1,6.7E1,1.13E2,1.3786667E2,5.4E1,7.68E1,1.2E1,1E0,7.3E1,4.3E1,1.07E2,9.4666664E1,1E0,3.15E2,3.1E1,2.4753334E2,1E0,1.15566666E2,8.5E1,1.1E1,2.7E1,1.6E1,3E0,9.4E1,-1.9285542E0,1.35E2,1.2E1,1.4326666E2,-1.2775332E0,-9.280371E-1,-5.328319E-1,-8.2320803E-1,-8.877069E-1,-1.4303435E-1,-6.8551797E-1,-3.1405056E-1,-8.7240905E-1,-1.4565359E-1,2.3599315E-1,-3.364339E-1,2.2138686E-1,1.0709091E0,6.8706805E-1,1.9560006E0,-1.0535541E-2,6.3614494E-1,-6.607358E-1,-3.2750028E-1,-1.5706894E-1,4.7858444E-1,3.5515592E-1,2.712933E0,8.364073E-1,2.6296094E-1,6.677183E-1,2.4092834E0,1.5251313E0,8.496904E-1,1.5421199E0,4.3709908E0,1.1139488E0,2.3127918E0,1.0897299E0,-6.6738266E-1,1.1867678E0,5.6190677E0,2.8885686E0,1.5784639E-1,2.313449E0,4.297811E0,6.321138E0,3.0867047E0,6.2717495E0,2.9497755E0,5.5915575E0,3.2054653E0,4.951826E0,-3.0670536E-1,5.8293786E0,-1.7806588E-1,4.9895215E0,8.565439E0,5.1033607E0,3.7094438E0,1.0924113E1,3.5999067E0,-1.8137105E0,5.548794E0,3.061116E-1,8.796476E0],"split_indices":[3,3,3,5,5,5,5,4,4,3,3,3,3,2,1,4,0,4,4,0,3,0,0,2,4,1,4,0,0,0,6,4,0,3,1,3,0,1,4,2,4,6,9,0,1,0,4,5,2,2,4,9,4,1,6,2,1,5,2,0,0,2,4,0,0,0,0,0,0,0,0,0,0,0,0,0,0,0,0,0,0,0,0,0,0,0,0,0,0,0,0,0,0,0,0,0,0,0,0,0,0,0,0,0,0,0,0,0,0,0,0,0,0,0,0,0,0,0,0,0,0,0,0,0,0],"split_type":[0,0,0,0,0,0,0,0,0,0,0,0,0,0,0,0,0,0,0,0,0,0,0,0,0,0,0,0,0,0,0,0,0,0,0,0,0,0,0,0,0,0,0,0,0,0,0,0,0,0,0,0,0,0,0,0,0,0,0,0,0,0,0,0,0,0,0,0,0,0,0,0,0,0,0,0,0,0,0,0,0,0,0,0,0,0,0,0,0,0,0,0,0,0,0,0,0,0,0,0,0,0,0,0,0,0,0,0,0,0,0,0,0,0,0,0,0,0,0,0,0,0,0,0,0],"sum_hessian":[4.38E4,4.0723E4,3.077E3,3.1462E4,9.261E3,2.563E3,5.14E2,2.405E4,7.412E3,2.249E3,7.012E3,1.725E3,8.38E2,2.74E2,2.4E2,1.3994E4,1.0056E4,4.253E3,3.159E3,1.03E3,1.219E3,5.309E3,1.703E3,1.41E3,3.15E2,4.83E2,3.55E2,2.1E1,2.53E2,5.3E1,1.87E2,5.609E3,8.385E3,3.491E3,6.565E3,7.72E2,3.481E3,1.283E3,1.876E3,8.6E1,9.44E2,1.014E3,2.05E2,5.146E3,1.63E2,1.635E3,6.8E1,1.113E3,2.97E2,6.9E1,2.46E2,4.21E2,6.2E1,1.31E2,2.24E2,9E0,1.2E1,6.5E1,1.88E2,2E0,5.1E1,5.2E1,1.35E2,1.42E3,4.189E3,4.018E3,4.367E3,9.1E1,3.4E3,1.059E3,5.506E3,5.37E2,2.35E2,1.672E3,1.809E3,1.174E3,1.09E2,1.828E3,4.8E1,3.7E1,4.9E1,3.58E2,5.86E2,8.79E2,1.35E2,1.99E2,6E0,1.415E3,3.731E3,4.5E1,1.18E2,6.09E2,1.026E3,3.6E1,3.2E1,2.78E2,8.35E2,2.62E2,3.5E1,1.3E1,5.6E1,2.21E2,2.5E1,3.84E2,3.7E1,2.8E1,3.4E1,1.9E1,1.12E2,1.83E2,4.1E1,7E0,2E0,1E0,1.1E1,5.2E1,1.3E1,8.3E1,1.05E2,5E0,4.6E1,1E0,5.1E1,4E0,1.31E2],"tree_param":{"num_deleted":"0","num_feature":"10","num_nodes":"125","size_leaf_vector":"1"}},{"base_weights":[2.0571023E-2,-4.089635E0,6.185733E1,-7.9887E0,9.635423E0,5.1048553E1,1.0824644E2,-1.1316878E1,2.669779E0,-2.761492E0,1.35698395E1,4.1321815E1,7.071133E1,8.6790596E1,1.3228009E2,-1.7790606E1,-7.633247E0,-2.1070507E0,1.2444103E1,-8.011353E0,6.783802E-1,1.2420961E1,5.0462017E1,4.4044506E1,9.11084E0,5.5491238E1,8.663061E1,4.2109505E1,9.0318924E1,8.079137E1,1.4636578E2,-1.792649E1,4.9796787E1,-1.0763799E1,-4.80761E0,-7.9013414E0,1.3293982E0,1.2243392E1,9.379919E1,-9.563975E0,3.471486E0,-1.8782845E0,7.129434E0,9.176178E0,2.2790777E1,-3.304526E1,5.3106018E1,3.6841553E1,6.435977E1,-1.6801361E1,2.7380217E1,9.618066E0,5.928636E1,7.783481E1,1.1462361E2,5.9857304E1,-4.4725375E0,1.1085469E2,8.266982E1,-1.8642691E0,8.6049805E1,1.0220797E2,1.6249812E2,-1.2171806E0,-8.346588E-1,3.4478748E-1,3.2883375E0,-3.7899283E-1,-6.6555613E-1,-1.06148474E-1,-3.119107E-1,-8.531211E-1,-2.9636857E-1,3.543912E-1,-1.780611E-1,8.5249436E-1,4.333446E-1,-1.1161219E0,6.0744E0,3.585912E-2,-5.749902E-1,3.311377E-1,-1.7585785E0,6.4327973E-1,-1.5064356E-1,1.424389E-1,1.1466126E0,8.5044813E-1,3.3551455E-1,1.7174456E0,7.908384E-1,1.8603916E-1,-1.9896532E0,-5.2533615E-2,2.8418322E0,1.883665E0,-1.0504363E0,4.4121766E0,1.6510401E0,1.9182068E0,-1.0616558E0,1.1950806E0,3.8966057E0,-2.1564364E-1,4.006767E0,6.0565586E0,2.81657E0,1.0006961E0,4.0671515E0,6.091483E0,9.205215E-2,-1.2971681E0,3.3653455E0,2.7297142E0,-1.950906E0,4.7447524E0,8.167758E0,1.6328003E0,4.2938046E0,1.0468942E1,3.4237416E0,-1.7683676E0,5.2766895E0,2.938672E-1,8.359984E0],"categories":[],"categories_nodes":[],"categories_segments":[],"categories_sizes":[],"default_left":[0,0,0,0,0,0,0,0,0,0,0,0,0,0,0,0,0,0,0,0,0,0,0,0,0,0,0,0,0,0,0,0,0,0,0,0,0,0,0,0,0,0,0,0,0,0,0,0,0,0,0,0,0,0,0,0,0,0,0,0,0,0,0,0,0,0,0,0,0,0,0,0,0,0,0,0,0,0,0,0,0,0,0,0,0,0,0,0,0,0,0,0,0,0,0,0,0,0,0,0,0,0,0,0,0,0,0,0,0,0,0,0,0,0,0,0,0,0,0,0,0,0,0,0,0],"id":9,"left_children":[1,3,5,7,9,11,13,15,17,19,21,23,25,27,29,31,33,35,37,39,41,43,45,47,49,51,53,55,57,59,61,63,65,67,69,71,73,75,77,79,81,83,85,87,89,91,93,95,97,99,101,103,105,107,109,111,113,115,117,-1,119,121,123,-1,-1,-1,-1,-1,-1,-1,-1,-1,-1,-1,-1,-1,-1,-1,-1,-1,-1,-1,-1,-1,-1,-1,-1,-1,-1,-1,-1,-1,-1,-1,-1,-1,-1,-1,-1,-1,-1,-1,-1,-1,-1,-1,-1,-1,-1,-1,-1,-1,-1,-1,-1,-1,-1,-1,-1,-1,-1,-1,-1,-1,-1],"loss_changes":[1.1132794E7,2.1980408E6,1.363322E6,1.1346801E6,4.4325262E5,4.20898E5,2.54085E5,5.811305E5,3.5543266E5,3.955432E4,2.9174225E5,1.29834E5,1.7255125E5,3.955025E4,1.629615E5,8.207125E4,1.3738544E5,1.0183936E5,3.96575E4,1.5490527E4,2.1850363E4,2.2492831E5,4.768E4,1.9795425E5,5.5847797E4,6.5063375E4,7.8733E4,1.8455742E4,3.0733875E4,3.6736938E4,1.1731675E5,6.9414E4,1.1878789E4,5.967375E4,3.1357234E4,3.4330234E4,9.045429E4,4.2725188E4,2.2003527E4,1.5213797E4,1.2897492E4,1.5913832E4,2.536973E4,9.835256E4,1.27943625E5,1.8846919E3,4.0871375E4,4.9533625E4,2.64298E5,1.2794101E4,1.0270945E4,2.9816768E4,5.677325E4,5.39525E4,6.7231125E4,1.1973059E4,1.641365E4,3.9799062E4,2.750325E4,0E0,9.8373125E4,2.7982625E4,9.91625E4,0E0,0E0,0E0,0E0,0E0,0E0,0E0,0E0,0E0,0E0,0E0,0E0,0E0,0E0,0E0,0E0,0E0,0E0,0E0,0E0,0E0,0E0,0E0,0E0,0E0,0E0,0E0,0E0,0E0,0E0,0E0,0E0,0E0,0E0,0E0,0E0,0E0,0E0,0E0,0E0,0E0,0E0,0E0,0E0,0E0,0E0,0E0,0E0,0E0,0E0,0E0,0E0,0E0,0E0,0E0,0E0,0E0,0E0,0E0,0E0,0E0,0E0],"parents":[2147483647,0,0,1,1,2,2,3,3,4,4,5,5,6,6,7,7,8,8,9,9,10,10,11,11,12,12,13,13,14,14,15,15,16,16,17,17,18,18,19,19,20,20,21,21,22,22,23,23,24,24,25,25,26,26,27,27,28,28,29,29,30,30,31,31,32,32,33,33,34,34,35,35,36,36,37,37,38,38,39,39,40,40,41,41,42,42,43,43,44,44,45,45,46,46,47,47,48,48,49,49,50,50,51,51,52,52,53,53,54,54,55,55,56,56,57,57,58,58,60,60,61,61,62,62],"right_children":[2,4,6,8,10,12,14,16,18,20,22,24,26,28,30,32,34,36,38,40,42,44,46,48,50,52,54,56,58,60,62,64,66,68,70,72,74,76,78,80,82,84,86,88,90,92,94,96,98,100,102,104,106,108,110,112,114,116,118,-1,120,122,124,-1,-1,-1,-1,-1,-1,-1,-1,-1,-1,-1,-1,-1,-1,-1,-1,-1,-1,-1,-1,-1,-1,-1,-1,-1,-1,-1,-1,-1,-1,-1,-1,-1,-1,-1,-1,-1,-1,-1,-1,-1,-1,-1,-1,-1,-1,-1,-1,-1,-1,-1,-1,-1,-1,-1,-1,-1,-1,-1,-1,-1,-1],"split_conditions":[1.3857143E2,8.7E1,2.3314285E2,5E0,1E0,5E0,5E0,6.37E1,6.8E1,8.236667E1,2.06E2,1.2E1,1.7028572E2,2.9E1,1.43E2,1.53E2,7.536667E1,5.5366665E1,1.97E2,1.2E1,1.1342857E2,1.11E2,1.5E1,9E0,1E0,3.8E1,1.508E2,3.57E2,1.82E2,5.7E1,9E0,4.4866665E1,1E0,5.5E1,5.7E1,4.4285713E1,6.7E1,7.4E1,3.2E1,4.5E1,1.0757143E2,3.2E1,1.42E2,6.8E1,1.07E2,1.0385714E2,7.4566666E1,3.15E2,1.9026666E2,3.7E1,2.17E2,1.56E2,4.4E1,9.78E1,1.76E2,2E0,1.5E1,3E0,8.5E1,-1.8642691E0,1.35E2,1.2E1,1.4326666E2,-1.2171806E0,-8.346588E-1,3.4478748E-1,3.2883375E0,-3.7899283E-1,-6.6555613E-1,-1.06148474E-1,-3.119107E-1,-8.531211E-1,-2.9636857E-1,3.543912E-1,-1.780611E-1,8.5249436E-1,4.333446E-1,-1.1161219E0,6.0744E0,3.585912E-2,-5.749902E-1,3.311377E-1,-1.7585785E0,6.4327973E-1,-1.5064356E-1,1.424389E-1,1.1466126E0,8.5044813E-1,3.3551455E-1,1.7174456E0,7.908384E-1,1.8603916E-1,-1.9896532E0,-5.2533615E-2,2.8418322E0,1.883665E0,-1.0504363E0,4.4121766E0,1.6510401E0,1.9182068E0,-1.0616558E0,1.1950806E0,3.8966057E0,-2.1564364E-1,4.006767E0,6.0565586E0,2.81657E0,1.0006961E0,4.0671515E0,6.091483E0,9.205215E-2,-1.2971681E0,3.3653455E0,2.7297142E0,-1.950906E0,4.7447524E0,8.167758E0,1.6328003E0,4.2938046E0,1.0468942E1,3.4237416E0,-1.7683676E0,5.2766895E0,2.938672E-1,8.359984E0],"split_indices":[3,3,3,5,5,5,5,4,4,4,0,6,3,2,1,0,4,4,0,6,3,3,1,6,5,1,4,0,0,0,6,4,5,0,0,3,0,0,1,0,3,0,0,0,0,3,4,2,4,2,1,2,1,4,2,6,2,5,1,0,0,2,4,0,0,0,0,0,0,0,0,0,0,0,0,0,0,0,0,0,0,0,0,0,0,0,0,0,0,0,0,0,0,0,0,0,0,0,0,0,0,0,0,0,0,0,0,0,0,0,0,0,0,0,0,0,0,0,0,0,0,0,0,0,0],"split_type":[0,0,0,0,0,0,0,0,0,0,0,0,0,0,0,0,0,0,0,0,0,0,0,0,0,0,0,0,0,0,0,0,0,0,0,0,0,0,0,0,0,0,0,0,0,0,0,0,0,0,0,0,0,0,0,0,0,0,0,0,0,0,0,0,0,0,0,0,0,0,0,0,0,0,0,0,0,0,0,0,0,0,0,0,0,0,0,0,0,0,0,0,0,0,0,0,0,0,0,0,0,0,0,0,0,0,0,0,0,0,0,0,0,0,0,0,0,0,0,0,0,0,0,0,0],"sum_hessian":[4.38E4,4.1071E4,2.729E3,3.1985E4,9.086E3,2.215E3,5.14E2,2.4374E4,7.611E3,2.189E3,6.897E3,1.484E3,7.31E2,2.74E2,2.4E2,8.838E3,1.5536E4,5.113E3,2.498E3,8.66E2,1.323E3,6.69E3,2.07E2,1.368E3,1.16E2,3.76E2,3.55E2,2.1E1,2.53E2,5.3E1,1.87E2,8.821E3,1.7E1,7.369E3,8.167E3,1.903E3,3.21E3,2.493E3,5E0,7.63E2,1.03E2,9.48E2,3.75E2,5.097E3,1.593E3,6E0,2.01E2,1.012E3,3.56E2,4.8E1,6.8E1,2.9E1,3.47E2,2.73E2,8.2E1,1.5E1,6E0,6.5E1,1.88E2,2E0,5.1E1,5.2E1,1.35E2,1.419E3,7.402E3,5E0,1.2E1,3.277E3,4.092E3,2.84E3,5.327E3,3.36E2,1.567E3,1.474E3,1.736E3,1.062E3,1.431E3,1E0,4E0,1.21E2,6.42E2,9.6E1,7E0,6.7E1,8.81E2,2.96E2,7.9E1,1.219E3,3.878E3,5.98E2,9.95E2,1E0,5E0,1.3E1,1.88E2,9.98E2,1.4E1,2.01E2,1.55E2,3E0,4.5E1,6.5E1,3E0,2.5E1,4E0,1.4E1,3.33E2,1.6E1,2.57E2,7.7E1,5E0,1E0,1.4E1,2E0,4E0,5.2E1,1.3E1,1.2E1,1.76E2,5E0,4.6E1,1E0,5.1E1,4E0,1.31E2],"tree_param":{"num_deleted":"0","num_feature":"10","num_nodes":"125","size_leaf_vector":"1"}},{"base_weights":[2.1654176E-2,-4.2653947E0,5.3602493E1,-8.304892E0,6.1429205E0,3.8941097E1,8.527373E1,-1.4111533E1,-2.1509693E0,-4.3286386E-1,1.6860695E1,3.201799E1,5.3742188E1,6.1137962E1,1.00916E2,-1.4342765E1,3.698741E1,-4.6193438E0,6.9923863E0,-7.177272E0,2.2563972E0,1.6212273E1,6.254198E1,1.741169E1,3.679042E1,3.4299984E1,6.644058E1,7.0692276E1,-2.4511402E0,7.191188E1,1.20136734E2,-1.7226435E1,-1.0680918E1,1.3811269E1,5.3866817E1,-4.9301515E0,1.1393624E1,-4.5138407E-1,1.2755006E1,-1.6526358E1,-5.4892216E0,7.734525E0,-2.5881155E0,1.2597899E1,2.149155E1,-3.0443863E1,7.154876E1,1.484038E1,1.0114954E2,4.2335766E1,1.9257597E1,2.7925522E1,1.0139627E2,2.1755278E1,6.929074E1,4.754938E1,9.928119E1,8.568177E1,-2.1981762E1,7.39555E1,-9.595972E0,8.9138054E1,1.4362553E2,-1.1563643E0,-8.0093306E-1,-3.838584E-1,-6.6430384E-1,3.208868E0,5.854779E-2,3.486097E0,3.5849822E-1,-1.0373055E-1,-3.3511028E-1,-7.566415E-1,8.0834955E-1,1.1414636E0,-4.7817536E-2,1.6061906E0,5.001807E-1,-1.008273E0,-3.4137225E-1,-3.814695E-2,-4.4081455E-1,3.168129E-1,8.565139E-1,-1.6214907E-1,7.689284E-1,8.4947747E-1,4.229736E-1,9.919203E-1,1.7751083E0,-1.7072114E0,-2.9855138E-1,6.1514964E0,2.6342418E0,1.0252583E0,-6.3200486E-1,7.5978975E0,2.520395E0,2.0312219E0,4.4335346E0,1.1855114E0,-8.348693E-1,4.4305754E0,1.1638544E0,2.0591564E0,6.7389307E0,1.7585003E0,-2.2151763E0,3.059801E0,4.1552124E0,4.2711425E0,2.186475E0,6.785746E0,4.1240134E0,-9.302992E-1,4.9668317E0,2.0624797E0,-1.374021E0,3.1574912E0,4.7862473E0,1.088858E0,-2.9342935E0,1.9718436E0,5.0026164E0,1.1270946E1,6.617997E0],"categories":[],"categories_nodes":[],"categories_segments":[],"categories_sizes":[],"default_left":[0,0,0,0,0,0,0,0,0,0,0,0,0,0,0,0,0,0,0,0,0,0,0,0,0,0,0,0,0,0,0,0,0,0,0,0,0,0,0,0,0,0,0,0,0,0,0,0,0,0,0,0,0,0,0,0,0,0,0,0,0,0,0,0,0,0,0,0,0,0,0,0,0,0,0,0,0,0,0,0,0,0,0,0,0,0,0,0,0,0,0,0,0,0,0,0,0,0,0,0,0,0,0,0,0,0,0,0,0,0,0,0,0,0,0,0,0,0,0,0,0,0,0,0,0,0,0],"id":10,"left_children":[1,3,5,7,9,11,13,15,17,19,21,23,25,27,29,31,33,35,37,39,41,43,45,47,49,51,53,55,57,59,61,63,65,67,69,71,73,75,77,79,81,83,85,87,89,91,93,95,97,99,101,103,105,107,109,111,113,115,117,119,121,123,125,-1,-1,-1,-1,-1,-1,-1,-1,-1,-1,-1,-1,-1,-1,-1,-1,-1,-1,-1,-1,-1,-1,-1,-1,-1,-1,-1,-1,-1,-1,-1,-1,-1,-1,-1,-1,-1,-1,-1,-1,-1,-1,-1,-1,-1,-1,-1,-1,-1,-1,-1,-1,-1,-1,-1,-1,-1,-1,-1,-1,-1,-1,-1,-1],"loss_changes":[1.0061479E7,1.705244E6,1.503477E6,1.04403475E6,7.9922525E5,2.25762E5,3.811845E5,1.7815625E5,3.201993E5,1.275045E5,1.26710625E5,1.04966375E5,1.7202162E5,2.4683862E5,3.37556E5,1.5785025E5,2.5857586E4,5.565375E4,1.2937894E5,3.153586E4,1.3340433E5,8.0882E4,5.242842E4,7.92424E4,1.10119E5,1.17352875E5,5.2748125E4,2.2883462E5,9.4833125E4,4.23525E4,2.58059E5,5.928875E4,5.1513312E4,1.9024145E4,2.8375094E4,5.544053E4,2.7214812E4,1.5504426E4,9.027359E4,1.0662695E4,2.6709488E4,3.0883469E4,3.1440951E4,4.5783312E4,3.929575E4,3.3947363E2,4.693072E4,5.7079086E4,2.069925E4,6.506675E4,4.458192E4,7.0717875E4,4.2690734E4,2.5484496E4,3.9640875E4,2.4764906E4,8.4909E4,1.6088609E4,1.6779504E4,5.1352E4,1.2058737E4,8.4473875E4,1.63668E5,0E0,0E0,0E0,0E0,0E0,0E0,0E0,0E0,0E0,0E0,0E0,0E0,0E0,0E0,0E0,0E0,0E0,0E0,0E0,0E0,0E0,0E0,0E0,0E0,0E0,0E0,0E0,0E0,0E0,0E0,0E0,0E0,0E0,0E0,0E0,0E0,0E0,0E0,0E0,0E0,0E0,0E0,0E0,0E0,0E0,0E0,0E0,0E0,0E0,0E0,0E0,0E0,0E0,0E0,0E0,0E0,0E0,0E0,0E0,0E0,0E0,0E0,0E0,0E0],"parents":[2147483647,0,0,1,1,2,2,3,3,4,4,5,5,6,6,7,7,8,8,9,9,10,10,11,11,12,12,13,13,14,14,15,15,16,16,17,17,18,18,19,19,20,20,21,21,22,22,23,23,24,24,25,25,26,26,27,27,28,28,29,29,30,30,31,31,32,32,33,33,34,34,35,35,36,36,37,37,38,38,39,39,40,40,41,41,42,42,43,43,44,44,45,45,46,46,47,47,48,48,49,49,50,50,51,51,52,52,53,53,54,54,55,55,56,56,57,57,58,58,59,59,60,60,61,61,62,62],"right_children":[2,4,6,8,10,12,14,16,18,20,22,24,26,28,30,32,34,36,38,40,42,44,46,48,50,52,54,56,58,60,62,64,66,68,70,72,74,76,78,80,82,84,86,88,90,92,94,96,98,100,102,104,106,108,110,112,114,116,118,120,122,124,126,-1,-1,-1,-1,-1,-1,-1,-1,-1,-1,-1,-1,-1,-1,-1,-1,-1,-1,-1,-1,-1,-1,-1,-1,-1,-1,-1,-1,-1,-1,-1,-1,-1,-1,-1,-1,-1,-1,-1,-1,-1,-1,-1,-1,-1,-1,-1,-1,-1,-1,-1,-1,-1,-1,-1,-1,-1,-1,-1,-1,-1,-1,-1,-1],"split_conditions":[1.2871428E2,5E0,1.9371428E2,7.263333E1,7.396667E1,5E0,3E0,1.53E2,9.4E1,5.5566666E1,2.06E2,1E0,1.4557143E2,2E0,9E0,6.3E1,5.2E1,1.35E2,1E0,4.3714287E1,7.7E1,8.6566666E1,1.8E1,1.7296666E2,1.34E2,1E0,3.8E1,2.1933333E2,1.9026666E2,2.44E2,1.508E2,4.4866665E1,5.6E1,6.857143E1,3E0,6.1E1,1E0,1.6E1,4.3E1,4.2366665E1,5.3E1,1.09E2,1.66E2,9.9E1,1.2E1,6E0,1.0385714E2,1.2E1,4E1,2.83E2,3.15E2,5.3E1,1.38E2,3.6E1,1.2936667E2,6E1,1.82E2,1.3E1,2E0,1.02E2,2.27E2,3.6E1,1.36E2,-1.1563643E0,-8.0093306E-1,-3.838584E-1,-6.6430384E-1,3.208868E0,5.854779E-2,3.486097E0,3.5849822E-1,-1.0373055E-1,-3.3511028E-1,-7.566415E-1,8.0834955E-1,1.1414636E0,-4.7817536E-2,1.6061906E0,5.001807E-1,-1.008273E0,-3.4137225E-1,-3.814695E-2,-4.4081455E-1,3.168129E-1,8.565139E-1,-1.6214907E-1,7.689284E-1,8.4947747E-1,4.229736E-1,9.919203E-1,1.7751083E0,-1.7072114E0,-2.9855138E-1,6.1514964E0,2.6342418E0,1.0252583E0,-6.3200486E-1,7.5978975E0,2.520395E0,2.0312219E0,4.4335346E0,1.1855114E0,-8.348693E-1,4.4305754E0,1.1638544E0,2.0591564E0,6.7389307E0,1.7585003E0,-2.2151763E0,3.059801E0,4.1552124E0,4.2711425E0,2.186475E0,6.785746E0,4.1240134E0,-9.302992E-1,4.9668317E0,2.0624797E0,-1.374021E0,3.1574912E0,4.7862473E0,1.088858E0,-2.9342935E0,1.9718436E0,5.0026164E0,1.1270946E1,6.617997E0],"split_indices":[3,5,3,4,4,5,5,0,3,4,0,5,3,5,6,4,1,0,5,3,0,4,1,4,2,9,1,4,4,2,4,4,0,3,5,0,5,0,0,4,0,1,0,0,6,5,3,6,2,0,2,0,1,1,4,0,0,2,6,2,1,2,0,0,0,0,0,0,0,0,0,0,0,0,0,0,0,0,0,0,0,0,0,0,0,0,0,0,0,0,0,0,0,0,0,0,0,0,0,0,0,0,0,0,0,0,0,0,0,0,0,0,0,0,0,0,0,0,0,0,0,0,0,0,0,0,0],"split_type":[0,0,0,0,0,0,0,0,0,0,0,0,0,0,0,0,0,0,0,0,0,0,0,0,0,0,0,0,0,0,0,0,0,0,0,0,0,0,0,0,0,0,0,0,0,0,0,0,0,0,0,0,0,0,0,0,0,0,0,0,0,0,0,0,0,0,0,0,0,0,0,0,0,0,0,0,0,0,0,0,0,0,0,0,0,0,0,0,0,0,0,0,0,0,0,0,0,0,0,0,0,0,0,0,0,0,0,0,0,0,0,0,0,0,0,0,0,0,0,0,0,0,0,0,0,0,0],"sum_hessian":[4.38E4,4.0556E4,3.244E3,2.9217E4,1.1339E4,2.219E3,1.025E3,1.5032E4,1.4185E4,7.028E3,4.311E3,1.514E3,7.05E2,4.05E2,6.2E2,1.4965E4,6.7E1,1.117E4,3.015E3,2.003E3,5.025E3,4.252E3,5.9E1,3.74E2,1.14E3,2.8E2,4.25E2,3.52E2,5.3E1,2.49E2,3.71E2,8.37E3,6.595E3,2.9E1,3.8E1,1.0958E4,2.12E2,1.316E3,1.699E3,3.05E2,1.698E3,2.358E3,2.667E3,2.526E3,1.726E3,5E0,5.4E1,3.64E2,1E1,8.65E2,2.75E2,2.57E2,2.3E1,2.6E1,3.99E2,1.96E2,1.56E2,9E0,4.4E1,2.43E2,6E0,1.62E2,2.09E2,1.419E3,6.951E3,3.065E3,3.53E3,5E0,2.4E1,2.8E1,1E1,4.197E3,6.761E3,3.2E1,1.8E2,2.7E1,1.289E3,2.1E2,1.489E3,2.21E2,8.4E1,7.02E2,9.96E2,2.054E3,3.04E2,2.574E3,9.3E1,1.224E3,1.302E3,1.546E3,1.8E2,4E0,1E0,1.3E1,4.1E1,3.02E2,6.2E1,4E0,6E0,8.36E2,2.9E1,2.45E2,3E1,1.7E1,2.4E2,9E0,1.4E1,2.2E1,4E0,2.55E2,1.44E2,1.6E1,1.8E2,4.7E1,1.09E2,1E0,8E0,3E0,4.1E1,1.65E2,7.8E1,4E0,2E0,3E1,1.32E2,2.3E1,1.86E2],"tree_param":{"num_deleted":"0","num_feature":"10","num_nodes":"127","size_leaf_vector":"1"}},{"base_weights":[2.306566E-2,-3.6935341E0,5.593814E1,-7.2206964E0,8.72239E0,4.616393E1,9.7887115E1,-1.0229175E1,2.4139452E0,-2.511462E0,1.2287686E1,3.736305E1,6.3955105E1,7.8387375E1,1.19731674E2,-1.4974894E1,-6.1048584E0,-1.934315E0,1.1311339E1,-7.368562E0,6.7102855E-1,1.12276325E1,4.632872E1,3.9874176E1,7.6613708E0,5.003902E1,7.8512436E1,6.8927345E1,9.503643E1,7.119746E1,1.3303549E2,-1.52058115E1,3.1797632E1,-8.670216E0,-4.0333877E0,-7.1460366E0,1.1566389E0,1.1123371E1,8.7558304E1,-8.829427E0,3.4340246E0,3.163223E-1,4.29813E1,8.276922E0,2.0657677E1,-3.1586845E1,4.8799416E1,3.3257732E1,5.8536877E1,-1.5612309E1,2.4078022E1,4.4483143E1,7.982939E1,9.652744E1,6.567498E1,5.084179E1,9.1694E1,1.1126083E2,-2.9158144E1,1.2945534E2,5.8251408E1,9.3451225E1,1.474835E2,-1.0798074E0,-7.0770144E-1,2.1779623E0,-3.299292E-1,-3.2332325E-1,-5.9635705E-1,-5.563397E-1,-1.6913772E-1,-6.3928616E-1,-2.2323552E-1,3.7953338E-1,-1.2751415E-1,7.7621084E-1,3.9243874E-1,-1.0987933E0,5.6930156E0,4.221762E-2,-5.325578E-1,3.2229373E-1,-1.6756957E0,-1.8199116E0,3.128942E-2,4.6573296E0,5.0438203E-2,7.7575725E-1,2.9991332E-1,1.5756123E0,7.054469E-1,1.799244E-1,-1.9025408E0,-9.331346E-2,2.6147115E0,1.7877543E0,7.9334515E-1,4.031932E0,1.4771353E0,1.8347431E0,-9.9106807E-1,1.2944756E0,-2.47758E0,4.0715775E-1,2.4038334E0,5.5031123E0,2.6795247E0,1.4929763E0,5.283467E0,4.439546E0,2.2989194E0,2.7405202E0,-5.4239833E-1,5.422643E0,9.987549E-1,-2.1653326E0,5.6794386E0,5.2729875E-1,-1.6863167E0,-1.9073766E0,9.139576E0,-2.8422852E0,3.2387521E0,5.2596908E0,2.2282286E0,8.200836E-2,7.594529E0],"categories":[],"categories_nodes":[],"categories_segments":[],"categories_sizes":[],"default_left":[0,0,0,0,0,0,0,0,0,0,0,0,0,0,0,0,0,0,0,0,0,0,0,0,0,0,0,0,0,0,0,0,0,0,0,0,0,0,0,0,0,0,0,0,0,0,0,0,0,0,0,0,0,0,0,0,0,0,0,0,0,0,0,0,0,0,0,0,0,0,0,0,0,0,0,0,0,0,0,0,0,0,0,0,0,0,0,0,0,0,0,0,0,0,0,0,0,0,0,0,0,0,0,0,0,0,0,0,0,0,0,0,0,0,0,0,0,0,0,0,0,0,0,0,0,0,0],"id":11,"left_children":[1,3,5,7,9,11,13,15,17,19,21,23,25,27,29,31,33,35,37,39,41,43,45,47,49,51,53,55,57,59,61,63,65,67,69,71,73,75,77,79,81,83,85,87,89,91,93,95,97,99,101,103,105,107,109,111,113,115,117,119,121,123,125,-1,-1,-1,-1,-1,-1,-1,-1,-1,-1,-1,-1,-1,-1,-1,-1,-1,-1,-1,-1,-1,-1,-1,-1,-1,-1,-1,-1,-1,-1,-1,-1,-1,-1,-1,-1,-1,-1,-1,-1,-1,-1,-1,-1,-1,-1,-1,-1,-1,-1,-1,-1,-1,-1,-1,-1,-1,-1,-1,-1,-1,-1,-1,-1],"loss_changes":[9.102666E6,1.7987282E6,1.114831E6,9.271586E5,3.6398344E5,3.445875E5,2.099855E5,4.7699675E5,2.9451638E5,3.385725E4,2.483965E5,1.1045275E5,1.4436075E5,3.6762E4,1.461395E5,1.228865E5,6.9276375E4,8.239066E4,3.484175E4,1.3712547E4,1.9856623E4,1.8600825E5,4.1582562E4,1.670985E5,4.507879E4,5.8846812E4,7.59915E4,6.9041E4,1.9869756E5,3.3186344E4,9.373725E4,7.54965E4,2.5577113E4,4.1738688E4,3.327493E4,2.8734906E4,7.660313E4,3.5819188E4,1.9787988E4,1.3472965E4,1.1789317E4,1.4952326E4,2.3067252E4,8.399041E4,1.1286281E5,1.7289844E3,3.5865188E4,4.342825E4,2.2639112E5,1.1515358E4,1.0486035E4,4.1396875E4,4.0111812E4,8.5827625E4,9.198694E4,2.5566469E4,9.1584E4,3.586375E4,2.5321895E3,8.7426734E4,3.8221344E4,2.5737E4,8.716375E4,0E0,0E0,0E0,0E0,0E0,0E0,0E0,0E0,0E0,0E0,0E0,0E0,0E0,0E0,0E0,0E0,0E0,0E0,0E0,0E0,0E0,0E0,0E0,0E0,0E0,0E0,0E0,0E0,0E0,0E0,0E0,0E0,0E0,0E0,0E0,0E0,0E0,0E0,0E0,0E0,0E0,0E0,0E0,0E0,0E0,0E0,0E0,0E0,0E0,0E0,0E0,0E0,0E0,0E0,0E0,0E0,0E0,0E0,0E0,0E0,0E0,0E0,0E0,0E0],"parents":[2147483647,0,0,1,1,2,2,3,3,4,4,5,5,6,6,7,7,8,8,9,9,10,10,11,11,12,12,13,13,14,14,15,15,16,16,17,17,18,18,19,19,20,20,21,21,22,22,23,23,24,24,25,25,26,26,27,27,28,28,29,29,30,30,31,31,32,32,33,33,34,34,35,35,36,36,37,37,38,38,39,39,40,40,41,41,42,42,43,43,44,44,45,45,46,46,47,47,48,48,49,49,50,50,51,51,52,52,53,53,54,54,55,55,56,56,57,57,58,58,59,59,60,60,61,61,62,62],"right_children":[2,4,6,8,10,12,14,16,18,20,22,24,26,28,30,32,34,36,38,40,42,44,46,48,50,52,54,56,58,60,62,64,66,68,70,72,74,76,78,80,82,84,86,88,90,92,94,96,98,100,102,104,106,108,110,112,114,116,118,120,122,124,126,-1,-1,-1,-1,-1,-1,-1,-1,-1,-1,-1,-1,-1,-1,-1,-1,-1,-1,-1,-1,-1,-1,-1,-1,-1,-1,-1,-1,-1,-1,-1,-1,-1,-1,-1,-1,-1,-1,-1,-1,-1,-1,-1,-1,-1,-1,-1,-1,-1,-1,-1,-1,-1,-1,-1,-1,-1,-1,-1,-1,-1,-1,-1,-1],"split_conditions":[1.3857143E2,8.7E1,2.3314285E2,5E0,1E0,5E0,5E0,6.73E1,6.8E1,8.236667E1,2.06E2,1.2E1,1.7028572E2,2.4753334E2,1.43E2,1.35E2,7.7166664E1,5.5366665E1,1.97E2,1.2E1,2.6E2,1.11E2,1.5E1,9E0,1E0,2.17E2,6E0,2E0,2E0,1.44E2,9E0,4.8433334E1,8.9E1,7.5E1,5.9857143E1,4.4866665E1,5.4E1,7.4E1,3.2E1,4.5E1,1.0757143E2,1.8E1,4E0,6.8E1,1.07E2,1.0385714E2,7.4566666E1,1.9E2,1.9026666E2,3.7E1,1.9371428E2,3.8E1,1.15566666E2,1.034E2,1.59E2,1E0,3.57E2,1.2E1,5E1,5.7E1,1.75E2,1.16E2,1.4326666E2,-1.0798074E0,-7.0770144E-1,2.1779623E0,-3.299292E-1,-3.2332325E-1,-5.9635705E-1,-5.563397E-1,-1.6913772E-1,-6.3928616E-1,-2.2323552E-1,3.7953338E-1,-1.2751415E-1,7.7621084E-1,3.9243874E-1,-1.0987933E0,5.6930156E0,4.221762E-2,-5.325578E-1,3.2229373E-1,-1.6756957E0,-1.8199116E0,3.128942E-2,4.6573296E0,5.0438203E-2,7.7575725E-1,2.9991332E-1,1.5756123E0,7.054469E-1,1.799244E-1,-1.9025408E0,-9.331346E-2,2.6147115E0,1.7877543E0,7.9334515E-1,4.031932E0,1.4771353E0,1.8347431E0,-9.9106807E-1,1.2944756E0,-2.47758E0,4.0715775E-1,2.4038334E0,5.5031123E0,2.6795247E0,1.4929763E0,5.283467E0,4.439546E0,2.2989194E0,2.7405202E0,-5.4239833E-1,5.422643E0,9.987549E-1,-2.1653326E0,5.6794386E0,5.2729875E-1,-1.6863167E0,-1.9073766E0,9.139576E0,-2.8422852E0,3.2387521E0,5.2596908E0,2.2282286E0,8.200836E-2,7.594529E0],"split_indices":[3,3,3,5,5,5,5,4,4,4,0,6,3,4,1,0,4,4,0,6,1,3,1,6,5,1,5,5,5,0,6,4,1,0,3,4,0,0,1,0,3,1,6,0,0,3,4,2,4,2,3,1,4,4,1,5,0,2,1,0,0,2,4,0,0,0,0,0,0,0,0,0,0,0,0,0,0,0,0,0,0,0,0,0,0,0,0,0,0,0,0,0,0,0,0,0,0,0,0,0,0,0,0,0,0,0,0,0,0,0,0,0,0,0,0,0,0,0,0,0,0,0,0,0,0,0,0],"split_type":[0,0,0,0,0,0,0,0,0,0,0,0,0,0,0,0,0,0,0,0,0,0,0,0,0,0,0,0,0,0,0,0,0,0,0,0,0,0,0,0,0,0,0,0,0,0,0,0,0,0,0,0,0,0,0,0,0,0,0,0,0,0,0,0,0,0,0,0,0,0,0,0,0,0,0,0,0,0,0,0,0,0,0,0,0,0,0,0,0,0,0,0,0,0,0,0,0,0,0,0,0,0,0,0,0,0,0,0,0,0,0,0,0,0,0,0,0,0,0,0,0,0,0,0,0,0,0],"sum_hessian":[4.38E4,4.1071E4,2.729E3,3.1985E4,9.086E3,2.215E3,5.14E2,2.4374E4,7.611E3,2.189E3,6.897E3,1.484E3,7.31E2,2.74E2,2.4E2,1.1332E4,1.3042E4,5.113E3,2.498E3,8.66E2,1.323E3,6.69E3,2.07E2,1.368E3,1.16E2,3.76E2,3.55E2,1.78E2,9.6E1,5.3E1,1.87E2,1.1277E4,5.5E1,5.825E3,7.217E3,1.903E3,3.21E3,2.493E3,5E0,7.63E2,1.03E2,1.313E3,1E1,5.097E3,1.593E3,6E0,2.01E2,1.012E3,3.56E2,4.8E1,6.8E1,3.19E2,5.7E1,1.45E2,2.1E2,1.01E2,7.7E1,8.5E1,1.1E1,8E0,4.5E1,5.2E1,1.35E2,1.591E3,9.686E3,4.2E1,1.3E1,3.476E3,2.349E3,6.05E2,6.612E3,6.12E2,1.291E3,1.173E3,2.037E3,1.062E3,1.431E3,1E0,4E0,1.21E2,6.42E2,9.6E1,7E0,1E1,1.303E3,4E0,6E0,1.219E3,3.878E3,5.98E2,9.95E2,1E0,5E0,1.3E1,1.88E2,8.84E2,1.28E2,2.01E2,1.55E2,3E0,4.5E1,6.7E1,1E0,2.9E1,2.9E2,2.5E1,3.2E1,1.8E1,1.27E2,9.5E1,1.15E2,9.5E1,6E0,6.2E1,1.5E1,1E0,8.4E1,1E0,1E1,2E0,6E0,2E0,4.3E1,4.1E1,1.1E1,4E0,1.31E2],"tree_param":{"num_deleted":"0","num_feature":"10","num_nodes":"127","size_leaf_vector":"1"}},{"base_weights":[2.3621393E-2,-3.5086422E0,5.316542E1,-6.859549E0,8.286847E0,4.387029E1,9.305833E1,-9.71778E0,2.2939255E0,-1.8559916E-1,1.2643813E1,3.5500114E1,6.0790833E1,7.450792E1,1.1383967E2,-1.5298532E1,-6.5422654E0,-3.7738593E0,8.067143E0,-1.4323574E0,1.6310385E1,1.1841335E1,5.7160473E1,3.3462227E1,7.041039E1,4.756623E1,7.462478E1,9.429874E1,6.7157684E1,1.031022E2,8.605982E0,-1.5417451E1,4.3834957E1,-9.243236E0,-4.1043744E0,9.1845506E-1,-7.093868E0,5.204142E0,1.388483E1,-4.1483936E0,3.8208494E0,-3.255533E1,1.8336609E1,8.888482E0,2.1125568E1,-8.077938E0,6.800282E1,3.86146E1,2.124538E1,3.399454E0,8.089212E1,4.2267773E1,7.5979004E1,9.174748E1,6.2423172E1,6.642989E1,1.1748587E2,2.1084263E1,7.0966675E1,1.7616374E2,9.013639E1,-6.054757E-1,-8.6851007E-1,2.0331681E-1,2.9408891E0,-4.7032902E-1,1.5517682E0,9.412735E-2,-2.3342161E-1,-5.5794543E-1,1.7890963E-1,-4.1544992E-1,2.008299E-1,4.7802135E-1,4.5006886E-2,2.6343048E-1,8.1062376E-1,4.8170543E-1,-2.6786122E-1,5.3416095E0,1.6973786E-1,7.3049307E-1,-2.9286451E0,8.513158E-1,4.0616302E0,-3.854179E-2,5.791521E-1,1.687404E0,7.184945E-1,2.0373676E0,-1.3874325E0,2.933761E0,5.2576933E0,1.494722E0,2.3439205E0,1.2179234E0,-4.430039E-1,-1.0999304E0,1.6231976E0,4.312931E0,-1.4609872E0,3.874785E-1,2.284055E0,5.23854E0,2.5496082E0,1.4222565E0,5.021358E0,4.219881E0,2.1849644E0,9.008008E-1,4.892395E0,7.722407E0,4.3332458E0,7.692682E0,-9.177932E-1,7.190161E0,3.3887672E0,7.713286E-1,9.672604E0,2.694968E0,5.0859666E0],"categories":[],"categories_nodes":[],"categories_segments":[],"categories_sizes":[],"default_left":[0,0,0,0,0,0,0,0,0,0,0,0,0,0,0,0,0,0,0,0,0,0,0,0,0,0,0,0,0,0,0,0,0,0,0,0,0,0,0,0,0,0,0,0,0,0,0,0,0,0,0,0,0,0,0,0,0,0,0,0,0,0,0,0,0,0,0,0,0,0,0,0,0,0,0,0,0,0,0,0,0,0,0,0,0,0,0,0,0,0,0,0,0,0,0,0,0,0,0,0,0,0,0,0,0,0,0,0,0,0,0,0,0,0,0,0,0,0,0,0,0],"id":12,"left_children":[1,3,5,7,9,11,13,15,17,19,21,23,25,27,29,31,33,35,37,39,41,43,45,47,49,51,53,55,57,59,-1,61,63,65,67,69,71,73,75,77,79,81,83,85,87,89,91,93,95,97,99,101,103,105,107,109,111,113,115,117,119,-1,-1,-1,-1,-1,-1,-1,-1,-1,-1,-1,-1,-1,-1,-1,-1,-1,-1,-1,-1,-1,-1,-1,-1,-1,-1,-1,-1,-1,-1,-1,-1,-1,-1,-1,-1,-1,-1,-1,-1,-1,-1,-1,-1,-1,-1,-1,-1,-1,-1,-1,-1,-1,-1,-1,-1,-1,-1,-1,-1],"loss_changes":[8.2221095E6,1.6234518E6,1.0082275E6,8.36864E5,3.3544138E5,3.116895E5,1.90052E5,4.3186775E5,2.6668375E5,6.3512156E4,2.1370062E5,1.0329175E5,1.3036875E5,3.3670625E4,1.3306675E5,6.28325E4,1.0226806E5,5.7833984E4,6.4903E4,4.0978992E4,2.2082754E4,1.6145094E5,7.552716E4,8.761825E4,5.6618656E4,5.3543625E4,6.865E4,3.8721688E4,3.4304438E4,1.792655E5,0E0,5.6776E4,1.04860625E4,4.8781375E4,2.7591875E4,4.9476637E4,2.9383828E4,4.9039992E4,2.5705953E4,3.1590348E4,4.2607938E4,1.1899857E4,1.5841078E4,1.1648247E5,1.2077419E5,1.6497533E4,2.5364344E4,6.97235E4,3.948489E4,9.572343E3,4.38845E4,3.7349E4,3.6383625E4,7.7362E4,8.312719E4,5.147453E4,2.9904875E4,9.184361E4,3.3953438E4,8.038206E4,6.880975E4,0E0,0E0,0E0,0E0,0E0,0E0,0E0,0E0,0E0,0E0,0E0,0E0,0E0,0E0,0E0,0E0,0E0,0E0,0E0,0E0,0E0,0E0,0E0,0E0,0E0,0E0,0E0,0E0,0E0,0E0,0E0,0E0,0E0,0E0,0E0,0E0,0E0,0E0,0E0,0E0,0E0,0E0,0E0,0E0,0E0,0E0,0E0,0E0,0E0,0E0,0E0,0E0,0E0,0E0,0E0,0E0,0E0,0E0,0E0,0E0],"parents":[2147483647,0,0,1,1,2,2,3,3,4,4,5,5,6,6,7,7,8,8,9,9,10,10,11,11,12,12,13,13,14,14,15,15,16,16,17,17,18,18,19,19,20,20,21,21,22,22,23,23,24,24,25,25,26,26,27,27,28,28,29,29,31,31,32,32,33,33,34,34,35,35,36,36,37,37,38,38,39,39,40,40,41,41,42,42,43,43,44,44,45,45,46,46,47,47,48,48,49,49,50,50,51,51,52,52,53,53,54,54,55,55,56,56,57,57,58,58,59,59,60,60],"right_children":[2,4,6,8,10,12,14,16,18,20,22,24,26,28,30,32,34,36,38,40,42,44,46,48,50,52,54,56,58,60,-1,62,64,66,68,70,72,74,76,78,80,82,84,86,88,90,92,94,96,98,100,102,104,106,108,110,112,114,116,118,120,-1,-1,-1,-1,-1,-1,-1,-1,-1,-1,-1,-1,-1,-1,-1,-1,-1,-1,-1,-1,-1,-1,-1,-1,-1,-1,-1,-1,-1,-1,-1,-1,-1,-1,-1,-1,-1,-1,-1,-1,-1,-1,-1,-1,-1,-1,-1,-1,-1,-1,-1,-1,-1,-1,-1,-1,-1,-1,-1,-1],"split_conditions":[1.3857143E2,8.7E1,2.3314285E2,5E0,2E0,5E0,5E0,6.37E1,6.1933334E1,1.53E2,2.27E2,2.83E2,1.7028572E2,1.82E2,2.1933333E2,1.53E2,7.536667E1,5.2E1,7.536667E1,1.0385714E2,1.3E1,1.11E2,7.68E1,1.23E2,1E0,2.17E2,6E0,2.5442857E2,8.5E1,1.38E2,8.605982E0,3.5E1,1E0,1.53E2,2.4E1,4.4866665E1,9.6E1,7.8E1,6.942857E1,3.2E1,1.6E1,1.82E2,2.6E2,7.476667E1,1.07E2,2.8E1,1.44E2,1.65E2,1.2E1,1.3E2,2.4753334E2,3.8E1,1.15566666E2,1.034E2,1.59E2,9.5E1,9.5E1,4.5E1,1.08E2,1.3786667E2,1.43E2,-6.054757E-1,-8.6851007E-1,2.0331681E-1,2.9408891E0,-4.7032902E-1,1.5517682E0,9.412735E-2,-2.3342161E-1,-5.5794543E-1,1.7890963E-1,-4.1544992E-1,2.008299E-1,4.7802135E-1,4.5006886E-2,2.6343048E-1,8.1062376E-1,4.8170543E-1,-2.6786122E-1,5.3416095E0,1.6973786E-1,7.3049307E-1,-2.9286451E0,8.513158E-1,4.0616302E0,-3.854179E-2,5.791521E-1,1.687404E0,7.184945E-1,2.0373676E0,-1.3874325E0,2.933761E0,5.2576933E0,1.494722E0,2.3439205E0,1.2179234E0,-4.430039E-1,-1.0999304E0,1.6231976E0,4.312931E0,-1.4609872E0,3.874785E-1,2.284055E0,5.23854E0,2.5496082E0,1.4222565E0,5.021358E0,4.219881E0,2.1849644E0,9.008008E-1,4.892395E0,7.722407E0,4.3332458E0,7.692682E0,-9.177932E-1,7.190161E0,3.3887672E0,7.713286E-1,9.672604E0,2.694968E0,5.0859666E0],"split_indices":[3,3,3,5,5,5,5,4,4,0,0,0,3,0,4,0,4,0,4,3,2,3,4,2,5,1,5,3,1,0,0,0,5,0,0,4,1,0,3,0,1,0,0,4,0,2,2,3,6,1,4,1,4,4,1,0,0,1,1,4,1,0,0,0,0,0,0,0,0,0,0,0,0,0,0,0,0,0,0,0,0,0,0,0,0,0,0,0,0,0,0,0,0,0,0,0,0,0,0,0,0,0,0,0,0,0,0,0,0,0,0,0,0,0,0,0,0,0,0,0,0],"split_type":[0,0,0,0,0,0,0,0,0,0,0,0,0,0,0,0,0,0,0,0,0,0,0,0,0,0,0,0,0,0,0,0,0,0,0,0,0,0,0,0,0,0,0,0,0,0,0,0,0,0,0,0,0,0,0,0,0,0,0,0,0,0,0,0,0,0,0,0,0,0,0,0,0,0,0,0,0,0,0,0,0,0,0,0,0,0,0,0,0,0,0,0,0,0,0,0,0,0,0,0,0,0,0,0,0,0,0,0,0,0,0,0,0,0,0,0,0,0,0,0,0],"sum_hessian":[4.38E4,4.1071E4,2.729E3,3.1985E4,9.086E3,2.215E3,5.14E2,2.4374E4,7.611E3,3.086E3,6E3,1.484E3,7.31E2,2.74E2,2.4E2,8.838E3,1.5536E4,3.711E3,3.9E3,2.87E3,2.16E2,5.895E3,1.05E2,1.404E3,8E1,3.76E2,3.55E2,7.1E1,2.03E2,2.05E2,3.5E1,8.821E3,1.7E1,7.369E3,8.167E3,1.538E3,2.173E3,2.615E3,1.285E3,1.892E3,9.78E2,8E0,2.08E2,4.474E3,1.421E3,1.5E1,9E1,9.86E2,4.18E2,1.1E1,6.9E1,3.19E2,5.7E1,1.45E2,2.1E2,3.4E1,3.7E1,1.6E1,1.87E2,2.9E1,1.76E2,3.277E3,5.544E3,5E0,1.2E1,7.34E3,2.9E1,7.03E2,7.464E3,2.77E2,1.261E3,1.959E3,2.14E2,1.299E3,1.316E3,2.74E2,1.011E3,1.52E2,1.74E3,3E0,9.75E2,3E0,5E0,2.05E2,3E0,9.76E2,3.498E3,4.94E2,9.27E2,4E0,1.1E1,7.4E1,1.6E1,4.82E2,5.04E2,3.79E2,3.9E1,6E0,5E0,6.6E1,3E0,2.9E1,2.9E2,2.5E1,3.2E1,1.8E1,1.27E2,9.5E1,1.15E2,1.4E1,2E1,1.5E1,2.2E1,3E0,1.3E1,6E0,1.81E2,3E0,2.6E1,4.4E1,1.32E2],"tree_param":{"num_deleted":"0","num_feature":"10","num_nodes":"121","size_leaf_vector":"1"}},{"base_weights":[2.5115164E-2,-3.660611E0,4.609044E1,-7.1503835E0,5.3312616E0,3.3366524E1,7.357679E1,-1.2687874E1,-2.4215782E0,3.4985605E-1,1.6375044E1,3.1294136E1,7.3998886E1,5.2873043E1,8.699409E1,-1.2892531E1,2.4003101E1,-4.4557276E0,6.0469522E0,-3.782459E0,4.272892E0,1.5757135E1,5.9004524E1,2.193553E1,3.8640648E1,-2.6366625E0,7.6915054E1,6.1627453E1,-5.333992E0,6.109918E1,1.0416273E2,-1.5449994E1,-1.023853E1,7.15609E1,9.893176E0,-4.569757E0,3.6966595E1,3.9368923E0,2.2597984E1,7.7979E-1,-6.9261823E0,9.044708E0,-2.7112105E-1,1.5111687E1,3.3528786E1,-1.8974224E1,7.214E1,2.6505783E1,8.41224E-1,5.178188E1,2.917629E1,5.8074005E1,1.0273066E2,4.0837856E1,8.732123E1,7.690395E1,-2.3490557E1,6.2988148E1,-1.3473338E1,7.670487E1,1.2497924E2,-5.882742E-1,-8.7993497E-1,-5.154492E-1,4.2171416E0,5.0656505E0,2.030156E0,-3.7492377E-1,2.0860426E0,-3.3758715E-1,-1.312361E-1,-8.003745E-2,2.33328E0,6.360965E-1,-9.198601E-3,4.504022E0,9.8421365E-1,-5.181872E-1,1.634578E-1,-7.181047E-2,-4.4972625E-1,4.4141355E-1,3.402298E0,-2.3354277E-2,6.696214E0,7.364957E-1,2.143718E0,3.6692398E0,1.3814071E0,-2.0839667E0,1.6380367E0,4.3340807E0,-7.514263E-1,1.8943537E0,9.8981285E-1,5.0392133E-1,-1.1134654E0,3.137552E0,1.380656E0,9.751248E-1,2.1147509E0,5.0267572E0,2.0740054E0,1.6882105E0,5.760145E0,3.8349023E0,1.8622077E0,6.1127005E0,3.5642002E0,-1.0103337E0,4.4969606E0,1.8442742E0,-1.434068E0,2.638525E0,4.1830416E0,8.819174E-1,-3.0417516E0,1.2497753E0,4.2945695E0,9.942454E0,5.741514E0],"categories":[],"categories_nodes":[],"categories_segments":[],"categories_sizes":[],"default_left":[0,0,0,0,0,0,0,0,0,0,0,0,0,0,0,0,0,0,0,0,0,0,0,0,0,0,0,0,0,0,0,0,0,0,0,0,0,0,0,0,0,0,0,0,0,0,0,0,0,0,0,0,0,0,0,0,0,0,0,0,0,0,0,0,0,0,0,0,0,0,0,0,0,0,0,0,0,0,0,0,0,0,0,0,0,0,0,0,0,0,0,0,0,0,0,0,0,0,0,0,0,0,0,0,0,0,0,0,0,0,0,0,0,0,0,0,0,0,0,0,0],"id":13,"left_children":[1,3,5,7,9,11,13,15,17,19,21,23,25,27,29,31,33,35,37,39,41,43,45,47,49,-1,51,53,55,57,59,61,63,65,67,69,71,73,75,77,79,81,83,85,87,89,91,93,95,97,99,101,103,105,107,109,111,113,115,117,119,-1,-1,-1,-1,-1,-1,-1,-1,-1,-1,-1,-1,-1,-1,-1,-1,-1,-1,-1,-1,-1,-1,-1,-1,-1,-1,-1,-1,-1,-1,-1,-1,-1,-1,-1,-1,-1,-1,-1,-1,-1,-1,-1,-1,-1,-1,-1,-1,-1,-1,-1,-1,-1,-1,-1,-1,-1,-1,-1,-1],"loss_changes":[7.4368845E6,1.2727E6,1.1324315E6,7.650636E5,6.2384806E5,1.8462175E5,2.80411E5,1.0136675E5,2.7152994E5,1.26723055E5,9.1922625E4,1.4449625E5,4.3600125E4,2.072135E5,2.697205E5,9.068575E4,4.96198E4,6.019828E4,1.06533E5,5.46071E4,8.695207E4,3.93655E4,5.2583203E4,8.982841E4,1.45623E5,0E0,4.5105312E4,1.8499362E5,8.243708E4,3.6064938E4,2.0304E5,5.3738875E4,4.4655938E4,1.1544383E4,3.297146E4,5.377547E4,1.3166969E4,9.8073414E4,6.6062266E4,4.3142363E4,2.5581578E4,2.4377578E4,5.410399E4,3.4938812E4,2.6428812E4,1.0762628E4,5.580825E4,5.7744125E4,3.5875043E4,1.29232E5,8.674156E4,4.0219344E4,3.309747E4,2.2531031E4,7.92405E4,1.4475984E4,1.5160924E4,4.7124312E4,1.1387545E4,7.528281E4,1.3460375E5,0E0,0E0,0E0,0E0,0E0,0E0,0E0,0E0,0E0,0E0,0E0,0E0,0E0,0E0,0E0,0E0,0E0,0E0,0E0,0E0,0E0,0E0,0E0,0E0,0E0,0E0,0E0,0E0,0E0,0E0,0E0,0E0,0E0,0E0,0E0,0E0,0E0,0E0,0E0,0E0,0E0,0E0,0E0,0E0,0E0,0E0,0E0,0E0,0E0,0E0,0E0,0E0,0E0,0E0,0E0,0E0,0E0,0E0,0E0,0E0],"parents":[2147483647,0,0,1,1,2,2,3,3,4,4,5,5,6,6,7,7,8,8,9,9,10,10,11,11,12,12,13,13,14,14,15,15,16,16,17,17,18,18,19,19,20,20,21,21,22,22,23,23,24,24,26,26,27,27,28,28,29,29,30,30,31,31,32,32,33,33,34,34,35,35,36,36,37,37,38,38,39,39,40,40,41,41,42,42,43,43,44,44,45,45,46,46,47,47,48,48,49,49,50,50,51,51,52,52,53,53,54,54,55,55,56,56,57,57,58,58,59,59,60,60],"right_children":[2,4,6,8,10,12,14,16,18,20,22,24,26,28,30,32,34,36,38,40,42,44,46,48,50,-1,52,54,56,58,60,62,64,66,68,70,72,74,76,78,80,82,84,86,88,90,92,94,96,98,100,102,104,106,108,110,112,114,116,118,120,-1,-1,-1,-1,-1,-1,-1,-1,-1,-1,-1,-1,-1,-1,-1,-1,-1,-1,-1,-1,-1,-1,-1,-1,-1,-1,-1,-1,-1,-1,-1,-1,-1,-1,-1,-1,-1,-1,-1,-1,-1,-1,-1,-1,-1,-1,-1,-1,-1,-1,-1,-1,-1,-1,-1,-1,-1,-1,-1,-1],"split_conditions":[1.2871428E2,5E0,1.9371428E2,7.023333E1,7.7166664E1,2.83E2,3E0,1.42E2,9.4E1,6.1933334E1,2.06E2,3E0,1.3E1,2E0,9E0,6.0733334E1,7.157143E1,1.66E2,1.53E2,5.2E1,8.5E1,1.2357143E2,4.2E1,1.44E2,1.39E2,-2.6366625E0,9.9E1,2.1933333E2,1.9026666E2,2.44E2,1.508E2,3.3E1,1.1342857E2,5.6E1,1.82E2,8.06E1,8.128571E1,7.3E1,9.614286E1,4.4866665E1,5E0,1.1642857E2,1.97E2,1.605E2,6.7E1,8.92E1,1.98E2,1.39E2,2E0,1.24E2,1.5942857E2,3E1,4.1E1,6E1,1.82E2,1.3E1,2E0,1.02E2,2.27E2,3.1E1,1.36E2,-5.882742E-1,-8.7993497E-1,-5.154492E-1,4.2171416E0,5.0656505E0,2.030156E0,-3.7492377E-1,2.0860426E0,-3.3758715E-1,-1.312361E-1,-8.003745E-2,2.33328E0,6.360965E-1,-9.198601E-3,4.504022E0,9.8421365E-1,-5.181872E-1,1.634578E-1,-7.181047E-2,-4.4972625E-1,4.4141355E-1,3.402298E0,-2.3354277E-2,6.696214E0,7.364957E-1,2.143718E0,3.6692398E0,1.3814071E0,-2.0839667E0,1.6380367E0,4.3340807E0,-7.514263E-1,1.8943537E0,9.8981285E-1,5.0392133E-1,-1.1134654E0,3.137552E0,1.380656E0,9.751248E-1,2.1147509E0,5.0267572E0,2.0740054E0,1.6882105E0,5.760145E0,3.8349023E0,1.8622077E0,6.1127005E0,3.5642002E0,-1.0103337E0,4.4969606E0,1.8442742E0,-1.434068E0,2.638525E0,4.1830416E0,8.819174E-1,-3.0417516E0,1.2497753E0,4.2945695E0,9.942454E0,5.741514E0],"split_indices":[3,5,3,4,4,0,5,0,3,4,0,5,1,5,6,4,3,0,0,0,0,3,2,2,0,0,2,4,4,2,4,0,3,2,0,4,3,0,3,4,6,3,1,4,0,4,2,1,5,2,3,2,1,0,0,2,6,2,1,2,0,0,0,0,0,0,0,0,0,0,0,0,0,0,0,0,0,0,0,0,0,0,0,0,0,0,0,0,0,0,0,0,0,0,0,0,0,0,0,0,0,0,0,0,0,0,0,0,0,0,0,0,0,0,0,0,0,0,0,0,0],"split_type":[0,0,0,0,0,0,0,0,0,0,0,0,0,0,0,0,0,0,0,0,0,0,0,0,0,0,0,0,0,0,0,0,0,0,0,0,0,0,0,0,0,0,0,0,0,0,0,0,0,0,0,0,0,0,0,0,0,0,0,0,0,0,0,0,0,0,0,0,0,0,0,0,0,0,0,0,0,0,0,0,0,0,0,0,0,0,0,0,0,0,0,0,0,0,0,0,0,0,0,0,0,0,0,0,0,0,0,0,0,0,0,0,0,0,0,0,0,0,0,0,0],"sum_hessian":[4.38E4,4.0556E4,3.244E3,2.9217E4,1.1339E4,2.219E3,1.025E3,1.3457E4,1.576E4,7.815E3,3.524E3,2.113E3,1.06E2,4.05E2,6.2E2,1.3383E4,7.4E1,1.2708E4,3.052E3,3.806E3,4.009E3,3.475E3,4.9E1,9.31E2,1.182E3,2E0,1.04E2,3.52E2,5.3E1,2.49E2,3.71E2,6.813E3,6.57E3,1.6E1,5.8E1,1.2674E4,3.4E1,2.708E3,3.44E2,1.553E3,2.253E3,1.955E3,2.054E3,3.355E3,1.2E2,7E0,4.2E1,7.65E2,1.66E2,4.93E2,6.89E2,6.2E1,4.2E1,1.96E2,1.56E2,9E0,4.4E1,2.43E2,6E0,1.62E2,2.09E2,2.512E3,4.301E3,6.566E3,4E0,7E0,9E0,3.8E1,2E1,5.972E3,6.702E3,7E0,2.7E1,8.64E2,1.844E3,1.3E1,3.31E2,2.83E2,1.27E3,6.17E2,1.636E3,1.949E3,6E0,2.052E3,2E0,3.311E3,4.4E1,1.4E1,1.06E2,5E0,2E0,3.6E1,6E0,2.82E2,4.83E2,1.19E2,4.7E1,3.38E2,1.55E2,3.98E2,2.91E2,1.6E1,4.6E1,7E0,3.5E1,1.6E1,1.8E2,4.7E1,1.09E2,1E0,8E0,3E0,4.1E1,1.65E2,7.8E1,4E0,2E0,2.5E1,1.37E2,2.3E1,1.86E2],"tree_param":{"num_deleted":"0","num_feature":"10","num_nodes":"121","size_leaf_vector":"1"}},{"base_weights":[2.6292743E-2,-3.1693797E0,4.810418E1,-6.194176E0,7.4781733E0,3.9703056E1,8.4160065E1,-8.777606E0,2.0792456E0,-2.4554405E0,1.0630846E1,2.6996912E1,4.9059517E1,6.731651E1,1.0303068E2,-1.2718677E1,-5.093571E0,-1.7503985E0,9.722644E0,-5.2935157E0,1.9566919E0,9.694566E0,4.0698246E1,3.9208786E1,2.1116632E1,3.822441E1,6.145634E1,5.8225437E1,8.3398834E1,5.9177357E1,1.1507881E2,-1.2921232E1,2.455074E1,-6.8238974E0,-2.883711E0,-1.0177943E1,-2.3036654E-1,-9.377489E0,1.0492677E1,-6.7946153E0,7.1481667E0,2.8598976E-1,1.6572084E1,7.1665864E0,1.7773579E1,-3.261961E1,4.3037487E1,2.2724386E1,5.2694553E1,3.540619E1,7.588122E0,4.1122158E1,-3.7730594E0,7.3750114E1,5.234326E1,6.5173996E1,1.0633771E1,9.8165695E1,-2.9380236E1,9.361986E1,4.0822155E1,1.04182594E2,8.068404E0,-8.979893E-1,-5.882918E-1,1.7434622E0,-3.0140087E-1,-2.290663E-1,-4.995825E-1,-8.3113444E-1,-1.13027714E-1,-1.7676294E-3,-6.924946E-1,2.021853E-1,-2.0288542E-1,-2.368612E0,-2.9858342E-1,7.681232E-1,3.5536322E-1,3.4421653E-1,-3.899958E-1,2.7744827E-1,4.02305E0,6.5584505E-1,-4.669037E-2,6.2323624E-1,4.1130667E0,6.9709796E-1,2.5168946E-1,1.3764597E0,5.9443253E-1,7.2340965E-2,-1.9269241E0,2.355316E0,3.8029262E-1,2.279517E0,4.4772276E-1,3.2339761E0,1.3208565E0,1.2321675E0,2.7943552E0,-2.3541093E-1,1.2646648E0,2.5974927E0,1.6266228E0,-1.2308962E0,4.8809814E-1,1.6875285E-1,3.8642128E0,3.4851663E0,2.099486E0,2.241122E0,4.725265E0,2.7728865E0,-1.2672305E0,8.632493E-1,5.147321E0,5.729128E-1,-1.7067242E0,2.7533958E0,1.0739234E1,-1.4294772E0,3.047803E0,8.523398E0,4.596819E0],"categories":[],"categories_nodes":[],"categories_segments":[],"categories_sizes":[],"default_left":[0,0,0,0,0,0,0,0,0,0,0,0,0,0,0,0,0,0,0,0,0,0,0,0,0,0,0,0,0,0,0,0,0,0,0,0,0,0,0,0,0,0,0,0,0,0,0,0,0,0,0,0,0,0,0,0,0,0,0,0,0,0,0,0,0,0,0,0,0,0,0,0,0,0,0,0,0,0,0,0,0,0,0,0,0,0,0,0,0,0,0,0,0,0,0,0,0,0,0,0,0,0,0,0,0,0,0,0,0,0,0,0,0,0,0,0,0,0,0,0,0,0,0,0,0],"id":14,"left_children":[1,3,5,7,9,11,13,15,17,19,21,23,25,27,29,31,33,35,37,39,41,43,45,47,49,51,53,55,57,59,61,63,65,67,69,71,73,75,77,79,81,83,85,87,89,91,93,95,97,99,101,103,105,107,109,111,113,115,117,119,121,123,-1,-1,-1,-1,-1,-1,-1,-1,-1,-1,-1,-1,-1,-1,-1,-1,-1,-1,-1,-1,-1,-1,-1,-1,-1,-1,-1,-1,-1,-1,-1,-1,-1,-1,-1,-1,-1,-1,-1,-1,-1,-1,-1,-1,-1,-1,-1,-1,-1,-1,-1,-1,-1,-1,-1,-1,-1,-1,-1,-1,-1,-1,-1],"loss_changes":[6.729789E6,1.3228392E6,8.23603E5,6.836805E5,2.8460762E5,2.6212375E5,1.5675625E5,3.53837E5,2.2283164E5,2.7433457E4,1.9379456E5,6.681631E4,1.6891E5,3.53505E4,1.2052225E5,8.9215375E4,4.8159938E4,6.4970668E4,3.7470734E4,2.494395E4,2.0945879E4,1.3652675E5,3.7077562E4,6.660553E4,1.2306722E5,8.327494E4,6.2576E4,5.8501062E4,1.6442731E5,3.0316984E4,7.80115E4,6.797625E4,2.0403926E4,5.015047E4,4.735053E4,2.8862875E4,7.032454E4,1.2528036E4,4.0166688E4,