{"learner":{"attributes":{"scikit_learn":"{\"_estimator_type\": \"regressor\"}"},"feature_names":["lag_1","lag_7","lag_30","rolling_mean_7","rolling_mean_30","day_of_week","month","quarter","is_weekend","is_festival"],"feature_types":["float","float","float","float","float","int","int","int","int","int"],"gradient_booster":{"model":{"cats":{"enc":[],"feature_segments":[],"sorted_idx":[]},"gbtree_model_param":{"num_parallel_tree":"1","num_trees":"300"},"iteration_indptr":[0,1,2,3,4,5,6,7,8,9,10,11,12,13,14,15,16,17,18,19,20,21,22,23,24,25,26,27,28,29,30,31,32,33,34,35,36,37,38,39,40,41,42,43,44,45,46,47,48,49,50,51,52,53,54,55,56,57,58,59,60,61,62,63,64,65,66,67,68,69,70,71,72,73,74,75,76,77,78,79,80,81,82,83,84,85,86,87,88,89,90,91,92,93,94,95,96,97,98,99,100,101,102,103,104,105,106,107,108,109,110,111,112,113,114,115,116,117,118,119,120,121,122,123,124,125,126,127,128,129,130,131,132,133,134,135,136,137,138,139,140,141,142,143,144,145,146,147,148,149,150,151,152,153,154,155,156,157,158,159,160,161,162,163,164,165,166,167,168,169,170,171,172,173,174,175,176,177,178,179,180,181,182,183,184,185,186,187,188,189,190,191,192,193,194,195,196,197,198,199,200,201,202,203,204,205,206,207,208,209,210,211,212,213,214,215,216,217,218,219,220,221,222,223,224,225,226,227,228,229,230,231,232,233,234,235,236,237,238,239,240,241,242,243,244,245,246,247,248,249,250,251,252,253,254,255,256,257,258,259,260,261,262,263,264,265,266,267,268,269,270,271,272,273,274,275,276,277,278,279,280,281,282,283,284,285,286,287,288,289,290,291,292,293,294,295,296,297,298,299,300],"tree_info":[0,0,0,0,0,0,0,0,0,0,0,0,0,0,0,0,0,0,0,0,0,0,0,0,0,0,0,0,0,0,0,0,0,0,0,0,0,0,0,0,0,0,0,0,0,0,0,0,0,0,0,0,0,0,0,0,0,0,0,0,0,0,0,0,0,0,0,0,0,0,0,0,0,0,0,0,0,0,0,0,0,0,0,0,0,0,0,0,0,0,0,0,0,0,0,0,0,0,0,0,0,0,0,0,0,0,0,0,0,0,0,0,0,0,0,0,0,0,0,0,0,0,0,0,0,0,0,0,0,0,0,0,0,0,0,0,0,0,0,0,0,0,0,0,0,0,0,0,0,0,0,0,0,0,0,0,0,0,0,0,0,0,0,0,0,0,0,0,0,0,0,0,0,0,0,0,0,0,0,0,0,0,0,0,0,0,0,0,0,0,0,0,0,0,0,0,0,0,0,0,0,0,0,0,0,0,0,0,0,0,0,0,0,0,0,0,0,0,0,0,0,0,0,0,0,0,0,0,0,0,0,0,0,0,0,0,0,0,0,0,0,0,0,0,0,0,0,0,0,0,0,0,0,0,0,0,0,0,0,0,0,0,0,0,0,0,0,0,0,0,0,0,0,0,0,0,0,0,0,0,0,0,0,0,0,0,0,0,0,0,0,0,0,0,0,0,0,0,0,0],"trees":[{"base_weights":[9.434528E-5,-2.9446637E2,5.832702E2,-5.925842E-2,-4.084999E2,3.9301334E2,9.7768176E2,-5.1123376E2,-1.2489612E2,3.4420065E2,6.109992E2,9.6743695E2,1.3397382E2,-1.0460503E3,-4.9066495E2,-1.4116385E2,1.8374943E3,3.3508643E2,1.3397561E3,6.29578E2,-5.8137463E1,9.8257184E2,-2.672141E2,-1.1533652E3,-4.6301582E1,-3.0867047E2,-5.8398285E2,-1.26867096E2,-9.7603577E2,-3.0325928E0,2.082344E3,1.8881909E2,3.7335745E2,1.4777783E2,6.303962E2,8.7183905E2,5.1739526E2,9.26268E2,1.2405022E3,-5.4746454E2,7.038851E1,-5.857847E1,-4.713736E0,-1.610156E1,3.5496597E1,-3.3920513E1,-2.2904839E1,-1.2538378E1,-1.7425455E0,-6.0649975E1,3.0655823E1,2.89591E1,1.1071706E2,3.4529118E1,4.2410355E0,1.939199E1,2.9987304E0,-3.7897144E1,6.228831E1,3.7318264E1,6.0408047E1,8.434032E0,2.8030188E1,4.645438E1,-4.5095134E0,6.611169E1,5.3182217E1,-3.3410355E1,-1.374288E-1],"categories":[],"categories_nodes":[],"categories_segments":[],"categories_sizes":[],"default_left":[0,0,0,0,0,0,0,0,0,0,0,0,0,0,0,0,0,0,0,0,0,0,0,0,0,0,0,0,0,0,0,0,0,0,0,0,0,0,0,0,0,0,0,0,0,0,0,0,0,0,0,0,0,0,0,0,0,0,0,0,0,0,0,0,0,0,0,0,0],"id":0,"left_children":[1,3,5,-1,7,9,11,13,15,17,19,21,-1,23,25,27,29,31,33,35,-1,37,39,41,-1,43,45,47,49,-1,51,53,55,-1,57,59,61,63,65,67,-1,-1,-1,-1,-1,-1,-1,-1,-1,-1,-1,-1,-1,-1,-1,-1,-1,-1,-1,-1,-1,-1,-1,-1,-1,-1,-1,-1,-1],"loss_changes":[1.4641984E9,1.8945917E8,2.142288E8,0E0,1.1878074E8,2.0336448E7,1.3621888E7,3.24224E7,3.4928464E7,1.3887536E7,1.2331872E7,1.7566016E7,0E0,3.4872E5,4.8816704E7,1.2743138E7,4.309142E6,8.701248E6,1.4183404E7,9.033856E6,0E0,1.2138944E7,6.4036845E6,9.30664E5,0E0,1.356568E7,2.2345984E7,1.2087558E7,7.522E6,0E0,3.04796E5,1.7005124E7,5.609056E6,0E0,1.0341983E7,3.698024E6,3.536688E6,2.247552E6,9.20832E5,7.2163825E5,0E0,0E0,0E0,0E0,0E0,0E0,0E0,0E0,0E0,0E0,0E0,0E0,0E0,0E0,0E0,0E0,0E0,0E0,0E0,0E0,0E0,0E0,0E0,0E0,0E0,0E0,0E0,0E0,0E0],"parents":[2147483647,0,0,1,1,2,2,4,4,5,5,6,6,7,7,8,8,9,9,10,10,11,11,13,13,14,14,15,15,16,16,17,17,18,18,19,19,21,21,22,22,23,23,25,25,26,26,27,27,28,28,30,30,31,31,32,32,34,34,35,35,36,36,37,37,38,38,39,39],"right_children":[2,4,6,-1,8,10,12,14,16,18,20,22,-1,24,26,28,30,32,34,36,-1,38,40,42,-1,44,46,48,50,-1,52,54,56,-1,58,60,62,64,66,68,-1,-1,-1,-1,-1,-1,-1,-1,-1,-1,-1,-1,-1,-1,-1,-1,-1,-1,-1,-1,-1,-1,-1,-1,-1,-1,-1,-1,-1],"split_conditions":[2.203798E3,4.59402E1,4.138613E3,-5.925842E-2,1.5340032E3,3.5993147E3,5.273136E3,1.118544E2,2.3245933E3,3.775086E3,9.18804E2,2.6788938E3,1.3397382E2,8.72198E1,5.313084E2,3.79506E1,1.657842E2,2.4448176E3,4.136615E3,3.7497856E3,-5.8137463E1,6.4396177E3,4.4029355E3,3.79506E1,-4.6301582E1,1.7896704E3,1.0706064E3,1.784344E3,3.3150183E3,-3.0325928E0,1.93082E2,2.2477407E3,3.52874E3,1.4777783E2,5.494847E3,3.7071743E3,3.78241E3,2.1252336E3,7.6460474E3,7.6460474E3,7.038851E1,-5.857847E1,-4.713736E0,-1.610156E1,3.5496597E1,-3.3920513E1,-2.2904839E1,-1.2538378E1,-1.7425455E0,-6.0649975E1,3.0655823E1,2.89591E1,1.1071706E2,3.4529118E1,4.2410355E0,1.939199E1,2.9987304E0,-3.7897144E1,6.228831E1,3.7318264E1,6.0408047E1,8.434032E0,2.8030188E1,4.645438E1,-4.5095134E0,6.611169E1,5.3182217E1,-3.3410355E1,-1.374288E-1],"split_indices":[0,0,0,0,0,0,1,0,3,1,1,3,0,0,0,1,1,0,1,0,0,0,3,1,0,3,0,0,1,0,1,0,0,0,1,0,0,1,0,0,0,0,0,0,0,0,0,0,0,0,0,0,0,0,0,0,0,0,0,0,0,0,0,0,0,0,0,0,0],"split_type":[0,0,0,0,0,0,0,0,0,0,0,0,0,0,0,0,0,0,0,0,0,0,0,0,0,0,0,0,0,0,0,0,0,0,0,0,0,0,0,0,0,0,0,0,0,0,0,0,0,0,0,0,0,0,0,0,0,0,0,0,0,0,0,0,0,0,0,0,0],"sum_hessian":[8.523E3,5.664E3,2.859E3,1.586E3,4.078E3,1.93E3,9.29E2,2.993E3,1.085E3,1.579E3,3.51E2,9.25E2,4E0,1.09E2,2.884E3,1.077E3,8E0,1.566E3,1.3E1,3.48E2,3E0,9.14E2,1.1E1,5.3E1,5.6E1,9.79E2,1.905E3,1.06E3,1.7E1,1E0,7E0,3.26E2,1.24E3,3E0,1E1,1.08E2,2.4E2,7.54E2,1.6E2,1E1,1E0,5.2E1,1E0,9.67E2,1.2E1,1.086E3,8.19E2,4.51E2,6.09E2,1.5E1,2E0,1E0,6E0,5.5E1,2.71E2,1.185E3,5.5E1,3E0,7E0,8.1E1,2.7E1,2.7E1,2.13E2,7.52E2,2E0,1.05E2,5.5E1,8E0,2E0],"tree_param":{"num_deleted":"0","num_feature":"10","num_nodes":"69","size_leaf_vector":"1"}},{"base_weights":[6.889622E-2,-2.921083E2,5.3157245E2,-5.6293827E-2,-4.099875E2,3.5482632E2,9.291547E2,-4.8572125E2,-1.6361346E2,1.6452956E2,4.1282065E2,9.192791E2,1.2861485E2,-9.947441E2,-4.6614474E2,-1.7836165E2,1.7896649E3,1.4634822E2,1.9024854E3,3.6537717E2,5.806652E2,9.336195E2,-2.5078331E2,-1.0968691E3,-4.4027122E1,-2.9321716E2,-5.548136E2,-1.6304865E2,-9.785584E2,-2.9567811E0,1.0538271E2,1.8331488E2,-1.5346425E2,2.9431238E1,1.291092E2,3.5470752E2,1.285066E3,5.984835E2,-5.5957306E1,8.800102E2,1.1792181E3,-5.2314105E2,6.86288E1,-5.570481E1,-4.5958953E0,-1.5248218E1,3.8466393E1,-3.249174E1,-2.2069708E1,-1.1912848E1,-4.3487344E0,-5.7807014E1,4.6568787E1,1.2651163E1,5.654268E0,-3.4928498E0,-1.2040801E1,1.753489E1,7.535229E1,1.4223618E2,3.0054691E1,4.145718E1,2.4583838E1,4.5862892E1,3.9078037E1,6.2837288E1,5.0570595E1,-3.192545E1,-1.3284709E-1],"categories":[],"categories_nodes":[],"categories_segments":[],"categories_sizes":[],"default_left":[0,0,0,0,0,0,0,0,0,0,0,0,0,0,0,0,0,0,0,0,0,0,0,0,0,0,0,0,0,0,0,0,0,0,0,0,0,0,0,0,0,0,0,0,0,0,0,0,0,0,0,0,0,0,0,0,0,0,0,0,0,0,0,0,0,0,0,0,0],"id":1,"left_children":[1,3,5,-1,7,9,11,13,15,17,19,21,-1,23,25,27,29,31,33,35,37,39,41,43,-1,45,47,49,51,-1,-1,53,55,-1,-1,57,59,61,-1,63,65,67,-1,-1,-1,-1,-1,-1,-1,-1,-1,-1,-1,-1,-1,-1,-1,-1,-1,-1,-1,-1,-1,-1,-1,-1,-1,-1,-1],"loss_changes":[1.3238747E9,1.886881E8,2.1217024E8,0E0,7.296979E7,2.3052768E7,1.2726592E7,2.9371136E7,2.6879544E7,1.5236365E7,1.2568672E7,1.5771648E7,0E0,3.17064E5,4.407392E7,1.106458E7,4.23993E6,5.425584E6,2.94521E6,1.1849344E7,1.1331072E7,1.1009472E7,6.0236645E6,8.32464E5,0E0,1.2466904E7,2.0254592E7,5.128534E6,6.842685E6,0E0,0E0,2.096071E6,3.7755238E5,0E0,0E0,5.205632E6,1.322473E7,8.190312E6,0E0,2.051712E6,8.23456E5,6.5882225E5,0E0,0E0,0E0,0E0,0E0,0E0,0E0,0E0,0E0,0E0,0E0,0E0,0E0,0E0,0E0,0E0,0E0,0E0,0E0,0E0,0E0,0E0,0E0,0E0,0E0,0E0,0E0],"parents":[2147483647,0,0,1,1,2,2,4,4,5,5,6,6,7,7,8,8,9,9,10,10,11,11,13,13,14,14,15,15,16,16,17,17,18,18,19,19,20,20,21,21,22,22,23,23,25,25,26,26,27,27,28,28,31,31,32,32,35,35,36,36,37,37,39,39,40,40,41,41],"right_children":[2,4,6,-1,8,10,12,14,16,18,20,22,-1,24,26,28,30,32,34,36,38,40,42,44,-1,46,48,50,52,-1,-1,54,56,-1,-1,58,60,62,-1,64,66,68,-1,-1,-1,-1,-1,-1,-1,-1,-1,-1,-1,-1,-1,-1,-1,-1,-1,-1,-1,-1,-1,-1,-1,-1,-1,-1,-1],"split_conditions":[2.087283E3,4.59402E1,4.138613E3,-5.6293827E-2,1.5340032E3,2.4448176E3,5.273136E3,1.118544E2,2.3245933E3,2.1219998E3,3.5993147E3,2.6788938E3,1.2861485E2,8.72198E1,5.313084E2,3.79506E1,1.657842E2,2.4062012E3,3.515424E2,3.775086E3,9.18804E2,6.4396177E3,4.4029355E3,3.79506E1,-4.4027122E1,1.8216288E3,1.041977E3,1.784344E3,3.3150183E3,-2.9567811E0,1.0538271E2,2.2477407E3,2.4288384E3,2.9431238E1,1.291092E2,3.3522078E3,4.136615E3,3.7497856E3,-5.5957306E1,5.432928E3,7.6460474E3,7.6460474E3,6.86288E1,-5.570481E1,-4.5958953E0,-1.5248218E1,3.8466393E1,-3.249174E1,-2.2069708E1,-1.1912848E1,-4.3487344E0,-5.7807014E1,4.6568787E1,1.2651163E1,5.654268E0,-3.4928498E0,-1.2040801E1,1.753489E1,7.535229E1,1.4223618E2,3.0054691E1,4.145718E1,2.4583838E1,4.5862892E1,3.9078037E1,6.2837288E1,5.0570595E1,-3.192545E1,-1.3284709E-1],"split_indices":[0,0,0,0,0,0,1,0,3,3,0,3,0,0,0,1,1,0,1,1,1,0,3,1,0,1,0,0,1,0,0,0,0,0,0,3,1,0,0,0,0,0,0,0,0,0,0,0,0,0,0,0,0,0,0,0,0,0,0,0,0,0,0,0,0,0,0,0,0],"split_type":[0,0,0,0,0,0,0,0,0,0,0,0,0,0,0,0,0,0,0,0,0,0,0,0,0,0,0,0,0,0,0,0,0,0,0,0,0,0,0,0,0,0,0,0,0,0,0,0,0,0,0,0,0,0,0,0,0,0,0,0,0,0,0,0,0,0,0,0,0],"sum_hessian":[8.523E3,5.5E3,3.023E3,1.586E3,3.914E3,2.094E3,9.29E2,2.993E3,9.21E2,4.9E2,1.604E3,9.25E2,4E0,1.09E2,2.884E3,9.15E2,6E0,4.86E2,4E0,1.253E3,3.51E2,9.14E2,1.1E1,5.3E1,5.6E1,9.79E2,1.905E3,8.99E2,1.6E1,1E0,5E0,4.33E2,5.3E1,2E0,2E0,1.24E3,1.3E1,3.48E2,3E0,7.54E2,1.6E2,1E1,1E0,5.2E1,1E0,9.69E2,1E1,1.034E3,8.71E2,4.51E2,4.48E2,1.5E1,1E0,2.16E2,2.17E2,2.8E1,2.5E1,1.237E3,3E0,3E0,1E1,1.08E2,2.4E2,5.41E2,2.13E2,1.05E2,5.5E1,8E0,2E0],"tree_param":{"num_deleted":"0","num_feature":"10","num_nodes":"69","size_leaf_vector":"1"}},{"base_weights":[1.5221444E-1,-2.6597058E2,5.2728E2,-5.3475626E-2,-3.6896936E2,3.556443E2,8.8308795E2,-4.6148044E2,-1.1358528E2,3.1174973E2,5.5166064E2,8.7356885E2,1.2347027E2,-4.714658E2,4.4876434E2,-1.2849567E2,1.6849691E3,3.03319E2,1.2331193E3,5.687486E2,-5.3858913E1,8.8715533E2,-2.3519655E2,-8.451405E2,-4.4641135E2,2.2295715E3,1.26254E2,-1.1555704E2,-8.8401776E2,-2.8828614E0,1.9100045E3,1.7439015E2,3.3704697E2,2.7380464E3,5.7377136E2,7.8806665E2,4.6719498E2,8.3612225E2,1.1209615E3,-4.9989832E2,6.691308E1,-4.9586334E1,-3.6326824E1,-1.277707E1,-2.6834925E1,2.4857574E1,1.2691943E2,6.3985634E1,-2.8028555E0,-1.1318524E1,-1.6628326E0,-5.50973E1,2.8646963E1,2.7499348E1,1.0128616E2,3.219725E1,3.853798E0,1.7334206E1,-4.6414447E0,1.548145E2,4.1582886E1,-3.7603046E1,5.8248302E1,3.3427517E1,5.549668E1,6.8421016E0,2.541178E1,4.194061E1,-5.887956E0,5.9725063E1,4.808722E1,-3.0506536E1,-1.2842001E-1],"categories":[],"categories_nodes":[],"categories_segments":[],"categories_sizes":[],"default_left":[0,0,0,0,0,0,0,0,0,0,0,0,0,0,0,0,0,0,0,0,0,0,0,0,0,0,0,0,0,0,0,0,0,0,0,0,0,0,0,0,0,0,0,0,0,0,0,0,0,0,0,0,0,0,0,0,0,0,0,0,0,0,0,0,0,0,0,0,0,0,0,0,0],"id":2,"left_children":[1,3,5,-1,7,9,11,13,15,17,19,21,-1,23,25,27,29,31,33,35,-1,37,39,41,43,45,47,49,51,-1,53,55,57,59,61,63,65,67,69,71,-1,-1,-1,-1,-1,-1,-1,-1,-1,-1,-1,-1,-1,-1,-1,-1,-1,-1,-1,-1,-1,-1,-1,-1,-1,-1,-1,-1,-1,-1,-1,-1,-1],"loss_changes":[1.1958931E9,1.5456624E8,1.7434432E8,0E0,9.631744E7,1.6442432E7,1.1886016E7,2.742432E7,2.9339942E7,1.1899088E7,1.0410048E7,1.415808E7,0E0,2.73536E7,1.8671356E7,1.0435754E7,3.639498E6,6.755344E6,1.2320776E7,7.404928E6,0E0,9.980416E6,5.66696E6,2.495848E6,4.773645E7,1.413042E6,6.1700985E6,9.668776E6,6.346569E6,0E0,1.44916E5,1.4892422E7,5.17336E6,1.56752E5,9.498201E6,3.451016E6,3.1979E6,2.036032E6,7.3632E5,6.0147325E5,0E0,0E0,0E0,0E0,0E0,0E0,0E0,0E0,0E0,0E0,0E0,0E0,0E0,0E0,0E0,0E0,0E0,0E0,0E0,0E0,0E0,0E0,0E0,0E0,0E0,0E0,0E0,0E0,0E0,0E0,0E0,0E0,0E0],"parents":[2147483647,0,0,1,1,2,2,4,4,5,5,6,6,7,7,8,8,9,9,10,10,11,11,13,13,14,14,15,15,16,16,17,17,18,18,19,19,21,21,22,22,23,23,24,24,25,25,26,26,27,27,28,28,30,30,31,31,32,32,33,33,34,34,35,35,36,36,37,37,38,38,39,39],"right_children":[2,4,6,-1,8,10,12,14,16,18,20,22,-1,24,26,28,30,32,34,36,-1,38,40,42,44,46,48,50,52,-1,54,56,58,60,62,64,66,68,70,72,-1,-1,-1,-1,-1,-1,-1,-1,-1,-1,-1,-1,-1,-1,-1,-1,-1,-1,-1,-1,-1,-1,-1,-1,-1,-1,-1,-1,-1,-1,-1,-1,-1],"split_conditions":[2.203798E3,4.59402E1,4.138613E3,-5.3475626E-2,1.5340032E3,3.5993147E3,5.273136E3,1.9545985E3,2.3245933E3,3.775086E3,9.18804E2,2.6788938E3,1.2347027E2,1.438128E2,3.036048E2,3.79506E1,1.657842E2,2.4448176E3,4.136615E3,3.7497856E3,-5.3858913E1,6.4396177E3,4.4029355E3,9.72068E1,5.313084E2,1.284994E2,5.273136E2,1.784344E3,3.3150183E3,-2.8828614E0,1.93082E2,2.2477407E3,3.5633616E3,2.749754E3,5.494847E3,3.7071743E3,3.78241E3,2.1252336E3,7.6460474E3,7.6460474E3,6.691308E1,-4.9586334E1,-3.6326824E1,-1.277707E1,-2.6834925E1,2.4857574E1,1.2691943E2,6.3985634E1,-2.8028555E0,-1.1318524E1,-1.6628326E0,-5.50973E1,2.8646963E1,2.7499348E1,1.0128616E2,3.219725E1,3.853798E0,1.7334206E1,-4.6414447E0,1.548145E2,4.1582886E1,-3.7603046E1,5.8248302E1,3.3427517E1,5.549668E1,6.8421016E0,2.541178E1,4.194061E1,-5.887956E0,5.9725063E1,4.808722E1,-3.0506536E1,-1.2842001E-1],"split_indices":[0,0,0,0,0,0,1,3,3,1,1,3,0,0,0,1,1,0,1,0,0,0,3,0,0,0,1,0,1,0,1,0,0,0,1,0,0,1,0,0,0,0,0,0,0,0,0,0,0,0,0,0,0,0,0,0,0,0,0,0,0,0,0,0,0,0,0,0,0,0,0,0,0],"split_type":[0,0,0,0,0,0,0,0,0,0,0,0,0,0,0,0,0,0,0,0,0,0,0,0,0,0,0,0,0,0,0,0,0,0,0,0,0,0,0,0,0,0,0,0,0,0,0,0,0,0,0,0,0,0,0,0,0,0,0,0,0,0,0,0,0,0,0,0,0,0,0,0,0],"sum_hessian":[8.523E3,5.664E3,2.859E3,1.586E3,4.078E3,1.93E3,9.29E2,2.993E3,1.085E3,1.579E3,3.51E2,9.25E2,4E0,2.961E3,3.2E1,1.077E3,8E0,1.566E3,1.3E1,3.48E2,3E0,9.14E2,1.1E1,1.84E2,2.777E3,4E0,2.8E1,1.06E3,1.7E1,1E0,7E0,3.26E2,1.24E3,3E0,1E1,1.08E2,2.4E2,7.54E2,1.6E2,1E1,1E0,7.9E1,1.05E2,8.93E2,1.884E3,1E0,3E0,3E0,2.5E1,4.51E2,6.09E2,1.5E1,2E0,1E0,6E0,5.5E1,2.71E2,1.213E3,2.7E1,2E0,1E0,3E0,7E0,8.1E1,2.7E1,2.7E1,2.13E2,7.52E2,2E0,1.05E2,5.5E1,8E0,2E0],"tree_param":{"num_deleted":"0","num_feature":"10","num_nodes":"73","size_leaf_vector":"1"}},{"base_weights":[2.3970166E-1,-2.638073E2,4.805712E2,-5.0804105E-2,-3.7026605E2,3.211148E2,8.3925995E2,-4.383772E2,-1.4868791E2,1.5112259E2,3.729186E2,8.300849E2,1.18531456E2,-4.4793484E2,4.3277936E2,-1.622166E2,1.6428785E3,1.3382071E2,1.8061019E3,3.3013693E2,5.2426886E2,8.429547E2,-2.2041351E2,-8.0334784E2,-4.24105E2,2.1484482E3,1.22050934E2,-1.4841473E2,-8.833613E2,-2.810791E0,9.677151E1,1.6880917E2,-1.4986107E2,2.745526E1,1.2305324E2,3.2020483E2,1.1869663E3,5.406583E2,-5.1839203E1,7.9436383E2,1.0655831E3,-4.7768835E2,6.524025E1,-4.9723717E1,-3.595369E1,-1.213893E1,-2.5493889E1,2.4236134E1,1.2215995E2,6.158617E1,-2.6681087E0,-1.0753846E1,-4.0488296E0,-5.2514618E1,4.4688393E1,1.1675997E1,5.1810455E0,-3.5102696E0,-1.1647195E1,1.5816805E1,7.187655E1,1.3251216E2,2.734798E1,3.7473965E1,2.219845E1,4.148964E1,3.504603E1,5.5486736E1,4.1789818E1,-2.9150686E1,-1.24139406E-1],"categories":[],"categories_nodes":[],"categories_segments":[],"categories_sizes":[],"default_left":[0,0,0,0,0,0,0,0,0,0,0,0,0,0,0,0,0,0,0,0,0,0,0,0,0,0,0,0,0,0,0,0,0,0,0,0,0,0,0,0,0,0,0,0,0,0,0,0,0,0,0,0,0,0,0,0,0,0,0,0,0,0,0,0,0,0,0,0,0,0,0],"id":3,"left_children":[1,3,5,-1,7,9,11,13,15,17,19,21,-1,23,25,27,29,31,33,35,37,39,41,43,45,47,49,51,53,-1,-1,55,57,-1,-1,59,61,63,-1,65,67,69,-1,-1,-1,-1,-1,-1,-1,-1,-1,-1,-1,-1,-1,-1,-1,-1,-1,-1,-1,-1,-1,-1,-1,-1,-1,-1,-1,-1,-1],"loss_changes":[1.0812265E9,1.5389792E8,1.7268883E8,0E0,5.901981E7,1.839272E7,1.1099008E7,2.512256E7,2.2613514E7,1.3817731E7,1.0219312E7,1.2705088E7,0E0,2.4745728E7,1.7330312E7,8.985976E6,3.588314E6,4.85906E6,2.765047E6,1.0291648E7,9.56644E6,9.051712E6,5.3320945E6,2.264688E6,4.308211E7,1.267648E6,5.7106095E6,4.028598E6,5.981905E6,0E0,0E0,1.806581E6,3.41019E5,0E0,0E0,4.909656E6,1.1661524E7,6.713824E6,0E0,1.917856E6,7.0592E5,5.491155E5,0E0,0E0,0E0,0E0,0E0,0E0,0E0,0E0,0E0,0E0,0E0,0E0,0E0,0E0,0E0,0E0,0E0,0E0,0E0,0E0,0E0,0E0,0E0,0E0,0E0,0E0,0E0,0E0,0E0],"parents":[2147483647,0,0,1,1,2,2,4,4,5,5,6,6,7,7,8,8,9,9,10,10,11,11,13,13,14,14,15,15,16,16,17,17,18,18,19,19,20,20,21,21,22,22,23,23,24,24,25,25,26,26,27,27,28,28,31,31,32,32,35,35,36,36,37,37,39,39,40,40,41,41],"right_children":[2,4,6,-1,8,10,12,14,16,18,20,22,-1,24,26,28,30,32,34,36,38,40,42,44,46,48,50,52,54,-1,-1,56,58,-1,-1,60,62,64,-1,66,68,70,-1,-1,-1,-1,-1,-1,-1,-1,-1,-1,-1,-1,-1,-1,-1,-1,-1,-1,-1,-1,-1,-1,-1,-1,-1,-1,-1,-1,-1],"split_conditions":[2.087283E3,4.59402E1,4.138613E3,-5.0804105E-2,1.5340032E3,2.4448176E3,5.273136E3,1.9545985E3,2.3245933E3,2.1219998E3,3.5993147E3,2.6788938E3,1.18531456E2,1.438128E2,3.036048E2,3.79506E1,1.657842E2,2.4062012E3,3.515424E2,3.775086E3,9.18804E2,6.4396177E3,4.4029355E3,8.72198E1,5.313084E2,1.284994E2,5.273136E2,1.784344E3,3.3150183E3,-2.810791E0,9.677151E1,2.2477407E3,2.4288384E3,2.745526E1,1.2305324E2,3.3522078E3,4.136615E3,3.7497856E3,-5.1839203E1,5.432928E3,8.508924E3,7.6460474E3,6.524025E1,-4.9723717E1,-3.595369E1,-1.213893E1,-2.5493889E1,2.4236134E1,1.2215995E2,6.158617E1,-2.6681087E0,-1.0753846E1,-4.0488296E0,-5.2514618E1,4.4688393E1,1.1675997E1,5.1810455E0,-3.5102696E0,-1.1647195E1,1.5816805E1,7.187655E1,1.3251216E2,2.734798E1,3.7473965E1,2.219845E1,4.148964E1,3.504603E1,5.5486736E1,4.1789818E1,-2.9150686E1,-1.24139406E-1],"split_indices":[0,0,0,0,0,0,1,3,3,3,0,3,0,0,0,1,1,0,1,1,1,0,3,0,0,0,1,0,1,0,0,0,0,0,0,3,1,0,0,0,0,0,0,0,0,0,0,0,0,0,0,0,0,0,0,0,0,0,0,0,0,0,0,0,0,0,0,0,0,0,0],"split_type":[0,0,0,0,0,0,0,0,0,0,0,0,0,0,0,0,0,0,0,0,0,0,0,0,0,0,0,0,0,0,0,0,0,0,0,0,0,0,0,0,0,0,0,0,0,0,0,0,0,0,0,0,0,0,0,0,0,0,0,0,0,0,0,0,0,0,0,0,0,0,0],"sum_hessian":[8.523E3,5.5E3,3.023E3,1.586E3,3.914E3,2.094E3,9.29E2,2.993E3,9.21E2,4.9E2,1.604E3,9.25E2,4E0,2.961E3,3.2E1,9.15E2,6E0,4.86E2,4E0,1.253E3,3.51E2,9.14E2,1.1E1,1.84E2,2.777E3,4E0,2.8E1,8.99E2,1.6E1,1E0,5E0,4.33E2,5.3E1,2E0,2E0,1.24E3,1.3E1,3.48E2,3E0,7.54E2,1.6E2,1E1,1E0,5.3E1,1.31E2,8.93E2,1.884E3,1E0,3E0,3E0,2.5E1,4.51E2,4.48E2,1.5E1,1E0,2.16E2,2.17E2,2.8E1,2.5E1,1.237E3,3E0,3E0,1E1,1.08E2,2.4E2,5.41E2,2.13E2,1.31E2,2.9E1,8E0,2E0],"tree_param":{"num_deleted":"0","num_feature":"10","num_nodes":"71","size_leaf_vector":"1"}},{"base_weights":[3.320039E-1,-2.4016624E2,4.7670343E2,-4.826664E-2,-3.331723E2,3.218837E2,7.976499E2,-4.1643094E2,-1.03329254E2,2.8242664E2,4.9807764E2,7.8880707E2,1.137902E2,-4.2557974E2,4.173621E2,-1.169911E2,1.5445371E3,2.745932E2,1.1390366E3,5.137964E2,-4.9895233E1,8.009968E2,-2.0639577E2,-7.6364355E2,-4.029133E2,2.0703052E3,1.17980125E2,-1.0528238E2,-8.006555E2,-2.7405212E0,1.7513068E3,6.005734E2,2.6233826E2,2.5508591E3,5.220979E2,7.123491E2,4.218626E2,7.547469E2,1.0129081E3,-4.5646536E2,6.360924E1,-4.4906662E1,-3.2746887E1,-1.1532663E1,-2.421987E1,2.3630232E1,1.1757896E2,5.9276684E1,-2.5398293E0,-1.021734E1,-1.5852338E0,-5.0052998E1,2.6752659E1,2.6125483E1,9.261025E1,3.1565449E1,-2.7247038E1,-5.705818E0,1.4186339E1,1.4523694E2,3.7230507E1,-3.7218483E1,5.4503468E1,2.9925678E1,5.101418E1,5.441933E0,2.3042387E1,3.2807938E1,3.9371807E1,5.4018806E1,4.335565E1,-2.7855103E1,-1.2000529E-1],"categories":[],"categories_nodes":[],"categories_segments":[],"categories_sizes":[],"default_left":[0,0,0,0,0,0,0,0,0,0,0,0,0,0,0,0,0,0,0,0,0,0,0,0,0,0,0,0,0,0,0,0,0,0,0,0,0,0,0,0,0,0,0,0,0,0,0,0,0,0,0,0,0,0,0,0,0,0,0,0,0,0,0,0,0,0,0,0,0,0,0,0,0],"id":4,"left_children":[1,3,5,-1,7,9,11,13,15,17,19,21,-1,23,25,27,29,31,33,35,-1,37,39,41,43,45,47,49,51,-1,53,55,57,59,61,63,65,67,69,71,-1,-1,-1,-1,-1,-1,-1,-1,-1,-1,-1,-1,-1,-1,-1,-1,-1,-1,-1,-1,-1,-1,-1,-1,-1,-1,-1,-1,-1,-1,-1,-1,-1],"loss_changes":[9.7667923E8,1.2602966E8,1.4185331E8,0E0,7.801443E7,1.328384E7,1.036096E7,2.301648E7,2.4629696E7,1.028932E7,8.79E6,1.1398848E7,0E0,2.238928E7,1.6086169E7,8.544915E6,3.07226E6,6.102408E6,1.0862316E7,6.070032E6,0E0,8.203328E6,5.0176845E6,2.116448E6,3.888157E7,1.135592E6,5.2853885E6,7.727079E6,5.353894E6,0E0,2.4072E4,2.315674E6,1.2206696E7,3.9388E5,8.723906E6,3.210224E6,2.890828E6,1.916512E6,6.46864E5,5.01315E5,0E0,0E0,0E0,0E0,0E0,0E0,0E0,0E0,0E0,0E0,0E0,0E0,0E0,0E0,0E0,0E0,0E0,0E0,0E0,0E0,0E0,0E0,0E0,0E0,0E0,0E0,0E0,0E0,0E0,0E0,0E0,0E0,0E0],"parents":[2147483647,0,0,1,1,2,2,4,4,5,5,6,6,7,7,8,8,9,9,10,10,11,11,13,13,14,14,15,15,16,16,17,17,18,18,19,19,21,21,22,22,23,23,24,24,25,25,26,26,27,27,28,28,30,30,31,31,32,32,33,33,34,34,35,35,36,36,37,37,38,38,39,39],"right_children":[2,4,6,-1,8,10,12,14,16,18,20,22,-1,24,26,28,30,32,34,36,-1,38,40,42,44,46,48,50,52,-1,54,56,58,60,62,64,66,68,70,72,-1,-1,-1,-1,-1,-1,-1,-1,-1,-1,-1,-1,-1,-1,-1,-1,-1,-1,-1,-1,-1,-1,-1,-1,-1,-1,-1,-1,-1,-1,-1,-1,-1],"split_conditions":[2.203798E3,4.59402E1,4.138613E3,-4.826664E-2,1.5340032E3,3.5993147E3,5.273136E3,1.9545985E3,2.3245933E3,3.775086E3,9.18804E2,2.6788938E3,1.137902E2,1.438128E2,3.036048E2,3.79506E1,1.657842E2,2.2477407E3,4.136615E3,3.7497856E3,-4.9895233E1,6.4396177E3,4.4029355E3,9.72068E1,5.313084E2,1.284994E2,5.273136E2,1.784344E3,3.3150183E3,-2.7405212E0,1.93082E2,3.515424E2,2.3116577E3,2.749754E3,5.494847E3,3.7071743E3,3.78241E3,4.504137E3,7.6460474E3,7.6460474E3,6.360924E1,-4.4906662E1,-3.2746887E1,-1.1532663E1,-2.421987E1,2.3630232E1,1.1757896E2,5.9276684E1,-2.5398293E0,-1.021734E1,-1.5852338E0,-5.0052998E1,2.6752659E1,2.6125483E1,9.261025E1,3.1565449E1,-2.7247038E1,-5.705818E0,1.4186339E1,1.4523694E2,3.7230507E1,-3.7218483E1,5.4503468E1,2.9925678E1,5.101418E1,5.441933E0,2.3042387E1,3.2807938E1,3.9371807E1,5.4018806E1,4.335565E1,-2.7855103E1,-1.2000529E-1],"split_indices":[0,0,0,0,0,0,1,3,3,1,1,3,0,0,0,1,1,0,1,0,0,0,3,0,0,0,1,0,1,0,1,1,0,0,1,0,0,0,0,0,0,0,0,0,0,0,0,0,0,0,0,0,0,0,0,0,0,0,0,0,0,0,0,0,0,0,0,0,0,0,0,0,0],"split_type":[0,0,0,0,0,0,0,0,0,0,0,0,0,0,0,0,0,0,0,0,0,0,0,0,0,0,0,0,0,0,0,0,0,0,0,0,0,0,0,0,0,0,0,0,0,0,0,0,0,0,0,0,0,0,0,0,0,0,0,0,0,0,0,0,0,0,0,0,0,0,0,0,0],"sum_hessian":[8.523E3,5.664E3,2.859E3,1.586E3,4.078E3,1.93E3,9.29E2,2.993E3,1.085E3,1.579E3,3.51E2,9.25E2,4E0,2.961E3,3.2E1,1.077E3,8E0,1.566E3,1.3E1,3.48E2,3E0,9.14E2,1.1E1,1.84E2,2.777E3,4E0,2.8E1,1.06E3,1.7E1,1E0,7E0,5.5E1,1.511E3,3E0,1E1,1.08E2,2.4E2,7.54E2,1.6E2,1E1,1E0,7.9E1,1.05E2,8.93E2,1.884E3,1E0,3E0,3E0,2.5E1,4.51E2,6.09E2,1.5E1,2E0,1E0,6E0,5.4E1,1E0,8.1E1,1.43E3,2E0,1E0,3E0,7E0,8.1E1,2.7E1,2.7E1,2.13E2,1.93E2,5.61E2,1.05E2,5.5E1,8E0,2E0],"tree_param":{"num_deleted":"0","num_feature":"10","num_nodes":"73","size_leaf_vector":"1"}},{"base_weights":[4.041741E-1,-2.3821263E2,4.3447516E2,-4.5851186E-2,-3.3434286E2,2.9060153E2,7.5811035E2,-3.9558112E2,-1.35122E2,1.3613551E2,3.3767456E2,7.495883E2,1.0923859E2,-4.0433902E2,4.0249237E2,-1.4559743E2,1.8151927E3,1.1966638E2,1.713001E3,2.9932297E2,4.733428E2,7.611323E2,-1.9310646E2,-7.2588116E2,-3.8278046E2,1.9950319E3,1.1403755E2,-1.3510133E2,-6.35118E2,1.0011135E2,2.6676386E1,1.5376137E2,-1.5657228E2,2.5578566E1,1.17171524E2,2.900903E2,1.0963529E3,4.8842004E2,-4.802416E1,7.1710516E2,9.628675E2,-4.3618527E2,6.2019012E1,-4.5079815E1,-3.242493E1,-3.4743779E0,-2.1227503E1,2.3039478E1,1.13169754E2,1.4678815E1,-4.0323185E1,-9.707606E0,-3.7677555E0,-5.338932E1,4.663717E0,1.0768329E1,4.5866714E0,-4.0256643E0,-1.1769265E1,1.516792E1,1.9554357E-1,1.23446655E2,2.487822E1,3.387371E1,2.004438E1,3.757089E1,3.1342514E1,4.2793465E1,5.2898922E1,-2.66171E1,-1.1600138E-1],"categories":[],"categories_nodes":[],"categories_segments":[],"categories_sizes":[],"default_left":[0,0,0,0,0,0,0,0,0,0,0,0,0,0,0,0,0,0,0,0,0,0,0,0,0,0,0,0,0,0,0,0,0,0,0,0,0,0,0,0,0,0,0,0,0,0,0,0,0,0,0,0,0,0,0,0,0,0,0,0,0,0,0,0,0,0,0,0,0,0,0],"id":5,"left_children":[1,3,5,-1,7,9,11,13,15,17,19,21,-1,23,25,27,29,31,33,35,37,39,41,43,45,47,49,51,53,-1,-1,55,57,-1,-1,59,61,63,-1,65,67,69,-1,-1,-1,-1,-1,-1,-1,-1,-1,-1,-1,-1,-1,-1,-1,-1,-1,-1,-1,-1,-1,-1,-1,-1,-1,-1,-1,-1,-1],"loss_changes":[8.8299066E8,1.2548458E8,1.405849E8,0E0,4.770931E7,1.5187168E7,9.669312E6,2.1089152E7,1.9101114E7,1.2546081E7,8.20928E6,1.0224128E7,0E0,2.0254624E7,1.4931888E7,4.63093E6,1.30335E5,4.610811E6,2.588252E6,8.909776E6,8.078704E6,7.436416E6,4.722439E6,1.930808E6,3.6323776E7,1.015722E6,5.0294615E6,3.160624E6,6.0874915E6,0E0,0E0,1.638665E6,3.0474812E5,0E0,0E0,4.71096E6,1.027794E7,5.503792E6,0E0,1.867136E6,7.32944E5,4.5767475E5,0E0,0E0,0E0,0E0,0E0,0E0,0E0,0E0,0E0,0E0,0E0,0E0,0E0,0E0,0E0,0E0,0E0,0E0,0E0,0E0,0E0,0E0,0E0,0E0,0E0,0E0,0E0,0E0,0E0],"parents":[2147483647,0,0,1,1,2,2,4,4,5,5,6,6,7,7,8,8,9,9,10,10,11,11,13,13,14,14,15,15,16,16,17,17,18,18,19,19,20,20,21,21,22,22,23,23,24,24,25,25,26,26,27,27,28,28,31,31,32,32,35,35,36,36,37,37,39,39,40,40,41,41],"right_children":[2,4,6,-1,8,10,12,14,16,18,20,22,-1,24,26,28,30,32,34,36,38,40,42,44,46,48,50,52,54,-1,-1,56,58,-1,-1,60,62,64,-1,66,68,70,-1,-1,-1,-1,-1,-1,-1,-1,-1,-1,-1,-1,-1,-1,-1,-1,-1,-1,-1,-1,-1,-1,-1,-1,-1,-1,-1,-1,-1],"split_conditions":[2.087283E3,4.59402E1,4.138613E3,-4.5851186E-2,1.5340032E3,2.4448176E3,5.273136E3,1.9545985E3,2.6472207E3,2.1219998E3,3.5993147E3,2.6788938E3,1.0923859E2,1.438128E2,3.036048E2,3.79506E1,2.0553247E3,2.4062012E3,3.515424E2,3.775086E3,9.18804E2,6.4396177E3,4.4029355E3,8.72198E1,2.59662E2,1.284994E2,3.3999553E3,1.784344E3,1.6571761E3,1.0011135E2,2.6676386E1,2.2477407E3,2.4288384E3,2.5578566E1,1.17171524E2,3.52874E3,4.136615E3,3.7497856E3,-4.802416E1,5.432928E3,7.201293E3,7.6460474E3,6.2019012E1,-4.5079815E1,-3.242493E1,-3.4743779E0,-2.1227503E1,2.3039478E1,1.13169754E2,1.4678815E1,-4.0323185E1,-9.707606E0,-3.7677555E0,-5.338932E1,4.663717E0,1.0768329E1,4.5866714E0,-4.0256643E0,-1.1769265E1,1.516792E1,1.9554357E-1,1.23446655E2,2.487822E1,3.387371E1,2.004438E1,3.757089E1,3.1342514E1,4.2793465E1,5.2898922E1,-2.66171E1,-1.1600138E-1],"split_indices":[0,0,0,0,0,0,1,3,3,3,0,3,0,0,0,1,0,0,1,1,1,0,3,0,0,0,3,0,3,0,0,0,0,0,0,0,1,0,0,0,0,0,0,0,0,0,0,0,0,0,0,0,0,0,0,0,0,0,0,0,0,0,0,0,0,0,0,0,0,0,0],"split_type":[0,0,0,0,0,0,0,0,0,0,0,0,0,0,0,0,0,0,0,0,0,0,0,0,0,0,0,0,0,0,0,0,0,0,0,0,0,0,0,0,0,0,0,0,0,0,0,0,0,0,0,0,0,0,0,0,0,0,0,0,0,0,0,0,0,0,0,0,0,0,0],"sum_hessian":[8.523E3,5.5E3,3.023E3,1.586E3,3.914E3,2.094E3,9.29E2,2.993E3,9.21E2,4.9E2,1.604E3,9.25E2,4E0,2.961E3,3.2E1,9.17E2,4E0,4.86E2,4E0,1.253E3,3.51E2,9.14E2,1.1E1,1.84E2,2.777E3,4E0,2.8E1,8.99E2,1.8E1,3E0,1E0,4.33E2,5.3E1,2E0,2E0,1.24E3,1.3E1,3.48E2,3E0,7.54E2,1.6E2,1E1,1E0,5.3E1,1.31E2,3.27E2,2.45E3,1E0,3E0,2.4E1,4E0,4.51E2,4.48E2,1.1E1,7E0,2.16E2,2.17E2,2.8E1,2.5E1,1.185E3,5.5E1,3E0,1E1,1.08E2,2.4E2,5.41E2,2.13E2,8E1,8E1,8E0,2E0],"tree_param":{"num_deleted":"0","num_feature":"10","num_nodes":"71","size_leaf_vector":"1"}},{"base_weights":[4.6538734E-1,-2.1688313E2,4.3098248E2,-4.355771E-2,-3.0087286E2,2.913051E2,7.205373E2,-3.7579926E2,-9.403081E1,2.5583449E2,4.4969235E2,7.123248E2,1.0486904E2,-3.8415652E2,3.857183E2,-1.06642075E2,1.4269664E3,2.4855692E2,1.0521299E3,4.6415347E2,-4.6223255E1,7.232556E2,-1.8051067E2,-6.9000604E2,-3.636503E2,1.9225221E3,1.07451485E2,-9.594613E1,-7.3118414E2,-2.7886047E0,8.096401E1,5.597814E2,2.3686569E2,2.3763481E3,4.7494788E2,6.4391113E2,3.8092636E2,6.8134125E2,9.153185E2,-4.168063E2,6.0468536E1,-3.8938244E1,-2.762302E1,-1.0221164E1,-2.1948706E1,2.246349E1,1.0892588E2,5.7190887E1,-2.8061118E0,-6.4180627E0,4.2365074E0,-4.5929806E1,2.5603699E1,3.0346195E1,-1.024012E1,-5.650543E0,1.283745E1,1.3628082E2,3.3213573E1,-3.675572E1,5.1030525E1,2.6774603E1,4.6921368E1,4.213128E0,2.0898108E1,2.9307142E1,3.5649548E1,4.9104694E1,3.862886E1,-1.4043761E1,-4.4402935E1],"categories":[],"categories_nodes":[],"categories_segments":[],"categories_sizes":[],"default_left":[0,0,0,0,0,0,0,0,0,0,0,0,0,0,0,0,0,0,0,0,0,0,0,0,0,0,0,0,0,0,0,0,0,0,0,0,0,0,0,0,0,0,0,0,0,0,0,0,0,0,0,0,0,0,0,0,0,0,0,0,0,0,0,0,0,0,0,0,0,0,0],"id":6,"left_children":[1,3,5,-1,7,9,11,13,15,17,19,21,-1,23,25,27,29,31,33,35,-1,37,39,41,43,45,47,49,51,-1,-1,53,55,57,59,61,63,65,67,69,-1,-1,-1,-1,-1,-1,-1,-1,-1,-1,-1,-1,-1,-1,-1,-1,-1,-1,-1,-1,-1,-1,-1,-1,-1,-1,-1,-1,-1,-1,-1],"loss_changes":[7.977033E8,1.0277867E8,1.154607E8,0E0,6.318064E7,1.0733488E7,9.02176E6,1.9202688E7,2.0983502E7,8.894752E6,7.423992E6,9.167776E6,0E0,1.8326208E7,1.390559E7,7.13096E6,2.656672E6,5.56908E6,9.571768E6,4.976016E6,0E0,6.742272E6,4.4451485E6,1.828312E6,3.3228448E7,9.06988E5,4.98034E6,6.224775E6,4.664413E6,0E0,0E0,2.142786E6,1.0547544E7,5.81348E5,8.013409E6,2.977976E6,2.612692E6,1.856928E6,7.7584E5,4.5520275E5,0E0,0E0,0E0,0E0,0E0,0E0,0E0,0E0,0E0,0E0,0E0,0E0,0E0,0E0,0E0,0E0,0E0,0E0,0E0,0E0,0E0,0E0,0E0,0E0,0E0,0E0,0E0,0E0,0E0,0E0,0E0],"parents":[2147483647,0,0,1,1,2,2,4,4,5,5,6,6,7,7,8,8,9,9,10,10,11,11,13,13,14,14,15,15,16,16,17,17,18,18,19,19,21,21,22,22,23,23,24,24,25,25,26,26,27,27,28,28,31,31,32,32,33,33,34,34,35,35,36,36,37,37,38,38,39,39],"right_children":[2,4,6,-1,8,10,12,14,16,18,20,22,-1,24,26,28,30,32,34,36,-1,38,40,42,44,46,48,50,52,-1,-1,54,56,58,60,62,64,66,68,70,-1,-1,-1,-1,-1,-1,-1,-1,-1,-1,-1,-1,-1,-1,-1,-1,-1,-1,-1,-1,-1,-1,-1,-1,-1,-1,-1,-1,-1,-1,-1],"split_conditions":[2.203798E3,4.59402E1,4.138613E3,-4.355771E-2,1.5340032E3,3.5993147E3,5.273136E3,1.9545985E3,2.3245933E3,3.775086E3,9.18804E2,2.6788938E3,1.0486904E2,1.438128E2,3.036048E2,3.79506E1,1.657842E2,2.2477407E3,4.136615E3,3.7497856E3,-4.6223255E1,6.4396177E3,4.4029355E3,1.118544E2,5.313084E2,1.284994E2,5.273136E2,2.087283E3,3.3150183E3,-2.7886047E0,8.096401E1,3.79506E1,2.3116577E3,2.749754E3,5.494847E3,3.7071743E3,3.78241E3,4.504137E3,7.6460474E3,4.923591E3,6.0468536E1,-3.8938244E1,-2.762302E1,-1.0221164E1,-2.1948706E1,2.246349E1,1.0892588E2,5.7190887E1,-2.8061118E0,-6.4180627E0,4.2365074E0,-4.5929806E1,2.5603699E1,3.0346195E1,-1.024012E1,-5.650543E0,1.283745E1,1.3628082E2,3.3213573E1,-3.675572E1,5.1030525E1,2.6774603E1,4.6921368E1,4.213128E0,2.0898108E1,2.9307142E1,3.5649548E1,4.9104694E1,3.862886E1,-1.4043761E1,-4.4402935E1],"split_indices":[0,0,0,0,0,0,1,3,3,1,1,3,0,0,0,1,1,0,1,0,0,0,3,0,0,0,1,0,1,0,0,1,0,0,1,0,0,0,0,1,0,0,0,0,0,0,0,0,0,0,0,0,0,0,0,0,0,0,0,0,0,0,0,0,0,0,0,0,0,0,0],"split_type":[0,0,0,0,0,0,0,0,0,0,0,0,0,0,0,0,0,0,0,0,0,0,0,0,0,0,0,0,0,0,0,0,0,0,0,0,0,0,0,0,0,0,0,0,0,0,0,0,0,0,0,0,0,0,0,0,0,0,0,0,0,0,0,0,0,0,0,0,0,0,0],"sum_hessian":[8.523E3,5.664E3,2.859E3,1.586E3,4.078E3,1.93E3,9.29E2,2.993E3,1.085E3,1.579E3,3.51E2,9.25E2,4E0,2.961E3,3.2E1,1.077E3,8E0,1.566E3,1.3E1,3.48E2,3E0,9.14E2,1.1E1,1.84E2,2.777E3,4E0,2.8E1,1.06E3,1.7E1,1E0,7E0,5.5E1,1.511E3,3E0,1E1,1.08E2,2.4E2,7.54E2,1.6E2,1E1,1E0,1.09E2,7.5E1,8.93E2,1.884E3,1E0,3E0,3E0,2.5E1,8.99E2,1.61E2,1.5E1,2E0,5.2E1,3E0,8.1E1,1.43E3,2E0,1E0,3E0,7E0,8.1E1,2.7E1,2.7E1,2.13E2,1.93E2,5.61E2,1.05E2,5.5E1,9E0,1E0],"tree_param":{"num_deleted":"0","num_feature":"10","num_nodes":"71","size_leaf_vector":"1"}},{"base_weights":[5.2021587E-1,-2.0601382E2,4.096163E2,-4.1386243E-2,-2.8579425E2,2.7687643E2,6.847895E2,-3.569802E2,-8.92781E1,2.4317639E2,4.2735706E2,6.768756E2,1.0067428E2,-3.6498203E2,3.7206192E2,-1.0133094E2,1.3643042E3,2.3614653E2,1.0126498E3,4.4122885E2,-4.448988E1,6.8725964E2,-1.7131668E2,-6.5586554E2,-3.4547934E2,1.852674E3,1.0395428E2,-9.115097E1,-6.9575415E2,-2.7188904E0,1.5484368E3,5.3215137E2,2.250272E2,2.2999043E3,4.5249817E2,5.657985E2,3.302872E2,6.5955743E2,9.643473E2,-4.012794E2,5.8956825E1,-4.0956707E1,-2.920526E1,-2.791688E0,-1.920498E1,2.1901905E1,1.0484116E2,1.3868944E1,-3.919798E1,-8.903115E0,-1.3300833E0,-4.3776844E1,2.475024E1,2.2808777E1,8.196531E1,2.8057852E1,-2.6579062E1,2.5996764E0,1.3138553E1,1.3173813E2,3.2383236E1,-3.537738E1,4.879794E1,2.5366283E1,4.1480133E1,5.8313975E0,2.0586084E1,2.944427E1,3.5183197E1,7.110076E1,3.6731907E1,-1.3411794E1,-4.329286E1],"categories":[],"categories_nodes":[],"categories_segments":[],"categories_sizes":[],"default_left":[0,0,0,0,0,0,0,0,0,0,0,0,0,0,0,0,0,0,0,0,0,0,0,0,0,0,0,0,0,0,0,0,0,0,0,0,0,0,0,0,0,0,0,0,0,0,0,0,0,0,0,0,0,0,0,0,0,0,0,0,0,0,0,0,0,0,0,0,0,0,0,0,0],"id":7,"left_children":[1,3,5,-1,7,9,11,13,15,17,19,21,-1,23,25,27,29,31,33,35,-1,37,39,41,43,45,47,49,51,-1,53,55,57,59,61,63,65,67,69,71,-1,-1,-1,-1,-1,-1,-1,-1,-1,-1,-1,-1,-1,-1,-1,-1,-1,-1,-1,-1,-1,-1,-1,-1,-1,-1,-1,-1,-1,-1,-1,-1,-1],"loss_changes":[7.2029645E8,9.273486E7,1.0427603E8,0E0,5.703005E7,9.68856E6,8.416224E6,1.760176E7,1.9164748E7,8.307552E6,6.824112E6,8.273664E6,0E0,1.6576896E7,1.29072E7,6.459787E6,2.43523E6,5.037832E6,9.054104E6,4.636288E6,0E0,6.387456E6,4.199809E6,1.689048E6,3.105376E7,8.08422E5,4.6830505E6,5.947544E6,4.286795E6,0E0,4.6214E4,2.026143E6,9.861152E6,5.06624E5,7.3701585E6,2.09346E6,3.205636E6,2.188384E6,7.470904E6,4.476455E5,0E0,0E0,0E0,0E0,0E0,0E0,0E0,0E0,0E0,0E0,0E0,0E0,0E0,0E0,0E0,0E0,0E0,0E0,0E0,0E0,0E0,0E0,0E0,0E0,0E0,0E0,0E0,0E0,0E0,0E0,0E0,0E0,0E0],"parents":[2147483647,0,0,1,1,2,2,4,4,5,5,6,6,7,7,8,8,9,9,10,10,11,11,13,13,14,14,15,15,16,16,17,17,18,18,19,19,21,21,22,22,23,23,24,24,25,25,26,26,27,27,28,28,30,30,31,31,32,32,33,33,34,34,35,35,36,36,37,37,38,38,39,39],"right_children":[2,4,6,-1,8,10,12,14,16,18,20,22,-1,24,26,28,30,32,34,36,-1,38,40,42,44,46,48,50,52,-1,54,56,58,60,62,64,66,68,70,72,-1,-1,-1,-1,-1,-1,-1,-1,-1,-1,-1,-1,-1,-1,-1,-1,-1,-1,-1,-1,-1,-1,-1,-1,-1,-1,-1,-1,-1,-1,-1,-1,-1],"split_conditions":[2.203798E3,4.59402E1,4.138613E3,-4.1386243E-2,1.5340032E3,3.5993147E3,5.273136E3,1.9545985E3,2.3245933E3,3.775086E3,9.18804E2,2.6788938E3,1.0067428E2,1.438128E2,3.036048E2,3.79506E1,1.657842E2,2.2477407E3,4.136615E3,3.82835E3,-4.448988E1,7.201293E3,4.4029355E3,8.72198E1,2.59662E2,1.284994E2,3.3999553E3,1.784344E3,3.3150183E3,-2.7188904E0,1.93082E2,3.515424E2,2.4448176E3,2.749754E3,5.494847E3,3.78241E3,3.901588E3,4.8044126E3,7.6460474E3,4.923591E3,5.8956825E1,-4.0956707E1,-2.920526E1,-2.791688E0,-1.920498E1,2.1901905E1,1.0484116E2,1.3868944E1,-3.919798E1,-8.903115E0,-1.3300833E0,-4.3776844E1,2.475024E1,2.2808777E1,8.196531E1,2.8057852E1,-2.6579062E1,2.5996764E0,1.3138553E1,1.3173813E2,3.2383236E1,-3.537738E1,4.879794E1,2.5366283E1,4.1480133E1,5.8313975E0,2.0586084E1,2.944427E1,3.5183197E1,7.110076E1,3.6731907E1,-1.3411794E1,-4.329286E1],"split_indices":[0,0,0,0,0,0,1,3,3,1,1,3,0,0,0,1,1,0,1,0,0,0,3,0,0,0,3,0,1,0,1,1,0,0,1,0,0,0,0,1,0,0,0,0,0,0,0,0,0,0,0,0,0,0,0,0,0,0,0,0,0,0,0,0,0,0,0,0,0,0,0,0,0],"split_type":[0,0,0,0,0,0,0,0,0,0,0,0,0,0,0,0,0,0,0,0,0,0,0,0,0,0,0,0,0,0,0,0,0,0,0,0,0,0,0,0,0,0,0,0,0,0,0,0,0,0,0,0,0,0,0,0,0,0,0,0,0,0,0,0,0,0,0,0,0,0,0,0,0],"sum_hessian":[8.523E3,5.664E3,2.859E3,1.586E3,4.078E3,1.93E3,9.29E2,2.993E3,1.085E3,1.579E3,3.51E2,9.25E2,4E0,2.961E3,3.2E1,1.077E3,8E0,1.566E3,1.3E1,3.48E2,3E0,9.14E2,1.1E1,1.84E2,2.777E3,4E0,2.8E1,1.06E3,1.7E1,1E0,7E0,5.5E1,1.511E3,3E0,1E1,1.62E2,1.86E2,8.34E2,8E1,1E1,1E0,5.3E1,1.31E2,3.27E2,2.45E3,1E0,3E0,2.4E1,4E0,4.51E2,6.09E2,1.5E1,2E0,1E0,6E0,5.4E1,1E0,2.71E2,1.24E3,2E0,1E0,3E0,7E0,1.35E2,2.7E1,5.2E1,1.34E2,3.26E2,5.08E2,2.5E1,5.5E1,9E0,1E0],"tree_param":{"num_deleted":"0","num_feature":"10","num_nodes":"73","size_leaf_vector":"1"}},{"base_weights":[5.6471246E-1,-2.0432994E2,3.732912E2,-3.931234E-2,-2.8678702E2,2.4990248E2,6.508461E2,-3.5662848E2,-1.4731204E2,1.16366585E2,2.9059793E2,6.432205E2,9.664731E1,-2.5288509E2,-4.4073074E2,-1.5820285E2,1.2821355E3,1.0093726E2,1.5959094E3,2.874899E2,9.272353E1,6.530852E2,-1.6256319E2,-5.996619E2,-1.8672641E2,-4.954803E2,-3.3235254E2,-1.4914265E2,-6.773271E2,-2.192699E2,1.6848956E3,1.3369254E2,-1.641873E2,3.5324574E1,1.2883954E2,2.5390521E2,4.0612775E2,6.26657E2,9.174612E2,-3.863704E2,5.7482906E1,-3.117258E1,5.336278E1,-2.0031533E0,-1.299985E1,-2.0096529E1,-2.9649702E1,-1.7119526E1,1.1340154E2,-1.1940264E1,-5.1936345E0,-4.1538387E1,2.8569311E1,-1.3794327E1,-2.6509156E0,9.001226E1,2.1936243E1,6.9760447E0,-1.9714235E1,-4.576558E0,-1.1945598E1,1.332692E1,-7.8123075E-1,2.0971731E1,-4.282151E1,2.638471E1,3.2779278E1,6.768246E1,3.492811E1,-1.2808265E1,-4.2210537E1],"categories":[],"categories_nodes":[],"categories_segments":[],"categories_sizes":[],"default_left":[0,0,0,0,0,0,0,0,0,0,0,0,0,0,0,0,0,0,0,0,0,0,0,0,0,0,0,0,0,0,0,0,0,0,0,0,0,0,0,0,0,0,0,0,0,0,0,0,0,0,0,0,0,0,0,0,0,0,0,0,0,0,0,0,0,0,0,0,0,0,0],"id":8,"left_children":[1,3,5,-1,7,9,11,13,15,17,19,21,-1,23,25,27,29,31,33,35,-1,37,39,41,43,45,47,49,51,53,55,57,59,-1,-1,61,63,65,67,69,-1,-1,-1,-1,-1,-1,-1,-1,-1,-1,-1,-1,-1,-1,-1,-1,-1,-1,-1,-1,-1,-1,-1,-1,-1,-1,-1,-1,-1,-1,-1],"loss_changes":[6.510513E8,9.232648E7,1.0340074E8,0E0,3.808403E7,1.1351048E7,7.849152E6,2.2643456E7,2.0565578E7,1.1047632E7,7.268128E6,7.46672E6,0E0,2.673052E7,8.373856E6,6.00866E6,6.416511E6,4.25117E6,2.541587E6,6.283896E6,0E0,5.818144E6,3.968409E6,8.080952E6,1.0563756E7,8.464416E6,1.3462396E7,5.162626E6,4.689965E6,1.3610781E4,3.60148E5,1.3905325E6,2.7130912E5,0E0,0E0,4.267248E6,6.273072E6,2.044544E6,6.788368E6,4.3948738E5,0E0,0E0,0E0,0E0,0E0,0E0,0E0,0E0,0E0,0E0,0E0,0E0,0E0,0E0,0E0,0E0,0E0,0E0,0E0,0E0,0E0,0E0,0E0,0E0,0E0,0E0,0E0,0E0,0E0,0E0,0E0],"parents":[2147483647,0,0,1,1,2,2,4,4,5,5,6,6,7,7,8,8,9,9,10,10,11,11,13,13,14,14,15,15,16,16,17,17,18,18,19,19,21,21,22,22,23,23,24,24,25,25,26,26,27,27,28,28,29,29,30,30,31,31,32,32,35,35,36,36,37,37,38,38,39,39],"right_children":[2,4,6,-1,8,10,12,14,16,18,20,22,-1,24,26,28,30,32,34,36,-1,38,40,42,44,46,48,50,52,54,56,58,60,-1,-1,62,64,66,68,70,-1,-1,-1,-1,-1,-1,-1,-1,-1,-1,-1,-1,-1,-1,-1,-1,-1,-1,-1,-1,-1,-1,-1,-1,-1,-1,-1,-1,-1,-1,-1],"split_conditions":[2.087283E3,4.59402E1,4.138613E3,-3.931234E-2,1.3102944E3,2.4448176E3,5.273136E3,5.712564E2,2.3854663E3,2.1219998E3,4.256174E3,2.6788938E3,9.664731E1,1.438128E2,1.041977E3,3.79506E1,4.447544E2,2.4062012E3,2.237088E3,3.5993147E3,9.272353E1,7.201293E3,4.4029355E3,1.8792681E3,2.59662E2,7.969626E2,2.6275322E3,1.5566404E3,3.3842615E3,1.5340032E3,2.0553247E3,3.79506E1,2.4288384E3,3.5324574E1,1.2883954E2,3.52874E3,9.18804E2,4.504137E3,7.6460474E3,4.923591E3,5.7482906E1,-3.117258E1,5.336278E1,-2.0031533E0,-1.299985E1,-2.0096529E1,-2.9649702E1,-1.7119526E1,1.1340154E2,-1.1940264E1,-5.1936345E0,-4.1538387E1,2.8569311E1,-1.3794327E1,-2.6509156E0,9.001226E1,2.1936243E1,6.9760447E0,-1.9714235E1,-4.576558E0,-1.1945598E1,1.332692E1,-7.8123075E-1,2.0971731E1,-4.282151E1,2.638471E1,3.2779278E1,6.768246E1,3.492811E1,-1.2808265E1,-4.2210537E1],"split_indices":[0,0,0,0,0,0,1,0,3,3,3,3,0,0,0,1,1,0,0,0,0,0,3,3,0,0,3,0,1,0,0,1,0,0,0,0,1,0,0,1,0,0,0,0,0,0,0,0,0,0,0,0,0,0,0,0,0,0,0,0,0,0,0,0,0,0,0,0,0,0,0],"split_type":[0,0,0,0,0,0,0,0,0,0,0,0,0,0,0,0,0,0,0,0,0,0,0,0,0,0,0,0,0,0,0,0,0,0,0,0,0,0,0,0,0,0,0,0,0,0,0,0,0,0,0,0,0,0,0,0,0,0,0,0,0,0,0,0,0,0,0,0,0,0,0],"sum_hessian":[8.523E3,5.5E3,3.023E3,1.586E3,3.914E3,2.094E3,9.29E2,2.607E3,1.307E3,4.9E2,1.604E3,9.25E2,4E0,1.169E3,1.438E3,1.298E3,9E0,4.86E2,4E0,1.602E3,2E0,9.14E2,1.1E1,1.86E2,9.83E2,9.53E2,4.85E2,1.277E3,2.1E1,2E0,7E0,4.33E2,5.3E1,3E0,1E0,1.251E3,3.51E2,8.34E2,8E1,1E1,1E0,1.84E2,2E0,3.28E2,6.55E2,4.89E2,4.64E2,4.84E2,1E0,4.27E2,8.5E2,1.9E1,2E0,1E0,1E0,6E0,1E0,4.29E2,4E0,2.8E1,2.5E1,1.195E3,5.6E1,3.48E2,3E0,1.93E2,6.41E2,2.5E1,5.5E1,9E0,1E0],"tree_param":{"num_deleted":"0","num_feature":"10","num_nodes":"71","size_leaf_vector":"1"}},{"base_weights":[6.066578E-1,-1.9409181E2,3.5478513E2,-3.73484E-2,-2.7241727E2,2.3751158E2,6.1858435E2,-3.387765E2,-1.3989644E2,1.1082299E2,2.7612006E2,6.112368E2,9.2781425E1,-2.4023473E2,-4.1866187E2,-1.5031589E2,1.2275792E3,9.583029E1,1.5489469E3,2.7310962E2,8.9632744E1,6.206077E2,-1.5422969E2,-5.695601E2,-1.7740538E2,-4.7075842E2,-3.155368E2,-1.4248965E2,-6.993674E2,-2.1378813E2,1.6146445E3,1.2697853E2,-1.5628387E2,3.3999905E1,1.2561855E2,2.4121999E2,3.8575934E2,5.9539496E2,8.7285486E2,-3.720536E2,5.6045834E1,-2.9622374E1,5.1584023E1,-1.9032992E0,-1.2350852E1,-1.909375E1,-2.8170404E1,-1.6265316E1,1.1056649E2,-9.331947E0,-3.0363777E0,-4.4517605E1,2.7617002E1,-1.3449466E1,-2.5846436E0,8.6154594E1,2.1387836E1,9.08883E0,3.592468E0,-4.355616E0,-1.1371292E1,1.1756875E1,4.0141968E1,1.9926153E1,-4.1215706E1,2.653131E1,3.1791754E1,6.442849E1,3.3212883E1,-3.614561E1,-1.0688071E1],"categories":[],"categories_nodes":[],"categories_segments":[],"categories_sizes":[],"default_left":[0,0,0,0,0,0,0,0,0,0,0,0,0,0,0,0,0,0,0,0,0,0,0,0,0,0,0,0,0,0,0,0,0,0,0,0,0,0,0,0,0,0,0,0,0,0,0,0,0,0,0,0,0,0,0,0,0,0,0,0,0,0,0,0,0,0,0,0,0,0,0],"id":9,"left_children":[1,3,5,-1,7,9,11,13,15,17,19,21,-1,23,25,27,29,31,33,35,-1,37,39,41,43,45,47,49,51,53,55,57,59,-1,-1,61,63,65,67,69,-1,-1,-1,-1,-1,-1,-1,-1,-1,-1,-1,-1,-1,-1,-1,-1,-1,-1,-1,-1,-1,-1,-1,-1,-1,-1,-1,-1,-1,-1,-1],"loss_changes":[5.878669E8,8.330595E7,9.340557E7,0E0,3.4381024E7,1.0216584E7,7.31872E6,2.0429696E7,1.8821352E7,1.0438189E7,6.837912E6,6.738016E6,0E0,2.4107776E7,7.582448E6,5.482164E6,5.924225E6,3.8442125E6,2.477424E6,5.665496E6,0E0,5.299552E6,3.7501295E6,7.464424E6,9.535052E6,7.641056E6,1.2716836E7,4.616354E6,4.794801E6,1.2938719E4,2.92654E5,1.298041E6,2.4592238E5,0E0,0E0,4.088096E6,5.765156E6,1.849728E6,6.168132E6,4.5638912E5,0E0,0E0,0E0,0E0,0E0,0E0,0E0,0E0,0E0,0E0,0E0,0E0,0E0,0E0,0E0,0E0,0E0,0E0,0E0,0E0,0E0,0E0,0E0,0E0,0E0,0E0,0E0,0E0,0E0,0E0,0E0],"parents":[2147483647,0,0,1,1,2,2,4,4,5,5,6,6,7,7,8,8,9,9,10,10,11,11,13,13,14,14,15,15,16,16,17,17,18,18,19,19,21,21,22,22,23,23,24,24,25,25,26,26,27,27,28,28,29,29,30,30,31,31,32,32,35,35,36,36,37,37,38,38,39,39],"right_children":[2,4,6,-1,8,10,12,14,16,18,20,22,-1,24,26,28,30,32,34,36,-1,38,40,42,44,46,48,50,52,54,56,58,60,-1,-1,62,64,66,68,70,-1,-1,-1,-1,-1,-1,-1,-1,-1,-1,-1,-1,-1,-1,-1,-1,-1,-1,-1,-1,-1,-1,-1,-1,-1,-1,-1,-1,-1,-1,-1],"split_conditions":[2.087283E3,4.59402E1,4.138613E3,-3.73484E-2,1.3102944E3,2.4448176E3,5.273136E3,5.712564E2,2.3854663E3,2.1219998E3,4.256174E3,2.6788938E3,9.2781425E1,1.438128E2,1.041977E3,3.92822E2,4.447544E2,2.4062012E3,2.237088E3,3.5993147E3,8.9632744E1,7.201293E3,4.4029355E3,1.8792681E3,2.59662E2,7.969626E2,2.6275322E3,1.784344E3,3.3842615E3,1.5340032E3,2.0553247E3,2.2477407E3,2.4288384E3,3.3999905E1,1.2561855E2,3.775086E3,9.18804E2,4.8044126E3,7.6460474E3,2.8408735E3,5.6045834E1,-2.9622374E1,5.1584023E1,-1.9032992E0,-1.2350852E1,-1.909375E1,-2.8170404E1,-1.6265316E1,1.1056649E2,-9.331947E0,-3.0363777E0,-4.4517605E1,2.7617002E1,-1.3449466E1,-2.5846436E0,8.6154594E1,2.1387836E1,9.08883E0,3.592468E0,-4.355616E0,-1.1371292E1,1.1756875E1,4.0141968E1,1.9926153E1,-4.1215706E1,2.653131E1,3.1791754E1,6.442849E1,3.3212883E1,-3.614561E1,-1.0688071E1],"split_indices":[0,0,0,0,0,0,1,0,3,3,3,3,0,0,0,1,1,0,0,0,0,0,3,3,0,0,3,0,1,0,0,0,0,0,0,1,1,0,0,3,0,0,0,0,0,0,0,0,0,0,0,0,0,0,0,0,0,0,0,0,0,0,0,0,0,0,0,0,0,0,0],"split_type":[0,0,0,0,0,0,0,0,0,0,0,0,0,0,0,0,0,0,0,0,0,0,0,0,0,0,0,0,0,0,0,0,0,0,0,0,0,0,0,0,0,0,0,0,0,0,0,0,0,0,0,0,0,0,0,0,0,0,0,0,0,0,0,0,0,0,0,0,0,0,0],"sum_hessian":[8.523E3,5.5E3,3.023E3,1.586E3,3.914E3,2.094E3,9.29E2,2.607E3,1.307E3,4.9E2,1.604E3,9.25E2,4E0,1.169E3,1.438E3,1.298E3,9E0,4.86E2,4E0,1.602E3,2E0,9.14E2,1.1E1,1.86E2,9.83E2,9.53E2,4.85E2,1.281E3,1.7E1,2E0,7E0,4.33E2,5.3E1,3E0,1E0,1.251E3,3.51E2,8.34E2,8E1,1E1,1E0,1.84E2,2E0,3.28E2,6.55E2,4.89E2,4.64E2,4.84E2,1E0,8.31E2,4.5E2,1.5E1,2E0,1E0,1E0,6E0,1E0,2.16E2,2.17E2,2.8E1,2.5E1,1.239E3,1.2E1,3.48E2,3E0,3.26E2,5.08E2,2.5E1,5.5E1,2E0,8E0],"tree_param":{"num_deleted":"0","num_feature":"10","num_nodes":"71","size_leaf_vector":"1"}},{"base_weights":[6.527822E-1,-1.7679176E2,3.5212924E2,-3.5481732E-2,-2.4525597E2,2.4082784E2,5.9385913E2,-3.2181668E2,-1.0944376E2,2.0970619E2,3.6925662E2,5.865775E2,8.907016E1,-2.2821642E2,-3.976961E2,-1.1982863E2,1.1640337E3,2.0325455E2,9.1685077E2,3.8058304E2,-3.9670113E1,5.981303E2,-1.8479863E2,-6.032878E2,-1.7830057E2,-4.4727002E2,-2.99566E2,-1.8451605E2,-3.153891E1,4.8721893E1,7.651953E1,4.8979428E2,1.9250754E2,2.1536157E3,3.8376797E2,5.467354E2,3.1209714E2,5.739843E2,8.3041754E2,-3.671514E2,5.4644684E1,-3.5963345E1,-2.607739E1,-9.434615E0,3.261818E1,-1.8141012E1,-2.6764914E1,-1.545373E1,1.0780233E2,-8.196828E0,-1.8187866E1,1.3456644E1,-4.638984E0,-1.0422171E1,2.0505445E1,1.4923038E1,3.421233E1,-6.0218387E0,1.0515277E1,1.23416435E2,3.0236927E1,-3.6055805E1,4.4411953E1,2.2179394E1,4.146421E1,8.151156E-1,1.7244806E1,2.4378698E1,2.976826E1,6.133097E1,3.1581892E1,-2.8717222E1,-8.293136E0],"categories":[],"categories_nodes":[],"categories_segments":[],"categories_sizes":[],"default_left":[0,0,0,0,0,0,0,0,0,0,0,0,0,0,0,0,0,0,0,0,0,0,0,0,0,0,0,0,0,0,0,0,0,0,0,0,0,0,0,0,0,0,0,0,0,0,0,0,0,0,0,0,0,0,0,0,0,0,0,0,0,0,0,0,0,0,0,0,0,0,0,0,0],"id":10,"left_children":[1,3,5,-1,7,9,11,13,15,17,19,21,-1,23,25,27,29,31,33,35,-1,37,39,41,43,45,47,49,51,53,-1,55,57,59,61,63,65,67,69,71,-1,-1,-1,-1,-1,-1,-1,-1,-1,-1,-1,-1,-1,-1,-1,-1,-1,-1,-1,-1,-1,-1,-1,-1,-1,-1,-1,-1,-1,-1,-1,-1,-1],"loss_changes":[5.3168346E8,6.829325E7,7.680493E7,0E0,4.237771E7,7.75652E6,6.746144E6,1.8432128E7,1.960652E7,7.022E6,5.319244E6,8.104224E6,0E0,2.1797184E7,6.866304E6,8.338298E6,4.828664E6,4.7312E6,8.403685E6,4.130664E6,0E0,4.481568E6,3.6631278E6,9.23644E5,9.04861E6,6.897792E6,1.2014176E7,3.049936E6,1.1422847E7,4.5722925E5,0E0,1.879273E6,8.44684E6,4.57114E5,6.7717255E6,2.808858E6,2.613858E6,1.19512E6,5.604528E6,4.469105E5,0E0,0E0,0E0,0E0,0E0,0E0,0E0,0E0,0E0,0E0,0E0,0E0,0E0,0E0,0E0,0E0,0E0,0E0,0E0,0E0,0E0,0E0,0E0,0E0,0E0,0E0,0E0,0E0,0E0,0E0,0E0,0E0,0E0],"parents":[2147483647,0,0,1,1,2,2,4,4,5,5,6,6,7,7,8,8,9,9,10,10,11,11,13,13,14,14,15,15,16,16,17,17,18,18,19,19,21,21,22,22,23,23,24,24,25,25,26,26,27,27,28,28,29,29,31,31,32,32,33,33,34,34,35,35,36,36,37,37,38,38,39,39],"right_children":[2,4,6,-1,8,10,12,14,16,18,20,22,-1,24,26,28,30,32,34,36,-1,38,40,42,44,46,48,50,52,54,-1,56,58,60,62,64,66,68,70,72,-1,-1,-1,-1,-1,-1,-1,-1,-1,-1,-1,-1,-1,-1,-1,-1,-1,-1,-1,-1,-1,-1,-1,-1,-1,-1,-1,-1,-1,-1,-1,-1,-1],"split_conditions":[2.203798E3,4.59402E1,4.1872163E3,-3.5481732E-2,1.3102944E3,3.5993147E3,5.273136E3,5.712564E2,2.3854663E3,3.775086E3,2.1252336E3,3.79506E1,8.907016E1,1.211756E2,1.041977E3,1.784344E3,4.447544E2,2.2477407E3,4.136615E3,3.7497856E3,-3.9670113E1,7.201293E3,4.4029355E3,8.72198E1,1.8216288E3,7.969626E2,2.6275322E3,1.73108E3,1.8455977E3,1.784344E3,7.651953E1,2.237088E3,2.3116577E3,2.749754E3,5.494847E3,3.7071743E3,3.78241E3,4.504137E3,7.6460474E3,2.450144E3,5.4644684E1,-3.5963345E1,-2.607739E1,-9.434615E0,3.261818E1,-1.8141012E1,-2.6764914E1,-1.545373E1,1.0780233E2,-8.196828E0,-1.8187866E1,1.3456644E1,-4.638984E0,-1.0422171E1,2.0505445E1,1.4923038E1,3.421233E1,-6.0218387E0,1.0515277E1,1.23416435E2,3.0236927E1,-3.6055805E1,4.4411953E1,2.2179394E1,4.146421E1,8.151156E-1,1.7244806E1,2.4378698E1,2.976826E1,6.133097E1,3.1581892E1,-2.8717222E1,-8.293136E0],"split_indices":[0,0,0,0,0,0,1,0,3,1,1,1,0,0,0,0,1,0,1,0,0,0,3,0,1,0,3,0,0,0,0,0,0,0,1,0,0,0,0,1,0,0,0,0,0,0,0,0,0,0,0,0,0,0,0,0,0,0,0,0,0,0,0,0,0,0,0,0,0,0,0,0,0],"split_type":[0,0,0,0,0,0,0,0,0,0,0,0,0,0,0,0,0,0,0,0,0,0,0,0,0,0,0,0,0,0,0,0,0,0,0,0,0,0,0,0,0,0,0,0,0,0,0,0,0,0,0,0,0,0,0,0,0,0,0,0,0,0,0,0,0,0,0,0,0,0,0,0,0],"sum_hessian":[8.523E3,5.664E3,2.859E3,1.586E3,4.078E3,1.959E3,9E2,2.607E3,1.471E3,1.579E3,3.8E2,8.96E2,4E0,1.169E3,1.438E3,1.46E3,1.1E1,1.566E3,1.3E1,3.77E2,3E0,8.83E2,1.3E1,1.36E2,1.033E3,9.53E2,4.85E2,8.42E2,6.18E2,3E0,8E0,5.5E1,1.511E3,3E0,1E1,1.08E2,2.69E2,8.03E2,8E1,1.2E1,1E0,5.3E1,8.3E1,1.021E3,1.2E1,4.89E2,4.64E2,4.84E2,1E0,7.57E2,8.5E1,1.04E2,5.14E2,2E0,1E0,2.9E1,2.6E1,8.1E1,1.43E3,2E0,1E0,3E0,7E0,8.1E1,2.7E1,2.7E1,2.42E2,1.64E2,6.39E2,2.5E1,5.5E1,5E0,7E0],"tree_param":{"num_deleted":"0","num_feature":"10","num_nodes":"73","size_leaf_vector":"1"}},{"base_weights":[6.891933E-1,-1.7536775E2,3.2095657E2,-3.3712693E-2,-2.461374E2,2.175166E2,5.6444775E2,-3.0572256E2,-1.2714334E2,1.01164894E2,2.5234595E2,5.5743225E2,8.550736E1,-2.1683885E2,-3.7777835E2,-1.3667607E2,1.1238718E3,8.681173E1,1.4789304E3,2.4955179E2,8.441279E1,5.6839014E2,-1.7429912E2,-5.168997E2,-1.5959473E2,-4.345392E2,-2.97455E2,-1.284695E2,-6.0719073E2,-2.0149532E2,1.4804005E3,1.1720671E2,-1.590815E2,6.265111E2,1.222152E2,2.1850964E2,3.5090408E2,5.343254E2,7.1804535E2,-3.5164078E2,5.3278564E1,-2.692674E1,4.947816E1,-1.3445187E0,-1.1295295E1,-1.7235815E1,-2.791712E1,-1.524915E1,1.0510728E2,-1.0470256E1,-4.380648E0,-3.743205E1,2.6910364E1,-1.2852676E1,-2.2594726E0,7.9182846E1,1.894015E1,6.142658E0,-1.9591478E1,-4.6529794E0,-1.1330141E1,3.5297802E1,9.704407E0,1.1352078E1,-7.456573E0,1.80885E1,-3.8182484E1,2.8822235E1,2.1562696E1,4.688136E1,3.3340206E1,-1.2267085E1,-4.0680744E1],"categories":[],"categories_nodes":[],"categories_segments":[],"categories_sizes":[],"default_left":[0,0,0,0,0,0,0,0,0,0,0,0,0,0,0,0,0,0,0,0,0,0,0,0,0,0,0,0,0,0,0,0,0,0,0,0,0,0,0,0,0,0,0,0,0,0,0,0,0,0,0,0,0,0,0,0,0,0,0,0,0,0,0,0,0,0,0,0,0,0,0,0,0],"id":11,"left_children":[1,3,5,-1,7,9,11,13,15,17,19,21,-1,23,25,27,29,31,33,35,-1,37,39,41,43,45,47,49,51,53,55,57,59,61,-1,63,65,67,69,71,-1,-1,-1,-1,-1,-1,-1,-1,-1,-1,-1,-1,-1,-1,-1,-1,-1,-1,-1,-1,-1,-1,-1,-1,-1,-1,-1,-1,-1,-1,-1,-1,-1],"loss_changes":[4.8068458E8,6.800869E7,7.604182E7,0E0,2.7719584E7,8.58188E6,6.288704E6,1.6621248E7,1.5752266E7,9.581284E6,6.134584E6,7.291424E6,0E0,2.001428E7,6.431456E6,4.93784E6,5.02361E6,3.6584448E6,2.583132E6,5.057904E6,0E0,4.122944E6,3.453028E6,6.6277E6,8.652908E6,9.15976E6,1.1461576E7,4.207678E6,3.967292E6,1.4436109E4,3.10082E5,1.2955615E6,2.1963838E5,3.97625E2,0E0,3.960992E6,4.890416E6,2.894496E6,1.186304E6,4.3878288E5,0E0,0E0,0E0,0E0,0E0,0E0,0E0,0E0,0E0,0E0,0E0,0E0,0E0,0E0,0E0,0E0,0E0,0E0,0E0,0E0,0E0,0E0,0E0,0E0,0E0,0E0,0E0,0E0,0E0,0E0,0E0,0E0,0E0],"parents":[2147483647,0,0,1,1,2,2,4,4,5,5,6,6,7,7,8,8,9,9,10,10,11,11,13,13,14,14,15,15,16,16,17,17,18,18,19,19,21,21,22,22,23,23,24,24,25,25,26,26,27,27,28,28,29,29,30,30,31,31,32,32,33,33,35,35,36,36,37,37,38,38,39,39],"right_children":[2,4,6,-1,8,10,12,14,16,18,20,22,-1,24,26,28,30,32,34,36,-1,38,40,42,44,46,48,50,52,54,56,58,60,62,-1,64,66,68,70,72,-1,-1,-1,-1,-1,-1,-1,-1,-1,-1,-1,-1,-1,-1,-1,-1,-1,-1,-1,-1,-1,-1,-1,-1,-1,-1,-1,-1,-1,-1,-1,-1,-1],"split_conditions":[2.087283E3,4.59402E1,4.1872163E3,-3.3712693E-2,1.3102944E3,2.4448176E3,5.273136E3,5.712564E2,2.3854663E3,2.1219998E3,4.256174E3,3.79506E1,8.550736E1,1.438128E2,9.88713E2,3.79506E1,4.447544E2,2.4062012E3,2.237088E3,3.5993147E3,8.441279E1,6.4396177E3,4.4029355E3,1.8792681E3,2.59662E2,7.969626E2,2.6275322E3,1.5566404E3,3.3842615E3,1.5340032E3,2.0553247E3,3.79506E1,2.4288384E3,2.117244E3,1.222152E2,3.5633616E3,2.1252336E3,5.432928E3,6.6926216E3,4.923591E3,5.3278564E1,-2.692674E1,4.947816E1,-1.3445187E0,-1.1295295E1,-1.7235815E1,-2.791712E1,-1.524915E1,1.0510728E2,-1.0470256E1,-4.380648E0,-3.743205E1,2.6910364E1,-1.2852676E1,-2.2594726E0,7.9182846E1,1.894015E1,6.142658E0,-1.9591478E1,-4.6529794E0,-1.1330141E1,3.5297802E1,9.704407E0,1.1352078E1,-7.456573E0,1.80885E1,-3.8182484E1,2.8822235E1,2.1562696E1,4.688136E1,3.3340206E1,-1.2267085E1,-4.0680744E1],"split_indices":[0,0,0,0,0,0,1,0,3,3,3,1,0,0,0,1,1,0,0,0,0,0,3,3,0,0,3,0,1,0,0,1,0,0,0,0,1,0,0,1,0,0,0,0,0,0,0,0,0,0,0,0,0,0,0,0,0,0,0,0,0,0,0,0,0,0,0,0,0,0,0,0,0],"split_type":[0,0,0,0,0,0,0,0,0,0,0,0,0,0,0,0,0,0,0,0,0,0,0,0,0,0,0,0,0,0,0,0,0,0,0,0,0,0,0,0,0,0,0,0,0,0,0,0,0,0,0,0,0,0,0,0,0,0,0,0,0,0,0,0,0,0,0,0,0,0,0,0,0],"sum_hessian":[8.523E3,5.5E3,3.023E3,1.586E3,3.914E3,2.123E3,9E2,2.607E3,1.307E3,4.9E2,1.633E3,8.96E2,4E0,1.169E3,1.438E3,1.298E3,9E0,4.86E2,4E0,1.631E3,2E0,8.83E2,1.3E1,1.86E2,9.83E2,8.4E2,5.98E2,1.277E3,2.1E1,2E0,7E0,4.33E2,5.3E1,3E0,1E0,1.251E3,3.8E2,7.23E2,1.6E2,1.2E1,1E0,1.84E2,2E0,3.28E2,6.55E2,4.89E2,3.51E2,5.97E2,1E0,4.27E2,8.5E2,1.9E1,2E0,1E0,1E0,6E0,1E0,4.29E2,4E0,2.8E1,2.5E1,2E0,1E0,1.223E3,2.8E1,3.77E2,3E0,5.1E2,2.13E2,2.7E1,1.33E2,1.1E1,1E0],"tree_param":{"num_deleted":"0","num_feature":"10","num_nodes":"73","size_leaf_vector":"1"}},{"base_weights":[7.1746105E-1,-1.6657898E2,3.050485E2,-3.202949E-2,-2.3380188E2,2.0673781E2,5.364656E2,-2.904155E2,-1.2074214E2,9.6387344E1,2.3977045E2,5.297066E2,8.208707E1,-2.0598843E2,-3.5885834E2,-1.2986183E2,1.0759792E3,8.2410774E1,1.4384274E3,2.3706433E2,8.159902E1,5.4011835E2,-1.6556053E2,-4.909341E2,-1.5162784E2,-4.8935678E2,-3.2405685E2,-1.22745766E2,-6.2946906E2,-1.9645789E2,1.4186458E3,1.1131547E2,-1.5142339E2,3.0321806E1,1.1915981E2,2.075873E2,3.3330624E2,5.1758496E2,7.571153E2,-3.3813165E2,5.19466E1,-2.5587679E1,4.7828884E1,-1.2774988E0,-1.0731391E1,-2.1650846E1,-4.595274E1,-3.4700677E0,-1.8732344E1,-9.947968E0,-4.2225423E0,-4.0285137E1,2.6013351E1,-1.2531357E1,-2.2029846E0,7.578929E1,1.8466644E1,8.220477E0,2.8977168E0,-4.428348E0,-1.0785426E1,1.0960065E1,-1.9872391E0,1.7186474E1,-3.675064E1,2.361436E1,2.7823624E1,5.6779476E1,2.8393763E1,-2.7009542E1,-7.216039E0],"categories":[],"categories_nodes":[],"categories_segments":[],"categories_sizes":[],"default_left":[0,0,0,0,0,0,0,0,0,0,0,0,0,0,0,0,0,0,0,0,0,0,0,0,0,0,0,0,0,0,0,0,0,0,0,0,0,0,0,0,0,0,0,0,0,0,0,0,0,0,0,0,0,0,0,0,0,0,0,0,0,0,0,0,0,0,0,0,0,0,0],"id":12,"left_children":[1,3,5,-1,7,9,11,13,15,17,19,21,-1,23,25,27,29,31,33,35,-1,37,39,41,43,45,47,49,51,53,55,57,59,-1,-1,61,63,65,67,69,-1,-1,-1,-1,-1,-1,-1,-1,-1,-1,-1,-1,-1,-1,-1,-1,-1,-1,-1,-1,-1,-1,-1,-1,-1,-1,-1,-1,-1,-1,-1],"loss_changes":[4.3403747E8,6.136275E7,6.868742E7,0E0,2.502376E7,7.719232E6,5.86136E6,1.4996224E7,1.4414878E7,9.0912E6,5.7692E6,6.582784E6,0E0,1.8048648E7,6.376688E6,4.540986E6,4.638921E6,3.3084418E6,2.484941E6,4.56068E6,0E0,3.930624E6,3.2613445E6,6.125044E6,7.810334E6,6.888984E6,1.4647768E7,3.724832E6,4.0663805E6,1.3723336E4,2.55613E5,1.2200625E6,1.99095E5,0E0,0E0,3.6051E6,4.495196E6,1.15344E6,5.156548E6,4.3113575E5,0E0,0E0,0E0,0E0,0E0,0E0,0E0,0E0,0E0,0E0,0E0,0E0,0E0,0E0,0E0,0E0,0E0,0E0,0E0,0E0,0E0,0E0,0E0,0E0,0E0,0E0,0E0,0E0,0E0,0E0,0E0],"parents":[2147483647,0,0,1,1,2,2,4,4,5,5,6,6,7,7,8,8,9,9,10,10,11,11,13,13,14,14,15,15,16,16,17,17,18,18,19,19,21,21,22,22,23,23,24,24,25,25,26,26,27,27,28,28,29,29,30,30,31,31,32,32,35,35,36,36,37,37,38,38,39,39],"right_children":[2,4,6,-1,8,10,12,14,16,18,20,22,-1,24,26,28,30,32,34,36,-1,38,40,42,44,46,48,50,52,54,56,58,60,-1,-1,62,64,66,68,70,-1,-1,-1,-1,-1,-1,-1,-1,-1,-1,-1,-1,-1,-1,-1,-1,-1,-1,-1,-1,-1,-1,-1,-1,-1,-1,-1,-1,-1,-1,-1],"split_conditions":[2.087283E3,4.59402E1,4.1872163E3,-3.202949E-2,1.3102944E3,2.4448176E3,5.273136E3,5.712564E2,2.3854663E3,2.1219998E3,4.256174E3,3.79506E1,8.208707E1,1.438128E2,7.150692E2,3.92822E2,4.447544E2,2.4062012E3,2.237088E3,3.5993147E3,8.159902E1,7.201293E3,4.4029355E3,1.8792681E3,2.59662E2,7.030848E2,7.969626E2,1.5566404E3,3.3842615E3,1.5340032E3,2.0553247E3,2.2477407E3,2.4288384E3,3.0321806E1,1.1915981E2,3.52874E3,2.1252336E3,5.007482E3,7.6460474E3,2.450144E3,5.19466E1,-2.5587679E1,4.7828884E1,-1.2774988E0,-1.0731391E1,-2.1650846E1,-4.595274E1,-3.4700677E0,-1.8732344E1,-9.947968E0,-4.2225423E0,-4.0285137E1,2.6013351E1,-1.2531357E1,-2.2029846E0,7.578929E1,1.8466644E1,8.220477E0,2.8977168E0,-4.428348E0,-1.0785426E1,1.0960065E1,-1.9872391E0,1.7186474E1,-3.675064E1,2.361436E1,2.7823624E1,5.6779476E1,2.8393763E1,-2.7009542E1,-7.216039E0],"split_indices":[0,0,0,0,0,0,1,0,3,3,3,1,0,0,0,1,1,0,0,0,0,0,3,3,0,0,0,0,1,0,0,0,0,0,0,0,1,0,0,1,0,0,0,0,0,0,0,0,0,0,0,0,0,0,0,0,0,0,0,0,0,0,0,0,0,0,0,0,0,0,0],"split_type":[0,0,0,0,0,0,0,0,0,0,0,0,0,0,0,0,0,0,0,0,0,0,0,0,0,0,0,0,0,0,0,0,0,0,0,0,0,0,0,0,0,0,0,0,0,0,0,0,0,0,0,0,0,0,0,0,0,0,0,0,0,0,0,0,0,0,0,0,0,0,0],"sum_hessian":[8.523E3,5.5E3,3.023E3,1.586E3,3.914E3,2.123E3,9E2,2.607E3,1.307E3,4.9E2,1.633E3,8.96E2,4E0,1.169E3,1.438E3,1.298E3,9E0,4.86E2,4E0,1.631E3,2E0,8.83E2,1.3E1,1.86E2,9.83E2,3E2,1.138E3,1.281E3,1.7E1,2E0,7E0,4.33E2,5.3E1,3E0,1E0,1.251E3,3.8E2,8.03E2,8E1,1.2E1,1E0,1.84E2,2E0,3.28E2,6.55E2,2.67E2,3.3E1,1.89E2,9.49E2,4.27E2,8.54E2,1.5E1,2E0,1E0,1E0,6E0,1E0,2.16E2,2.17E2,2.8E1,2.5E1,1.195E3,5.6E1,3.77E2,3E0,3.77E2,4.26E2,2.5E1,5.5E1,5E0,7E0],"tree_param":{"num_deleted":"0","num_feature":"10","num_nodes":"71","size_leaf_vector":"1"}},{"base_weights":[7.313836E-1,-1.5175073E2,3.02763E2,-3.043122E-2,-2.1051778E2,2.0738676E2,5.099047E2,-2.7592523E2,-9.4489815E1,1.8092244E2,3.1658954E2,5.0339328E2,7.880358E1,-1.9568022E2,-3.4097784E2,-1.03611885E2,1.02399615E3,1.7479471E2,8.538661E2,4.8503125E2,2.4817659E2,5.1326697E2,-1.5601671E2,-5.214451E2,-1.5232869E2,-3.9559113E2,-2.637312E2,-1.5991869E2,-2.6761719E1,3.986331E1,1.3476112E3,4.5253616E2,1.643924E2,2.0316893E3,3.4794254E2,3.868342E2,3.7764294E1,2.6141483E2,-3.5372494E1,4.9176968E2,7.2031104E2,-3.238578E2,5.0647938E1,-3.1621378E1,-2.219458E1,-8.107768E0,3.159574E1,-1.5564242E1,-2.5591276E1,-1.3552919E1,1.029479E2,-6.990558E0,-1.67643E1,1.321629E1,-4.302885E0,-9.577326E0,1.835232E1,7.1095474E1,1.8830627E1,2.4783186E1,-1.1601903E1,-6.1709256E0,9.038491E0,1.1616382E2,2.8923206E1,-3.5540413E1,4.1691254E1,2.7450748E1,2.7224643E0,-9.249422E-1,1.4629625E1,2.615076E1,2.1789467E1,5.404969E1,2.6999426E1,-1.0961744E1,-3.9483322E1],"categories":[],"categories_nodes":[],"categories_segments":[],"categories_sizes":[],"default_left":[0,0,0,0,0,0,0,0,0,0,0,0,0,0,0,0,0,0,0,0,0,0,0,0,0,0,0,0,0,0,0,0,0,0,0,0,0,0,0,0,0,0,0,0,0,0,0,0,0,0,0,0,0,0,0,0,0,0,0,0,0,0,0,0,0,0,0,0,0,0,0,0,0,0,0,0,0],"id":13,"left_children":[1,3,5,-1,7,9,11,13,15,17,19,21,-1,23,25,27,29,31,33,35,37,39,41,43,45,47,49,51,53,55,57,59,61,63,65,67,-1,69,-1,71,73,75,-1,-1,-1,-1,-1,-1,-1,-1,-1,-1,-1,-1,-1,-1,-1,-1,-1,-1,-1,-1,-1,-1,-1,-1,-1,-1,-1,-1,-1,-1,-1,-1,-1,-1,-1],"loss_changes":[3.9261382E8,5.031739E7,5.639755E7,0E0,3.092984E7,5.60708E6,5.4616E6,1.354744E7,1.5124773E7,6.366056E6,4.27012E6,5.920288E6,0E0,1.6443784E7,5.966352E6,6.31774E6,3.768042E6,4.452912E6,7.635527E6,2.600494E6,3.63861E6,3.580352E6,3.074884E6,8.9844E5,8.070974E6,8.081888E6,1.075232E7,2.925714E6,1.0706885E7,3.7315994E5,1.13782E5,1.768357E6,7.14928E6,3.51034E5,6.2514035E6,4.390433E6,0E0,2.361718E6,0E0,1.178384E6,4.684452E6,4.60423E5,0E0,0E0,0E0,0E0,0E0,0E0,0E0,0E0,0E0,0E0,0E0,0E0,0E0,0E0,0E0,0E0,0E0,0E0,0E0,0E0,0E0,0E0,0E0,0E0,0E0,0E0,0E0,0E0,0E0,0E0,0E0,0E0,0E0,0E0,0E0],"parents":[2147483647,0,0,1,1,2,2,4,4,5,5,6,6,7,7,8,8,9,9,10,10,11,11,13,13,14,14,15,15,16,16,17,17,18,18,19,19,20,20,21,21,22,22,23,23,24,24,25,25,26,26,27,27,28,28,29,29,30,30,31,31,32,32,33,33,34,34,35,35,37,37,39,39,40,40,41,41],"right_children":[2,4,6,-1,8,10,12,14,16,18,20,22,-1,24,26,28,30,32,34,36,38,40,42,44,46,48,50,52,54,56,58,60,62,64,66,68,-1,70,-1,72,74,76,-1,-1,-1,-1,-1,-1,-1,-1,-1,-1,-1,-1,-1,-1,-1,-1,-1,-1,-1,-1,-1,-1,-1,-1,-1,-1,-1,-1,-1,-1,-1,-1,-1,-1,-1],"split_conditions":[2.203798E3,4.59402E1,4.1872163E3,-3.043122E-2,1.3102944E3,3.5993147E3,5.273136E3,5.712564E2,2.3854663E3,3.775086E3,3.7497856E3,3.79506E1,7.880358E1,1.211756E2,9.88713E2,1.784344E3,4.447544E2,2.2477407E3,4.136615E3,3.7071743E3,2.1252336E3,7.201293E3,4.4029355E3,8.72198E1,1.8216288E3,7.969626E2,2.6275322E3,1.73108E3,1.8455977E3,1.784344E3,4.390285E3,3.79506E1,2.3116577E3,2.749754E3,5.494847E3,3.6772134E3,3.7764294E1,3.78241E3,-3.5372494E1,5.432928E3,7.6460474E3,4.923591E3,5.0647938E1,-3.1621378E1,-2.219458E1,-8.107768E0,3.159574E1,-1.5564242E1,-2.5591276E1,-1.3552919E1,1.029479E2,-6.990558E0,-1.67643E1,1.321629E1,-4.302885E0,-9.577326E0,1.835232E1,7.1095474E1,1.8830627E1,2.4783186E1,-1.1601903E1,-6.1709256E0,9.038491E0,1.1616382E2,2.8923206E1,-3.5540413E1,4.1691254E1,2.7450748E1,2.7224643E0,-9.249422E-1,1.4629625E1,2.615076E1,2.1789467E1,5.404969E1,2.6999426E1,-1.0961744E1,-3.9483322E1],"split_indices":[0,0,0,0,0,0,1,0,3,1,0,1,0,0,0,0,1,0,1,0,1,0,3,0,1,0,3,0,0,0,1,1,0,0,1,0,0,0,0,0,0,1,0,0,0,0,0,0,0,0,0,0,0,0,0,0,0,0,0,0,0,0,0,0,0,0,0,0,0,0,0,0,0,0,0,0,0],"split_type":[0,0,0,0,0,0,0,0,0,0,0,0,0,0,0,0,0,0,0,0,0,0,0,0,0,0,0,0,0,0,0,0,0,0,0,0,0,0,0,0,0,0,0,0,0,0,0,0,0,0,0,0,0,0,0,0,0,0,0,0,0,0,0,0,0,0,0,0,0,0,0,0,0,0,0,0,0],"sum_hessian":[8.523E3,5.664E3,2.859E3,1.586E3,4.078E3,1.959E3,9E2,2.607E3,1.471E3,1.579E3,3.8E2,8.96E2,4E0,1.169E3,1.438E3,1.46E3,1.1E1,1.566E3,1.3E1,1.08E2,2.72E2,8.83E2,1.3E1,1.36E2,1.033E3,8.4E2,5.98E2,8.42E2,6.18E2,3E0,8E0,5.5E1,1.511E3,3E0,1E1,8.1E1,2.7E1,2.69E2,3E0,8.03E2,8E1,1.2E1,1E0,5.3E1,8.3E1,1.021E3,1.2E1,4.89E2,3.51E2,5.97E2,1E0,7.57E2,8.5E1,1.04E2,5.14E2,2E0,1E0,7E0,1E0,5.2E1,3E0,8.1E1,1.43E3,2E0,1E0,3E0,7E0,5.4E1,2.7E1,2.7E1,2.42E2,5.1E2,2.93E2,2.5E1,5.5E1,1.1E1,1E0],"tree_param":{"num_deleted":"0","num_feature":"10","num_nodes":"77","size_leaf_vector":"1"}},{"base_weights":[7.5620055E-1,-1.505334E2,2.7596893E2,-2.8906459E-2,-2.112814E2,1.8525365E2,4.8002545E2,-2.621221E2,-1.0974946E2,8.806823E1,2.1486908E2,4.739293E2,7.565144E1,-1.8592215E2,-3.2389542E2,-1.1811191E2,9.875076E2,7.463321E1,1.3790255E3,2.1226285E2,7.679235E1,4.8110696E2,-1.1286154E2,-4.454997E2,-1.3640292E2,-4.49601E2,-2.9039124E2,-1.1136617E2,-5.919962E2,-1.8516158E2,1.3038201E3,1.027849E2,-1.530051E2,2.8211664E1,1.1595486E2,1.8800665E2,2.979347E2,4.4005975E2,5.9280927E2,-3.0269165E2,4.938174E1,-2.3259197E1,4.5843124E1,-8.1569654E-1,-9.821128E0,-1.9797033E1,-4.2967358E1,-2.5233607E0,-1.6903517E1,-9.103018E0,-3.7923748E0,-3.805E1,2.5334461E1,-1.1978641E1,-1.9084778E0,6.986755E1,1.6227594E1,5.4068046E0,-1.8898727E1,-4.650905E0,-1.0701444E1,9.792911E0,-7.493306E0,2.307015E1,1.11844425E1,2.3541407E1,-1.718538E1,2.7160639E1,3.4264797E1,-3.29792E1,-7.504757E0],"categories":[],"categories_nodes":[],"categories_segments":[],"categories_sizes":[],"default_left":[0,0,0,0,0,0,0,0,0,0,0,0,0,0,0,0,0,0,0,0,0,0,0,0,0,0,0,0,0,0,0,0,0,0,0,0,0,0,0,0,0,0,0,0,0,0,0,0,0,0,0,0,0,0,0,0,0,0,0,0,0,0,0,0,0,0,0,0,0,0,0],"id":14,"left_children":[1,3,5,-1,7,9,11,13,15,17,19,21,-1,23,25,27,29,31,33,35,-1,37,39,41,43,45,47,49,51,53,55,57,59,-1,-1,61,63,65,67,69,-1,-1,-1,-1,-1,-1,-1,-1,-1,-1,-1,-1,-1,-1,-1,-1,-1,-1,-1,-1,-1,-1,-1,-1,-1,-1,-1,-1,-1,-1,-1],"loss_changes":[3.5495386E8,5.0111136E7,5.5888496E7,0E0,2.0180288E7,6.01088E6,5.139472E6,1.2215952E7,1.2118526E7,8.413001E6,5.199672E6,3.954416E6,0E0,1.4978508E7,5.930032E6,4.086578E6,3.950716E6,3.1366198E6,2.521303E6,3.275136E6,0E0,3.934448E6,2.8058368E6,5.4413E6,7.08917E6,6.277868E6,1.3012376E7,3.205246E6,3.7278655E6,1.4849656E4,2.79222E5,1.1573965E6,1.7776562E5,0E0,0E0,3.350692E6,4.168958E6,1.6391392E7,7.42376E5,5.000652E5,0E0,0E0,0E0,0E0,0E0,0E0,0E0,0E0,0E0,0E0,0E0,0E0,0E0,0E0,0E0,0E0,0E0,0E0,0E0,0E0,0E0,0E0,0E0,0E0,0E0,0E0,0E0,0E0,0E0,0E0,0E0],"parents":[2147483647,0,0,1,1,2,2,4,4,5,5,6,6,7,7,8,8,9,9,10,10,11,11,13,13,14,14,15,15,16,16,17,17,18,18,19,19,21,21,22,22,23,23,24,24,25,25,26,26,27,27,28,28,29,29,30,30,31,31,32,32,35,35,36,36,37,37,38,38,39,39],"right_children":[2,4,6,-1,8,10,12,14,16,18,20,22,-1,24,26,28,30,32,34,36,-1,38,40,42,44,46,48,50,52,54,56,58,60,-1,-1,62,64,66,68,70,-1,-1,-1,-1,-1,-1,-1,-1,-1,-1,-1,-1,-1,-1,-1,-1,-1,-1,-1,-1,-1,-1,-1,-1,-1,-1,-1,-1,-1,-1,-1],"split_conditions":[2.087283E3,4.59402E1,4.138613E3,-2.8906459E-2,1.3102944E3,2.4448176E3,5.273136E3,5.712564E2,2.3854663E3,2.1219998E3,4.256174E3,2.6788938E3,7.565144E1,1.438128E2,7.150692E2,3.92822E2,4.447544E2,2.4062012E3,2.237088E3,3.5993147E3,7.679235E1,5.9762207E3,4.4029355E3,1.8792681E3,2.59662E2,7.030848E2,7.969626E2,1.5566404E3,3.3842615E3,1.5340032E3,2.0553247E3,3.79506E1,2.4288384E3,2.8211664E1,1.1595486E2,3.5633616E3,3.7497856E3,5.865032E3,7.201293E3,2.8408735E3,4.938174E1,-2.3259197E1,4.5843124E1,-8.1569654E-1,-9.821128E0,-1.9797033E1,-4.2967358E1,-2.5233607E0,-1.6903517E1,-9.103018E0,-3.7923748E0,-3.805E1,2.5334461E1,-1.1978641E1,-1.9084778E0,6.986755E1,1.6227594E1,5.4068046E0,-1.8898727E1,-4.650905E0,-1.0701444E1,9.792911E0,-7.493306E0,2.307015E1,1.11844425E1,2.3541407E1,-1.718538E1,2.7160639E1,3.4264797E1,-3.29792E1,-7.504757E0],"split_indices":[0,0,0,0,0,0,1,0,3,3,3,3,0,0,0,1,1,0,0,0,0,0,3,3,0,0,0,0,1,0,0,1,0,0,0,0,0,0,0,3,0,0,0,0,0,0,0,0,0,0,0,0,0,0,0,0,0,0,0,0,0,0,0,0,0,0,0,0,0,0,0],"split_type":[0,0,0,0,0,0,0,0,0,0,0,0,0,0,0,0,0,0,0,0,0,0,0,0,0,0,0,0,0,0,0,0,0,0,0,0,0,0,0,0,0,0,0,0,0,0,0,0,0,0,0,0,0,0,0,0,0,0,0,0,0,0,0,0,0,0,0,0,0,0,0],"sum_hessian":[8.523E3,5.5E3,3.023E3,1.586E3,3.914E3,2.094E3,9.29E2,2.607E3,1.307E3,4.9E2,1.604E3,9.25E2,4E0,1.169E3,1.438E3,1.298E3,9E0,4.86E2,4E0,1.602E3,2E0,9.14E2,1.1E1,1.86E2,9.83E2,3E2,1.138E3,1.281E3,1.7E1,2E0,7E0,4.33E2,5.3E1,3E0,1E0,1.251E3,3.51E2,6.72E2,2.42E2,1E1,1E0,1.84E2,2E0,3.28E2,6.55E2,2.67E2,3.3E1,1.89E2,9.49E2,4.27E2,8.54E2,1.5E1,2E0,1E0,1E0,6E0,1E0,4.29E2,4E0,2.8E1,2.5E1,1.223E3,2.8E1,1.08E2,2.43E2,6.47E2,2.5E1,1.62E2,8E1,2E0,8E0],"tree_param":{"num_deleted":"0","num_feature":"10","num_nodes":"71","size_leaf_vector":"1"}},{"base_weights":[7.602971E-1,-1.4301103E2,2.6229645E2,-2.7466629E-2,-2.0072334E2,1.7797075E2,4.6079312E2,-2.4904291E2,-1.04226295E2,1.1054838E2,2.1757498E2,4.5475146E2,7.262539E1,-1.7661583E2,-3.0775775E2,-1.1222596E2,9.45353E2,1.3209935E2,-2.1918798E1,2.115515E2,7.7168274E2,4.637527E2,-1.4609198E2,-5.131135E2,-1.4156271E2,-3.6026746E2,-2.3352E2,-1.0511716E2,-5.200816E2,-1.8053252E2,1.249391E3,1.23779076E2,7.429097E2,2.1916315E2,-7.169256E2,1.2623381E3,-3.6396442E2,4.2530518E2,5.634216E2,-3.0547504E2,4.8147194E1,-2.8928167E1,-2.2105322E1,-7.5351267E0,3.0342026E1,-1.4054903E1,-2.3472569E1,-1.2032638E1,1.007968E2,-8.64893E0,-3.5431786E0,-3.0898499E1,3.838935E1,-1.1679172E1,-1.8607666E0,6.687322E1,1.5821906E1,3.5421185E0,1.104812E1,7.5773796E1,-1.6637573E1,1.0684091E1,9.804386E1,5.1390972E1,-4.9709103E1,1.0373983E2,3.9993694E1,-3.560041E1,5.27004E0,2.2816263E1,-1.6359165E1,2.5810938E1,3.2572704E1,-1.0161795E1,-3.830862E1],"categories":[],"categories_nodes":[],"categories_segments":[],"categories_sizes":[],"default_left":[0,0,0,0,0,0,0,0,0,0,0,0,0,0,0,0,0,0,0,0,0,0,0,0,0,0,0,0,0,0,0,0,0,0,0,0,0,0,0,0,0,0,0,0,0,0,0,0,0,0,0,0,0,0,0,0,0,0,0,0,0,0,0,0,0,0,0,0,0,0,0,0,0,0,0],"id":15,"left_children":[1,3,5,-1,7,9,11,13,15,17,19,21,-1,23,25,27,29,31,-1,33,35,37,39,41,43,45,47,49,51,53,55,57,59,61,63,65,67,69,71,73,-1,-1,-1,-1,-1,-1,-1,-1,-1,-1,-1,-1,-1,-1,-1,-1,-1,-1,-1,-1,-1,-1,-1,-1,-1,-1,-1,-1,-1,-1,-1,-1,-1,-1,-1],"loss_changes":[3.2055187E8,4.522797E7,5.053483E7,0E0,1.8228512E7,5.647472E6,4.73792E6,1.1036272E7,1.1088435E7,9.37983E6,4.299192E6,4.918992E6,0E0,1.372786E7,5.525392E6,3.711606E6,3.648675E6,3.765363E6,0E0,9.514144E6,8.260405E6,3.147872E6,2.7688165E6,2.55426E5,7.348984E6,7.137656E6,1.0095996E7,2.95845E6,3.2479505E6,1.4116445E4,2.34123E5,3.84277E6,8.81447E6,1.212562E7,6.3429995E6,2.097754E6,8.9184444E5,1.513504E7,6.73464E5,4.5660325E5,0E0,0E0,0E0,0E0,0E0,0E0,0E0,0E0,0E0,0E0,0E0,0E0,0E0,0E0,0E0,0E0,0E0,0E0,0E0,0E0,0E0,0E0,0E0,0E0,0E0,0E0,0E0,0E0,0E0,0E0,0E0,0E0,0E0,0E0,0E0],"parents":[2147483647,0,0,1,1,2,2,4,4,5,5,6,6,7,7,8,8,9,9,10,10,11,11,13,13,14,14,15,15,16,16,17,17,19,19,20,20,21,21,22,22,23,23,24,24,25,25,26,26,27,27,28,28,29,29,30,30,31,31,32,32,33,33,34,34,35,35,36,36,37,37,38,38,39,39],"right_children":[2,4,6,-1,8,10,12,14,16,18,20,22,-1,24,26,28,30,32,-1,34,36,38,40,42,44,46,48,50,52,54,56,58,60,62,64,66,68,70,72,74,-1,-1,-1,-1,-1,-1,-1,-1,-1,-1,-1,-1,-1,-1,-1,-1,-1,-1,-1,-1,-1,-1,-1,-1,-1,-1,-1,-1,-1,-1,-1,-1,-1,-1,-1],"split_conditions":[2.087283E3,4.59402E1,4.1872163E3,-2.7466629E-2,1.3102944E3,2.6845056E3,5.273136E3,5.712564E2,2.3854663E3,2.656542E3,3.202498E3,3.79506E1,7.262539E1,1.118544E2,9.88713E2,3.79506E1,4.447544E2,2.1219998E3,-2.1918798E1,2.290352E3,3.2717412E3,5.9762207E3,4.4029355E3,8.72198E1,1.8216288E3,7.969626E2,2.6275322E3,1.5566404E3,3.39558E3,1.5340032E3,2.0553247E3,2.4448176E3,2.5540088E3,1.9281569E3,2.8582793E3,2.749754E3,4.447544E3,5.865032E3,7.201293E3,4.923591E3,4.8147194E1,-2.8928167E1,-2.2105322E1,-7.5351267E0,3.0342026E1,-1.4054903E1,-2.3472569E1,-1.2032638E1,1.007968E2,-8.64893E0,-3.5431786E0,-3.0898499E1,3.838935E1,-1.1679172E1,-1.8607666E0,6.687322E1,1.5821906E1,3.5421185E0,1.104812E1,7.5773796E1,-1.6637573E1,1.0684091E1,9.804386E1,5.1390972E1,-4.9709103E1,1.0373983E2,3.9993694E1,-3.560041E1,5.27004E0,2.2816263E1,-1.6359165E1,2.5810938E1,3.2572704E1,-1.0161795E1,-3.830862E1],"split_indices":[0,0,0,0,0,0,1,0,3,0,1,1,0,0,0,1,1,3,0,1,0,0,3,0,1,0,3,0,1,0,0,0,0,1,0,0,1,0,0,1,0,0,0,0,0,0,0,0,0,0,0,0,0,0,0,0,0,0,0,0,0,0,0,0,0,0,0,0,0,0,0,0,0,0,0],"split_type":[0,0,0,0,0,0,0,0,0,0,0,0,0,0,0,0,0,0,0,0,0,0,0,0,0,0,0,0,0,0,0,0,0,0,0,0,0,0,0,0,0,0,0,0,0,0,0,0,0,0,0,0,0,0,0,0,0,0,0,0,0,0,0,0,0,0,0,0,0,0,0,0,0,0,0],"sum_hessian":[8.523E3,5.5E3,3.023E3,1.586E3,3.914E3,2.123E3,9E2,2.607E3,1.307E3,7.87E2,1.336E3,8.96E2,4E0,1.169E3,1.438E3,1.298E3,9E0,7.58E2,2.9E1,1.323E3,1.3E1,8.83E2,1.3E1,1.09E2,1.06E3,8.4E2,5.98E2,1.277E3,2.1E1,2E0,7E0,7.49E2,9E0,1.313E3,1E1,9E0,4E0,6.41E2,2.42E2,1.2E1,1E0,5.3E1,5.6E1,1.048E3,1.2E1,4.89E2,3.51E2,5.97E2,1E0,4.27E2,8.5E2,2E1,1E0,1E0,1E0,6E0,1E0,4.86E2,2.63E2,5E0,4E0,1.31E3,3E0,1E0,9E0,2E0,7E0,2E0,2E0,6.16E2,2.5E1,1.62E2,8E1,1.1E1,1E0],"tree_param":{"num_deleted":"0","num_feature":"10","num_nodes":"75","size_leaf_vector":"1"}},{"base_weights":[7.8099006E-1,-1.3016992E2,2.6016425E2,-2.6088256E-2,-1.805797E2,1.7832486E2,4.3790573E2,-2.2399722E2,-5.2337875E1,1.7629721E2,7.21132E1,4.3208588E2,6.972037E1,-2.3198245E2,4.3188092E2,-7.357107E1,5.9807495E1,1.5236145E2,2.7496994E2,4.4063843E2,-1.3881049E2,-2.2529478E2,-6.5814844E2,1.11076744E2,2.6614255E2,1.1592238E1,-8.289245E1,1.7075299E2,-4.920844E1,4.2052652E2,1.4240111E2,4.279585E2,2.128794E2,4.0405008E2,5.3549066E2,-2.939298E2,4.6943512E1,-2.4562555E1,-1.0763295E1,-4.919545E1,-9.273212E0,-4.5452076E1,2.2355156E1,-3.823029E0,-2.4407778E1,7.695335E0,2.8153507E1,-8.674193E0,1.3377122E0,1.2024712E1,3.0249369E1,-6.3081355E0,7.878718E0,1.6725899E1,3.431608E1,1.1247832E1,-3.277771E1,2.1677305E1,-1.5572669E1,2.4528303E1,3.0964176E1,-9.696047E0,-3.7350906E1],"categories":[],"categories_nodes":[],"categories_segments":[],"categories_sizes":[],"default_left":[0,0,0,0,0,0,0,0,0,0,0,0,0,0,0,0,0,0,0,0,0,0,0,0,0,0,0,0,0,0,0,0,0,0,0,0,0,0,0,0,0,0,0,0,0,0,0,0,0,0,0,0,0,0,0,0,0,0,0,0,0,0,0],"id":16,"left_children":[1,3,5,-1,7,9,11,13,15,17,-1,19,-1,21,23,25,27,29,31,33,35,37,39,-1,41,-1,43,45,47,49,51,53,55,57,59,61,-1,-1,-1,-1,-1,-1,-1,-1,-1,-1,-1,-1,-1,-1,-1,-1,-1,-1,-1,-1,-1,-1,-1,-1,-1,-1,-1],"loss_changes":[2.8956413E8,3.7023704E7,4.152419E7,0E0,2.2699904E7,4.768872E6,4.413088E6,1.6058352E7,2.4641845E6,4.582528E6,0E0,4.440896E6,0E0,8.433232E6,1.0383486E7,2.4931705E6,2.004049E6,4.154984E6,3.52807E6,2.851552E6,2.616329E6,7.805296E6,6.900684E6,0E0,7.849605E6,0E0,2.162644E6,4.552855E5,7.9762625E5,1.714203E6,6.226082E6,2.401844E6,3.010772E6,1.3684112E7,6.10936E5,4.4420462E5,0E0,0E0,0E0,0E0,0E0,0E0,0E0,0E0,0E0,0E0,0E0,0E0,0E0,0E0,0E0,0E0,0E0,0E0,0E0,0E0,0E0,0E0,0E0,0E0,0E0,0E0,0E0],"parents":[2147483647,0,0,1,1,2,2,4,4,5,5,6,6,7,7,8,8,9,9,11,11,13,13,14,14,15,15,16,16,17,17,18,18,19,19,20,20,21,21,22,22,24,24,26,26,27,27,28,28,29,29,30,30,31,31,32,32,33,33,34,34,35,35],"right_children":[2,4,6,-1,8,10,12,14,16,18,-1,20,-1,22,24,26,28,30,32,34,36,38,40,-1,42,-1,44,46,48,50,52,54,56,58,60,62,-1,-1,-1,-1,-1,-1,-1,-1,-1,-1,-1,-1,-1,-1,-1,-1,-1,-1,-1,-1,-1,-1,-1,-1,-1,-1,-1],"split_conditions":[2.203798E3,4.59402E1,4.1872163E3,-2.6088256E-2,1.5566404E3,4.256174E3,5.273136E3,1.9545985E3,2.087283E3,3.5993147E3,7.21132E1,3.79506E1,6.972037E1,3.79506E1,1.9831328E3,1.571288E3,2.1332231E3,2.2477407E3,3.7497856E3,5.9762207E3,4.4029355E3,1.118544E2,1.1998667E3,1.11076744E2,2.0649312E3,1.1592238E1,4.733838E2,1.5286768E3,2.157192E3,2.237088E3,2.3116577E3,3.7071743E3,2.1252336E3,5.865032E3,7.201293E3,4.923591E3,4.6943512E1,-2.4562555E1,-1.0763295E1,-4.919545E1,-9.273212E0,-4.5452076E1,2.2355156E1,-3.823029E0,-2.4407778E1,7.695335E0,2.8153507E1,-8.674193E0,1.3377122E0,1.2024712E1,3.0249369E1,-6.3081355E0,7.878718E0,1.6725899E1,3.431608E1,1.1247832E1,-3.277771E1,2.1677305E1,-1.5572669E1,2.4528303E1,3.0964176E1,-9.696047E0,-3.7350906E1],"split_indices":[0,0,0,0,0,3,1,3,0,0,0,1,0,1,3,0,0,0,0,0,3,0,3,0,3,0,1,3,0,0,0,0,1,0,0,1,0,0,0,0,0,0,0,0,0,0,0,0,0,0,0,0,0,0,0,0,0,0,0,0,0,0,0],"split_type":[0,0,0,0,0,0,0,0,0,0,0,0,0,0,0,0,0,0,0,0,0,0,0,0,0,0,0,0,0,0,0,0,0,0,0,0,0,0,0,0,0,0,0,0,0,0,0,0,0,0,0,0,0,0,0,0,0,0,0,0,0,0,0],"sum_hessian":[8.523E3,5.664E3,2.859E3,1.586E3,4.078E3,1.959E3,9E2,3.046E3,1.032E3,1.957E3,2E0,8.96E2,4E0,3.01E3,3.6E1,8.68E2,1.64E2,1.577E3,3.8E2,8.83E2,1.3E1,2.965E3,4.5E1,2E0,3.4E1,2.5E1,8.43E2,8.1E1,8.3E1,5.5E1,1.522E3,1.08E2,2.72E2,6.41E2,2.42E2,1.2E1,1E0,1.06E2,2.859E3,2.6E1,1.9E1,4E0,3E1,8.31E2,1.2E1,7.9E1,2E0,3.1E1,5.2E1,2.9E1,2.6E1,8.1E1,1.441E3,8.1E1,2.7E1,2.69E2,3E0,6.16E2,2.5E1,1.62E2,8E1,1.1E1,1E0],"tree_param":{"num_deleted":"0","num_feature":"10","num_nodes":"63","size_leaf_vector":"1"}},{"base_weights":[7.7512616E-1,-1.2366036E2,2.4725284E2,-2.4782775E-2,-1.7154924E2,1.6948288E2,4.1615613E2,-2.252087E2,-7.636212E1,1.6751985E2,6.970943E1,4.1055017E2,6.693155E1,-1.5565152E2,-2.816067E2,-8.4179245E1,8.817362E2,1.4477122E2,2.6129895E2,4.1867624E2,-1.3187737E2,-3.864539E2,-1.1163151E2,-4.024406E2,-2.4942702E2,-1.3158621E2,-1.9480942E1,9.25296E0,1.1715359E3,4.002552E2,1.3528214E2,3.6783105E2,1.799569E2,3.8385715E2,5.089445E2,-2.828523E2,4.5769924E1,-2.0250288E1,4.431986E1,1.4741799E-1,-8.446297E0,-1.7566E1,-3.967776E1,-1.1882275E0,-1.47148485E1,2.5040145E0,-7.587879E0,1.3114389E1,-3.8445554E0,-9.109829E0,1.4590039E1,6.230328E1,1.4382459E1,2.2091494E1,-1.2533666E1,-5.996577E0,7.485058E0,1.5338249E1,3.267409E1,-2.44541E0,1.2688377E1,2.0595198E1,-1.4823977E1,2.330941E1,2.9435083E1,-2.433373E1,-4.731451E0],"categories":[],"categories_nodes":[],"categories_segments":[],"categories_sizes":[],"default_left":[0,0,0,0,0,0,0,0,0,0,0,0,0,0,0,0,0,0,0,0,0,0,0,0,0,0,0,0,0,0,0,0,0,0,0,0,0,0,0,0,0,0,0,0,0,0,0,0,0,0,0,0,0,0,0,0,0,0,0,0,0,0,0,0,0,0,0],"id":17,"left_children":[1,3,5,-1,7,9,11,13,15,17,-1,19,-1,21,23,25,27,29,31,33,35,37,39,41,43,45,47,49,51,53,55,57,59,61,63,65,-1,-1,-1,-1,-1,-1,-1,-1,-1,-1,-1,-1,-1,-1,-1,-1,-1,-1,-1,-1,-1,-1,-1,-1,-1,-1,-1,-1,-1,-1,-1],"loss_changes":[2.6146654E8,3.341332E7,3.7497296E7,0E0,2.0817072E7,4.478532E6,4.109792E6,1.0187056E7,1.1098876E7,4.13926E6,0E0,4.009024E6,0E0,1.1843968E7,5.495016E6,4.478543E6,3.023303E6,3.77141E6,3.235378E6,2.583088E6,2.4724962E6,4.774776E6,6.460251E6,5.739408E6,1.1525904E7,3.096741E6,1.0033353E7,2.695397E5,2.34452E5,1.626235E6,5.62249E6,2.66028E6,3.6950175E6,1.2372312E7,5.54208E5,4.526798E5,0E0,0E0,0E0,0E0,0E0,0E0,0E0,0E0,0E0,0E0,0E0,0E0,0E0,0E0,0E0,0E0,0E0,0E0,0E0,0E0,0E0,0E0,0E0,0E0,0E0,0E0,0E0,0E0,0E0,0E0,0E0],"parents":[2147483647,0,0,1,1,2,2,4,4,5,5,6,6,7,7,8,8,9,9,11,11,13,13,14,14,15,15,16,16,17,17,18,18,19,19,20,20,21,21,22,22,23,23,24,24,25,25,26,26,27,27,28,28,29,29,30,30,31,31,32,32,33,33,34,34,35,35],"right_children":[2,4,6,-1,8,10,12,14,16,18,-1,20,-1,22,24,26,28,30,32,34,36,38,40,42,44,46,48,50,52,54,56,58,60,62,64,66,-1,-1,-1,-1,-1,-1,-1,-1,-1,-1,-1,-1,-1,-1,-1,-1,-1,-1,-1,-1,-1,-1,-1,-1,-1,-1,-1,-1,-1,-1,-1],"split_conditions":[2.203798E3,4.59402E1,4.1872163E3,-2.4782775E-2,1.3102944E3,4.256174E3,5.273136E3,5.712564E2,2.3854663E3,3.5993147E3,6.970943E1,3.79506E1,6.693155E1,1.438128E2,7.150692E2,1.784344E3,4.447544E2,2.2477407E3,3.82835E3,5.9762207E3,4.4029355E3,1.8792681E3,2.59662E2,7.030848E2,7.969626E2,1.3475792E3,1.8455977E3,1.784344E3,4.390285E3,3.79506E1,2.3116577E3,3.78241E3,3.901588E3,5.865032E3,7.201293E3,2.450144E3,4.5769924E1,-2.0250288E1,4.431986E1,1.4741799E-1,-8.446297E0,-1.7566E1,-3.967776E1,-1.1882275E0,-1.47148485E1,2.5040145E0,-7.587879E0,1.3114389E1,-3.8445554E0,-9.109829E0,1.4590039E1,6.230328E1,1.4382459E1,2.2091494E1,-1.2533666E1,-5.996577E0,7.485058E0,1.5338249E1,3.267409E1,-2.44541E0,1.2688377E1,2.0595198E1,-1.4823977E1,2.330941E1,2.9435083E1,-2.433373E1,-4.731451E0],"split_indices":[0,0,0,0,0,3,1,0,3,0,0,1,0,0,0,0,1,0,0,0,3,3,0,0,0,0,0,0,1,1,0,0,0,0,0,1,0,0,0,0,0,0,0,0,0,0,0,0,0,0,0,0,0,0,0,0,0,0,0,0,0,0,0,0,0,0,0],"split_type":[0,0,0,0,0,0,0,0,0,0,0,0,0,0,0,0,0,0,0,0,0,0,0,0,0,0,0,0,0,0,0,0,0,0,0,0,0,0,0,0,0,0,0,0,0,0,0,0,0,0,0,0,0,0,0,0,0,0,0,0,0,0,0,0,0,0,0],"sum_hessian":[8.523E3,5.664E3,2.859E3,1.586E3,4.078E3,1.959E3,9E2,2.607E3,1.471E3,1.957E3,2E0,8.96E2,4E0,1.169E3,1.438E3,1.46E3,1.1E1,1.577E3,3.8E2,8.83E2,1.3E1,1.86E2,9.83E2,3E2,1.138E3,8.42E2,6.18E2,3E0,8E0,5.5E1,1.522E3,1.63E2,2.17E2,6.41E2,2.42E2,1.2E1,1E0,1.84E2,2E0,3.28E2,6.55E2,2.67E2,3.3E1,1.89E2,9.49E2,8.4E1,7.58E2,1.04E2,5.14E2,2E0,1E0,7E0,1E0,5.2E1,3E0,8.1E1,1.441E3,1.36E2,2.7E1,5.3E1,1.64E2,6.16E2,2.5E1,1.62E2,8E1,5E0,7E0],"tree_param":{"num_deleted":"0","num_feature":"10","num_nodes":"67","size_leaf_vector":"1"}},{"base_weights":[7.7275735E-1,-1.22783005E2,2.2553448E2,-2.353875E-2,-1.7233261E2,1.5163556E2,3.917632E2,-1.7873225E2,3.9475174E2,1.4984872E2,6.738577E1,3.8651657E2,6.425429E1,-2.2463727E2,-1.0164566E2,9.978069E1,2.2894197E2,9.129641E1,1.8499089E2,3.2284824E2,4.362603E2,-1.4949797E2,-2.8451535E2,-9.505386E1,-8.214595E2,-4.592313E2,4.6574725E2,1.1188847E2,-2.1601978E1,1.7895717E2,7.294649E2,3.2856894E2,-2.8139135E1,6.0805457E2,3.733415E2,-8.704677E0,1.600655E1,-1.7830006E1,-1.2809484E1,-7.2336054E0,-3.0514925E0,-4.4217785E1,-1.5851003E1,-4.3769703E1,-4.8183875E0,3.9086998E1,-1.3800565E1,4.993133E0,2.3775843E1,9.382098E0,-4.7746616E1,5.998836E1,-1.7851633E1,2.0238562E1,1.4406097E1,2.7374037E1,4.0738064E1,1.4555528E0,2.1443768E1],"categories":[],"categories_nodes":[],"categories_segments":[],"categories_sizes":[],"default_left":[0,0,0,0,0,0,0,0,0,0,0,0,0,0,0,0,0,0,0,0,0,0,0,0,0,0,0,0,0,0,0,0,0,0,0,0,0,0,0,0,0,0,0,0,0,0,0,0,0,0,0,0,0,0,0,0,0,0,0],"id":18,"left_children":[1,3,5,-1,7,9,11,13,15,17,-1,19,-1,21,23,-1,25,27,29,31,33,35,37,39,41,43,45,47,-1,49,51,53,-1,55,57,-1,-1,-1,-1,-1,-1,-1,-1,-1,-1,-1,-1,-1,-1,-1,-1,-1,-1,-1,-1,-1,-1,-1,-1],"loss_changes":[2.3674435E8,3.3338856E7,3.708779E7,0E0,1.4278608E7,4.275516E6,3.862144E6,1.3678872E7,1.1222416E7,4.28978E6,0E0,2.791872E6,0E0,1.0872512E7,6.787734E6,0E0,6.8953725E6,8.529498E6,4.163216E6,2.262148E6,5.361296E6,1.250749E7,2.663088E6,2.413756E6,1.32097E5,1.5767535E6,7.4818655E6,3.267191E6,0E0,1.2921952E7,7.5821085E6,1.140896E6,0E0,1.269316E6,7.270876E6,0E0,0E0,0E0,0E0,0E0,0E0,0E0,0E0,0E0,0E0,0E0,0E0,0E0,0E0,0E0,0E0,0E0,0E0,0E0,0E0,0E0,0E0,0E0,0E0],"parents":[2147483647,0,0,1,1,2,2,4,4,5,5,6,6,7,7,8,8,9,9,11,11,13,13,14,14,16,16,17,17,18,18,19,19,20,20,21,21,22,22,23,23,24,24,25,25,26,26,27,27,29,29,30,30,31,31,33,33,34,34],"right_children":[2,4,6,-1,8,10,12,14,16,18,-1,20,-1,22,24,-1,26,28,30,32,34,36,38,40,42,44,46,48,-1,50,52,54,-1,56,58,-1,-1,-1,-1,-1,-1,-1,-1,-1,-1,-1,-1,-1,-1,-1,-1,-1,-1,-1,-1,-1,-1,-1,-1],"split_conditions":[2.087283E3,4.59402E1,4.138613E3,-2.353875E-2,1.9545985E3,4.256174E3,5.273136E3,1.228401E3,2.0270757E3,2.6845056E3,6.738577E1,5.007482E3,6.425429E1,5.313084E2,1.471418E2,9.978069E1,2.2873083E3,2.656542E3,3.202498E3,2.1252336E3,5.432928E3,5.06008E2,7.150692E2,1.5566404E3,1.6321611E3,2.0649312E3,3.1002502E3,2.636568E3,-2.1601978E1,2.290352E3,3.2717412E3,4.390285E3,-2.8139135E1,5.35969E3,5.642655E3,-8.704677E0,1.600655E1,-1.7830006E1,-1.2809484E1,-7.2336054E0,-3.0514925E0,-4.4217785E1,-1.5851003E1,-4.3769703E1,-4.8183875E0,3.9086998E1,-1.3800565E1,4.993133E0,2.3775843E1,9.382098E0,-4.7746616E1,5.998836E1,-1.7851633E1,2.0238562E1,1.4406097E1,2.7374037E1,4.0738064E1,1.4555528E0,2.1443768E1],"split_indices":[0,0,0,0,3,3,1,0,3,0,0,0,0,0,1,0,3,0,1,1,0,0,0,0,3,3,3,0,0,1,0,0,0,0,0,0,0,0,0,0,0,0,0,0,0,0,0,0,0,0,0,0,0,0,0,0,0,0,0],"split_type":[0,0,0,0,0,0,0,0,0,0,0,0,0,0,0,0,0,0,0,0,0,0,0,0,0,0,0,0,0,0,0,0,0,0,0,0,0,0,0,0,0,0,0,0,0,0,0,0,0,0,0,0,0,0,0,0,0,0,0],"sum_hessian":[8.523E3,5.5E3,3.023E3,1.586E3,3.914E3,2.094E3,9.29E2,3.871E3,4.3E1,2.092E3,2E0,9.25E2,4E0,2.425E3,1.446E3,3E0,4E1,7.86E2,1.306E3,4.09E2,5.16E2,1.077E3,1.348E3,1.434E3,1.2E1,1E1,3E1,7.57E2,2.9E1,1.293E3,1.3E1,4.07E2,2E0,1.36E2,3.8E2,1.024E3,5.3E1,3.77E2,9.71E2,5.82E2,8.52E2,1E1,2E0,4E0,6E0,2.1E1,9E0,7.34E2,2.3E1,1.284E3,9E0,9E0,4E0,1.38E2,2.69E2,1.08E2,2.8E1,5.3E1,3.27E2],"tree_param":{"num_deleted":"0","num_feature":"10","num_nodes":"59","size_leaf_vector":"1"}},{"base_weights":[7.602497E-1,-1.1664701E2,2.1433716E2,-2.2367612E-2,-1.6372037E2,1.456087E2,3.761184E2,-1.6981982E2,3.7675232E2,1.4390411E2,6.513958E1,3.7091895E2,6.168411E1,-2.1341502E2,-9.661197E1,9.603892E1,2.1692656E2,1.2311576E2,2.3857445E2,3.785316E2,-1.3625945E2,-1.4201625E2,-2.7031232E2,-9.030831E1,-7.850072E2,-3.7307318E2,4.73929E2,1.1691194E2,4.223446E2,3.8253546E2,1.8022162E2,3.4621298E2,4.623588E2,-2.81945E2,4.3941322E1,-1.8810366E1,-4.669752E0,-1.6940866E1,-1.216967E1,-5.84125E0,-1.6003306E0,-4.2207886E1,-1.53226385E1,-4.2018917E1,-3.6003342E0,4.0949623E1,-1.3179542E1,2.7633188E0,7.065664E0,3.9462368E1,-4.5730404E1,1.467887E1,3.1469679E1,-5.1282506E0,1.0647936E1,1.8650137E1,-1.51422415E1,2.8467539E1,2.143886E1,-9.132865E0,-3.683494E1],"categories":[],"categories_nodes":[],"categories_segments":[],"categories_sizes":[],"default_left":[0,0,0,0,0,0,0,0,0,0,0,0,0,0,0,0,0,0,0,0,0,0,0,0,0,0,0,0,0,0,0,0,0,0,0,0,0,0,0,0,0,0,0,0,0,0,0,0,0,0,0,0,0,0,0,0,0,0,0,0,0],"id":19,"left_children":[1,3,5,-1,7,9,11,13,15,17,-1,19,-1,21,23,-1,25,27,29,31,33,35,37,39,41,43,45,47,49,51,53,55,57,59,-1,-1,-1,-1,-1,-1,-1,-1,-1,-1,-1,-1,-1,-1,-1,-1,-1,-1,-1,-1,-1,-1,-1,-1,-1,-1,-1],"loss_changes":[2.1376838E8,3.0089896E7,3.356901E7,0E0,1.297012E7,4.002184E6,3.559864E6,1.233692E7,1.0441438E7,4.146808E6,0E0,3.514872E6,0E0,9.816984E6,6.208231E6,0E0,6.3936965E6,3.184406E6,3.131662E6,2.234848E6,2.3181475E6,1.223968E7,2.4052E6,2.214725E6,1.09294E5,1.7684559E6,7.596121E6,2.561422E6,1.789046E7,2.208866E6,2.549172E6,1.1276128E7,6.28964E5,4.5240575E5,0E0,0E0,0E0,0E0,0E0,0E0,0E0,0E0,0E0,0E0,0E0,0E0,0E0,0E0,0E0,0E0,0E0,0E0,0E0,0E0,0E0,0E0,0E0,0E0,0E0,0E0,0E0],"parents":[2147483647,0,0,1,1,2,2,4,4,5,5,6,6,7,7,8,8,9,9,11,11,13,13,14,14,16,16,17,17,18,18,19,19,20,20,21,21,22,22,23,23,24,24,25,25,26,26,27,27,28,28,29,29,30,30,31,31,32,32,33,33],"right_children":[2,4,6,-1,8,10,12,14,16,18,-1,20,-1,22,24,-1,26,28,30,32,34,36,38,40,42,44,46,48,50,52,54,56,58,60,-1,-1,-1,-1,-1,-1,-1,-1,-1,-1,-1,-1,-1,-1,-1,-1,-1,-1,-1,-1,-1,-1,-1,-1,-1,-1,-1],"split_conditions":[2.087283E3,4.59402E1,4.1872163E3,-2.2367612E-2,1.9545985E3,4.256174E3,5.273136E3,1.228401E3,2.0270757E3,3.5993147E3,6.513958E1,3.79506E1,6.168411E1,5.313084E2,1.471418E2,9.603892E1,2.3156523E3,2.0130939E3,3.7497856E3,5.9762207E3,4.4029355E3,1.438128E2,7.150692E2,1.784344E3,1.6321611E3,2.0649312E3,3.1002502E3,2.4448176E3,3.3396528E3,3.7071743E3,3.78241E3,5.865032E3,6.231888E3,4.923591E3,4.3941322E1,-1.8810366E1,-4.669752E0,-1.6940866E1,-1.216967E1,-5.84125E0,-1.6003306E0,-4.2207886E1,-1.53226385E1,-4.2018917E1,-3.6003342E0,4.0949623E1,-1.3179542E1,2.7633188E0,7.065664E0,3.9462368E1,-4.5730404E1,1.467887E1,3.1469679E1,-5.1282506E0,1.0647936E1,1.8650137E1,-1.51422415E1,2.8467539E1,2.143886E1,-9.132865E0,-3.683494E1],"split_indices":[0,0,0,0,3,3,1,0,3,0,0,1,0,0,1,0,3,3,0,0,3,0,0,0,3,3,3,0,0,0,0,0,0,1,0,0,0,0,0,0,0,0,0,0,0,0,0,0,0,0,0,0,0,0,0,0,0,0,0,0,0],"split_type":[0,0,0,0,0,0,0,0,0,0,0,0,0,0,0,0,0,0,0,0,0,0,0,0,0,0,0,0,0,0,0,0,0,0,0,0,0,0,0,0,0,0,0,0,0,0,0,0,0,0,0,0,0,0,0,0,0,0,0,0,0],"sum_hessian":[8.523E3,5.5E3,3.023E3,1.586E3,3.914E3,2.123E3,9E2,3.871E3,4.3E1,2.121E3,2E0,8.96E2,4E0,2.425E3,1.446E3,3E0,4E1,1.741E3,3.8E2,8.83E2,1.3E1,1.077E3,1.348E3,1.434E3,1.2E1,1.2E1,2.8E1,1.707E3,3.4E1,1.08E2,2.72E2,6.41E2,2.42E2,1.2E1,1E0,1.84E2,8.93E2,3.77E2,9.71E2,9.85E2,4.49E2,1E1,2E0,4E0,8E0,1.9E1,9E0,4.85E2,1.222E3,2.7E1,7E0,8.1E1,2.7E1,2.8E1,2.44E2,6.16E2,2.5E1,5.4E1,1.88E2,1.1E1,1E0],"tree_param":{"num_deleted":"0","num_feature":"10","num_nodes":"61","size_leaf_vector":"1"}},{"base_weights":[7.450233E-1,-1.1082177E2,2.0369746E2,-2.1245273E-2,-1.5554437E2,1.383849E2,3.5743796E2,-1.6135916E2,3.596917E2,1.367349E2,6.296826E1,3.5243024E2,5.9216743E1,-1.5453374E2,-6.1547296E2,9.243746E1,2.0564484E2,1.16961975E2,2.267813E2,3.596654E2,-1.2959126E2,-1.8339163E2,-5.3773357E1,-9.0021124E2,-3.095115E2,-3.579287E2,4.5119006E2,1.1107206E2,4.0104825E2,3.274474E2,1.5001057E2,2.996075E2,4.0373288E2,-2.713838E2,4.2842785E1,-2.097996E1,-8.724519E0,-5.2374166E-1,-5.862375E0,-1.5696802E0,-5.1898315E1,-3.994786E0,-3.140713E1,-4.033816E1,-3.440319E0,3.9004513E1,-1.2586464E1,5.6531563E0,-2.9484985E1,3.755972E1,-4.3729702E1,1.3440471E1,3.0133001E1,-3.2554672E0,1.0975215E1,2.0016155E1,1.2865445E1,3.499278E1,1.8344429E1,-8.714277E0,-3.5914066E1],"categories":[],"categories_nodes":[],"categories_segments":[],"categories_sizes":[],"default_left":[0,0,0,0,0,0,0,0,0,0,0,0,0,0,0,0,0,0,0,0,0,0,0,0,0,0,0,0,0,0,0,0,0,0,0,0,0,0,0,0,0,0,0,0,0,0,0,0,0,0,0,0,0,0,0,0,0,0,0,0,0],"id":20,"left_children":[1,3,5,-1,7,9,11,13,15,17,-1,19,-1,21,23,-1,25,27,29,31,33,35,37,39,41,43,45,47,49,51,53,55,57,59,-1,-1,-1,-1,-1,-1,-1,-1,-1,-1,-1,-1,-1,-1,-1,-1,-1,-1,-1,-1,-1,-1,-1,-1,-1,-1,-1],"loss_changes":[1.930294E8,2.7159672E7,3.031508E7,0E0,1.1787328E7,3.75642E6,3.313528E6,1.1906232E7,9.71274E6,3.751656E6,0E0,3.174888E6,0E0,1.1086048E7,4.687156E6,0E0,5.835188E6,2.870248E6,2.895328E6,2.218632E6,2.190728E6,6.162928E6,2.3376065E6,3.438252E6,2.0715328E6,1.6314742E6,6.9008895E6,2.449824E6,1.6290128E7,2.484616E6,3.2732785E6,1.50732E6,5.274832E6,4.389225E5,0E0,0E0,0E0,0E0,0E0,0E0,0E0,0E0,0E0,0E0,0E0,0E0,0E0,0E0,0E0,0E0,0E0,0E0,0E0,0E0,0E0,0E0,0E0,0E0,0E0,0E0,0E0],"parents":[2147483647,0,0,1,1,2,2,4,4,5,5,6,6,7,7,8,8,9,9,11,11,13,13,14,14,16,16,17,17,18,18,19,19,20,20,21,21,22,22,23,23,24,24,25,25,26,26,27,27,28,28,29,29,30,30,31,31,32,32,33,33],"right_children":[2,4,6,-1,8,10,12,14,16,18,-1,20,-1,22,24,-1,26,28,30,32,34,36,38,40,42,44,46,48,50,52,54,56,58,60,-1,-1,-1,-1,-1,-1,-1,-1,-1,-1,-1,-1,-1,-1,-1,-1,-1,-1,-1,-1,-1,-1,-1,-1,-1,-1,-1],"split_conditions":[2.087283E3,4.59402E1,4.1872163E3,-2.1245273E-2,1.9545985E3,4.256174E3,5.273136E3,3.79506E1,2.0270757E3,3.5993147E3,6.296826E1,3.79506E1,5.9216743E1,1.5566404E3,1.1998667E3,9.243746E1,2.3156523E3,2.0130939E3,3.82835E3,5.007482E3,4.4029355E3,1.118544E2,1.8455977E3,1.717764E2,1.0905804E3,2.0649312E3,3.1002502E3,1.704448E3,3.3396528E3,3.78241E3,3.901588E3,4.390285E3,5.193906E3,4.923591E3,4.2842785E1,-2.097996E1,-8.724519E0,-5.2374166E-1,-5.862375E0,-1.5696802E0,-5.1898315E1,-3.994786E0,-3.140713E1,-4.033816E1,-3.440319E0,3.9004513E1,-1.2586464E1,5.6531563E0,-2.9484985E1,3.755972E1,-4.3729702E1,1.3440471E1,3.0133001E1,-3.2554672E0,1.0975215E1,2.0016155E1,1.2865445E1,3.499278E1,1.8344429E1,-8.714277E0,-3.5914066E1],"split_indices":[0,0,0,0,3,3,1,1,3,0,0,1,0,0,3,0,3,3,0,0,3,0,0,0,0,3,3,3,0,0,0,0,0,1,0,0,0,0,0,0,0,0,0,0,0,0,0,0,0,0,0,0,0,0,0,0,0,0,0,0,0],"split_type":[0,0,0,0,0,0,0,0,0,0,0,0,0,0,0,0,0,0,0,0,0,0,0,0,0,0,0,0,0,0,0,0,0,0,0,0,0,0,0,0,0,0,0,0,0,0,0,0,0,0,0,0,0,0,0,0,0,0,0,0,0],"sum_hessian":[8.523E3,5.5E3,3.023E3,1.586E3,3.914E3,2.123E3,9E2,3.871E3,4.3E1,2.121E3,2E0,8.96E2,4E0,3.815E3,5.6E1,3E0,4E1,1.741E3,3.8E2,8.83E2,1.3E1,2.965E3,8.5E2,2.8E1,2.8E1,1.2E1,2.8E1,1.707E3,3.4E1,1.63E2,2.17E2,3.77E2,5.06E2,1.2E1,1E0,1.06E2,2.859E3,5.06E2,3.44E2,4E0,2.4E1,1.7E1,1.1E1,4E0,8E0,1.9E1,9E0,1.703E3,4E0,2.7E1,7E0,1.36E2,2.7E1,5.3E1,1.64E2,1.09E2,2.68E2,5.4E1,4.52E2,1.1E1,1E0],"tree_param":{"num_deleted":"0","num_feature":"10","num_nodes":"61","size_leaf_vector":"1"}},{"base_weights":[7.286527E-1,-1.00897835E2,2.0202702E2,-2.0183777E-2,-1.3997195E2,1.46792E2,3.6093762E2,-1.8380203E2,-6.2221394E1,1.19980896E2,2.2425032E2,3.5515173E2,5.6848083E1,-1.2241049E2,-2.335896E2,-6.899772E1,7.6798114E2,1.1496707E2,6.7260126E2,2.5303793E2,-3.1645771E1,3.639605E2,-1.2323924E2,-3.244865E2,-8.388343E1,-3.785159E2,-2.1150754E2,-1.0851046E2,-1.5074868E1,-3.0212128E1,1.0374025E3,3.6727264E2,1.0554638E2,1.5801536E3,1.5156494E2,2.3035094E2,3.0286993E1,2.643355E0,-5.6076584E0,3.4628082E2,4.9915857E2,-2.6124756E2,4.1771717E1,-1.7096384E1,4.2960625E1,1.217125E0,-6.9016757E0,-9.31283E0,-2.604929E1,-4.726293E0,-1.2423638E1,3.5139248E0,-6.4194984E0,1.2721222E1,-3.499603E0,-1.0130744E1,1.2174903E1,5.9901623E1,2.6855345E1,9.903538E0,2.7083603E1,-6.3627105E0,5.940635E0,2.3146107E1,8.718655E1,4.9630688E1,-2.6087673E0,1.1862264E1,-3.0918095E1,2.0184292E1,1.3867475E1,4.239036E1,1.6418623E1,-2.3047268E1,-3.9409122E0],"categories":[],"categories_nodes":[],"categories_segments":[],"categories_sizes":[],"default_left":[0,0,0,0,0,0,0,0,0,0,0,0,0,0,0,0,0,0,0,0,0,0,0,0,0,0,0,0,0,0,0,0,0,0,0,0,0,0,0,0,0,0,0,0,0,0,0,0,0,0,0,0,0,0,0,0,0,0,0,0,0,0,0,0,0,0,0,0,0,0,0,0,0,0,0],"id":21,"left_children":[1,3,5,-1,7,9,11,13,15,17,19,21,-1,23,25,27,29,31,33,35,37,39,41,43,45,47,49,51,53,55,57,59,61,63,65,67,-1,-1,-1,69,71,73,-1,-1,-1,-1,-1,-1,-1,-1,-1,-1,-1,-1,-1,-1,-1,-1,-1,-1,-1,-1,-1,-1,-1,-1,-1,-1,-1,-1,-1,-1,-1,-1,-1],"loss_changes":[1.7439795E8,2.224482E7,2.5050456E7,0E0,1.3889024E7,4.3841E6,2.90532E6,7.942856E6,8.3340505E6,4.300446E6,4.022826E6,3.133752E6,0E0,9.081696E6,4.525136E6,3.1112285E6,2.6119465E6,3.685826E6,6.3806515E6,3.781324E6,3.8694822E5,1.548136E6,2.0705238E6,4.154412E6,5.770035E6,5.07989E6,5.386156E6,3.005246E6,9.179097E6,2.3808986E5,7.979E4,1.5451985E6,4.68479E6,1.06558E5,1.7653452E6,2.85001E6,0E0,0E0,0E0,2.42052E6,4.544698E6,4.3726862E5,0E0,0E0,0E0,0E0,0E0,0E0,0E0,0E0,0E0,0E0,0E0,0E0,0E0,0E0,0E0,0E0,0E0,0E0,0E0,0E0,0E0,0E0,0E0,0E0,0E0,0E0,0E0,0E0,0E0,0E0,0E0,0E0,0E0],"parents":[2147483647,0,0,1,1,2,2,4,4,5,5,6,6,7,7,8,8,9,9,10,10,11,11,13,13,14,14,15,15,16,16,17,17,18,18,19,19,20,20,21,21,22,22,23,23,24,24,25,25,26,26,27,27,28,28,29,29,30,30,31,31,32,32,33,33,34,34,35,35,39,39,40,40,41,41],"right_children":[2,4,6,-1,8,10,12,14,16,18,20,22,-1,24,26,28,30,32,34,36,38,40,42,44,46,48,50,52,54,56,58,60,62,64,66,68,-1,-1,-1,70,72,74,-1,-1,-1,-1,-1,-1,-1,-1,-1,-1,-1,-1,-1,-1,-1,-1,-1,-1,-1,-1,-1,-1,-1,-1,-1,-1,-1,-1,-1,-1,-1,-1,-1],"split_conditions":[2.203798E3,4.59402E1,4.504137E3,-2.0183777E-2,1.3102944E3,3.5993147E3,5.273136E3,5.712564E2,2.3854663E3,3.775086E3,4.390285E3,3.79506E1,5.6848083E1,1.438128E2,6.59142E2,1.784344E3,4.447544E2,2.2477407E3,3.4052817E3,4.3463423E3,4.447544E3,7.201293E3,4.4029355E3,1.8792681E3,2.59662E2,6.072096E2,7.969626E2,1.3475792E3,1.8455977E3,1.784344E3,1.544656E3,2.237088E3,2.3116577E3,3.815034E3,2.5540088E3,2.1252336E3,3.0286993E1,2.643355E0,-5.6076584E0,5.432928E3,7.6460474E3,2.450144E3,4.1771717E1,-1.7096384E1,4.2960625E1,1.217125E0,-6.9016757E0,-9.31283E0,-2.604929E1,-4.726293E0,-1.2423638E1,3.5139248E0,-6.4194984E0,1.2721222E1,-3.499603E0,-1.0130744E1,1.2174903E1,5.9901623E1,2.6855345E1,9.903538E0,2.7083603E1,-6.3627105E0,5.940635E0,2.3146107E1,8.718655E1,4.9630688E1,-2.6087673E0,1.1862264E1,-3.0918095E1,2.0184292E1,1.3867475E1,4.239036E1,1.6418623E1,-2.3047268E1,-3.9409122E0],"split_indices":[0,0,0,0,0,0,1,0,3,1,0,1,0,0,0,0,1,0,3,0,0,0,3,3,0,0,0,0,0,0,0,0,0,1,0,1,0,0,0,0,0,1,0,0,0,0,0,0,0,0,0,0,0,0,0,0,0,0,0,0,0,0,0,0,0,0,0,0,0,0,0,0,0,0,0],"split_type":[0,0,0,0,0,0,0,0,0,0,0,0,0,0,0,0,0,0,0,0,0,0,0,0,0,0,0,0,0,0,0,0,0,0,0,0,0,0,0,0,0,0,0,0,0,0,0,0,0,0,0,0,0,0,0,0,0,0,0,0,0,0,0,0,0,0,0,0,0,0,0,0,0,0,0],"sum_hessian":[8.523E3,5.664E3,2.859E3,1.586E3,4.078E3,2.123E3,7.36E2,2.607E3,1.471E3,1.579E3,5.44E2,7.32E2,4E0,1.169E3,1.438E3,1.46E3,1.1E1,1.566E3,1.3E1,4.89E2,5.5E1,7.19E2,1.3E1,1.86E2,9.83E2,1.88E2,1.25E3,8.42E2,6.18E2,3E0,8E0,5.5E1,1.511E3,4E0,9E0,4.61E2,2.8E1,2.7E1,2.8E1,6.39E2,8E1,1.2E1,1E0,1.84E2,2E0,3.28E2,6.55E2,8.1E1,1.07E2,3.01E2,9.49E2,8.4E1,7.58E2,1.04E2,5.14E2,2E0,1E0,5E0,3E0,2.9E1,2.6E1,8.1E1,1.43E3,1E0,3E0,1E0,8E0,4.58E2,3E0,3.46E2,2.93E2,2.5E1,5.5E1,5E0,7E0],"tree_param":{"num_deleted":"0","num_feature":"10","num_nodes":"75","size_leaf_vector":"1"}},{"base_weights":[7.426067E-1,-1.00179016E2,1.8433028E2,-1.9171078E-2,-1.4060696E2,1.25320816E2,3.2323346E2,-1.4602219E2,3.3912772E2,1.23744026E2,5.9943127E1,3.185908E2,5.4574158E1,-1.395227E2,-5.7858325E2,8.9154884E1,1.8998119E2,7.238073E1,1.5390808E2,3.2511337E2,-1.1602132E2,-1.7767886E2,-7.594714E1,-8.488298E2,-2.8838556E2,-2.0647305E2,5.092268E2,9.213652E1,-2.1459751E1,1.4865897E2,6.3895593E2,3.0164865E2,4.2861246E2,-2.5026118E2,4.0727425E1,-5.3304734E0,-1.1695993E1,4.4613314E0,-4.2825108E0,-1.1893066E0,-4.8994267E1,-3.388752E0,-2.9763462E1,1.2520521E1,-2.8075827E1,5.044363E1,-1.2060001E1,4.045401E0,2.1608519E1,7.815759E0,-4.3611797E1,5.2700603E1,-1.5947374E1,1.5610712E1,1.8836664E0,3.374785E1,1.8696945E1,-7.7361984E0,-3.491769E1],"categories":[],"categories_nodes":[],"categories_segments":[],"categories_sizes":[],"default_left":[0,0,0,0,0,0,0,0,0,0,0,0,0,0,0,0,0,0,0,0,0,0,0,0,0,0,0,0,0,0,0,0,0,0,0,0,0,0,0,0,0,0,0,0,0,0,0,0,0,0,0,0,0,0,0,0,0,0,0],"id":22,"left_children":[1,3,5,-1,7,9,11,13,15,17,-1,19,-1,21,23,-1,25,27,29,31,33,35,37,39,41,43,45,47,-1,49,51,53,55,57,-1,-1,-1,-1,-1,-1,-1,-1,-1,-1,-1,-1,-1,-1,-1,-1,-1,-1,-1,-1,-1,-1,-1,-1,-1],"loss_changes":[1.5795085E8,2.2193896E7,2.4746008E7,0E0,1.0220176E7,3.447046E6,2.865896E6,1.0805096E7,9.13722E6,3.276526E6,0E0,2.580544E6,0E0,9.243352E6,4.225428E6,0E0,5.294359E6,7.837949E6,3.306568E6,2.017568E6,1.9527238E6,9.503944E6,2.3042995E6,3.112362E6,1.9230068E6,3.2226658E6,8.867136E6,2.8591315E6,0E0,1.0477188E7,5.9023455E6,2.007516E6,1.91604E6,4.484717E5,0E0,0E0,0E0,0E0,0E0,0E0,0E0,0E0,0E0,0E0,0E0,0E0,0E0,0E0,0E0,0E0,0E0,0E0,0E0,0E0,0E0,0E0,0E0,0E0,0E0],"parents":[2147483647,0,0,1,1,2,2,4,4,5,5,6,6,7,7,8,8,9,9,11,11,13,13,14,14,16,16,17,17,18,18,19,19,20,20,21,21,22,22,23,23,24,24,25,25,26,26,27,27,29,29,30,30,31,31,32,32,33,33],"right_children":[2,4,6,-1,8,10,12,14,16,18,-1,20,-1,22,24,-1,26,28,30,32,34,36,38,40,42,44,46,48,-1,50,52,54,56,58,-1,-1,-1,-1,-1,-1,-1,-1,-1,-1,-1,-1,-1,-1,-1,-1,-1,-1,-1,-1,-1,-1,-1,-1,-1],"split_conditions":[2.087283E3,4.59402E1,4.1872163E3,-1.9171078E-2,1.9545985E3,4.256174E3,5.273136E3,3.79506E1,2.0270757E3,2.6845056E3,5.9943127E1,3.79506E1,5.4574158E1,1.228401E3,1.1998667E3,8.9154884E1,2.4179954E3,2.656542E3,3.202498E3,6.4396177E3,4.4029355E3,5.313084E2,1.2743412E3,1.717764E2,1.0905804E3,7.876414E2,3.1002502E3,2.636568E3,-2.1459751E1,2.290352E3,3.2717412E3,6.231888E3,6.6926216E3,4.923591E3,4.0727425E1,-5.3304734E0,-1.1695993E1,4.4613314E0,-4.2825108E0,-1.1893066E0,-4.8994267E1,-3.388752E0,-2.9763462E1,1.2520521E1,-2.8075827E1,5.044363E1,-1.2060001E1,4.045401E0,2.1608519E1,7.815759E0,-4.3611797E1,5.2700603E1,-1.5947374E1,1.5610712E1,1.8836664E0,3.374785E1,1.8696945E1,-7.7361984E0,-3.491769E1],"split_indices":[0,0,0,0,3,3,1,1,3,0,0,1,0,0,3,0,3,0,1,0,3,0,0,0,0,0,3,0,0,1,0,0,0,1,0,0,0,0,0,0,0,0,0,0,0,0,0,0,0,0,0,0,0,0,0,0,0,0,0],"split_type":[0,0,0,0,0,0,0,0,0,0,0,0,0,0,0,0,0,0,0,0,0,0,0,0,0,0,0,0,0,0,0,0,0,0,0,0,0,0,0,0,0,0,0,0,0,0,0,0,0,0,0,0,0,0,0,0,0,0,0],"sum_hessian":[8.523E3,5.5E3,3.023E3,1.586E3,3.914E3,2.123E3,9E2,3.871E3,4.3E1,2.121E3,2E0,8.96E2,4E0,3.815E3,5.6E1,3E0,4E1,7.86E2,1.335E3,8.83E2,1.3E1,2.383E3,1.432E3,2.8E1,2.8E1,1.8E1,2.2E1,7.57E2,2.9E1,1.322E3,1.3E1,7.23E2,1.6E2,1.2E1,1E0,1.054E3,1.329E3,7.9E1,1.353E3,4E0,2.4E1,1.7E1,1.1E1,8E0,1E1,1.3E1,9E0,7.34E2,2.3E1,1.313E3,9E0,9E0,4E0,6.95E2,2.8E1,2.7E1,1.33E2,1.1E1,1E0],"tree_param":{"num_deleted":"0","num_feature":"10","num_nodes":"59","size_leaf_vector":"1"}},{"base_weights":[7.2891897E-1,-9.516789E1,1.7517589E2,-1.8207468E-2,-1.3357361E2,1.2619571E2,3.2699606E2,-1.3874695E2,3.2471643E2,1.0207879E2,2.031383E2,3.2265897E2,6.4029236E1,-1.32551E2,-5.511161E2,8.581158E1,1.8103894E2,9.477195E1,4.3661954E2,2.3113362E2,-4.5448227E1,3.2495386E2,-3.404475E1,-1.5793549E2,-4.3922348E1,-8.081188E2,-2.7510947E2,-7.717137E2,3.0489636E2,9.665788E1,-5.669083E2,7.540033E2,-8.08147E2,2.0990077E2,2.8071241E1,1.7632557E0,-6.0905585E0,3.086057E2,4.494605E2,-1.88299E1,-7.4849772E0,1.2366956E1,-2.6518607E0,-1.1417334E0,-4.6642544E1,1.1635806E1,-1.953015E1,1.7573317E1,-5.7018764E1,2.1951157E1,-2.3063124E1,2.1772215E0,5.881635E0,-5.2886477E0,-3.2787445E1,5.194464E0,4.7367355E1,-7.0816154E1,-7.9988303E0,1.0811729E1,-2.846903E1,1.8001108E1,1.2334961E1,3.9453472E1,1.4473636E1],"categories":[],"categories_nodes":[],"categories_segments":[],"categories_sizes":[],"default_left":[0,0,0,0,0,0,0,0,0,0,0,0,0,0,0,0,0,0,0,0,0,0,0,0,0,0,0,0,0,0,0,0,0,0,0,0,0,0,0,0,0,0,0,0,0,0,0,0,0,0,0,0,0,0,0,0,0,0,0,0,0,0,0,0,0],"id":23,"left_children":[1,3,5,-1,7,9,11,13,15,17,19,21,-1,23,25,-1,27,29,31,33,35,37,-1,39,41,43,45,47,49,51,53,55,57,59,-1,-1,-1,61,63,-1,-1,-1,-1,-1,-1,-1,-1,-1,-1,-1,-1,-1,-1,-1,-1,-1,-1,-1,-1,-1,-1,-1,-1,-1,-1],"loss_changes":[1.4261389E8,2.002912E7,2.2445736E7,0E0,9.327088E6,4.22492E6,2.634888E6,9.82E6,8.486188E6,4.221718E6,3.803302E6,1.913992E6,0E0,8.578284E6,3.820944E6,0E0,5.0735175E6,2.186183E6,1.5226885E7,3.31854E6,3.4945216E5,1.35532E6,0E0,5.285072E6,2.2723598E6,2.819252E6,1.7917655E6,2.4711698E6,4.0047138E6,1.893207E6,1.3547725E5,3.672448E6,2.9270355E6,2.403474E6,0E0,0E0,0E0,1.986512E6,4.281248E6,0E0,0E0,0E0,0E0,0E0,0E0,0E0,0E0,0E0,0E0,0E0,0E0,0E0,0E0,0E0,0E0,0E0,0E0,0E0,0E0,0E0,0E0,0E0,0E0,0E0,0E0],"parents":[2147483647,0,0,1,1,2,2,4,4,5,5,6,6,7,7,8,8,9,9,10,10,11,11,13,13,14,14,16,16,17,17,18,18,19,19,20,20,21,21,23,23,24,24,25,25,26,26,27,27,28,28,29,29,30,30,31,31,32,32,33,33,37,37,38,38],"right_children":[2,4,6,-1,8,10,12,14,16,18,20,22,-1,24,26,-1,28,30,32,34,36,38,-1,40,42,44,46,48,50,52,54,56,58,60,-1,-1,-1,62,64,-1,-1,-1,-1,-1,-1,-1,-1,-1,-1,-1,-1,-1,-1,-1,-1,-1,-1,-1,-1,-1,-1,-1,-1,-1,-1],"split_conditions":[2.087283E3,4.59402E1,4.504137E3,-1.8207468E-2,1.9545985E3,3.5993147E3,4.4029355E3,3.79506E1,2.0270757E3,2.0130939E3,4.390285E3,4.1893086E3,6.4029236E1,1.5566404E3,1.1998667E3,8.581158E1,2.0649312E3,1.704448E3,3.3396528E3,4.3463423E3,4.447544E3,7.201293E3,-3.404475E1,1.118544E2,1.571288E3,1.717764E2,1.351574E3,1.284994E2,3.3999553E3,2.4448176E3,3.12926E2,1.6898004E3,2.7976917E3,2.1252336E3,2.8071241E1,1.7632557E0,-6.0905585E0,5.432928E3,7.6460474E3,-1.88299E1,-7.4849772E0,1.2366956E1,-2.6518607E0,-1.1417334E0,-4.6642544E1,1.1635806E1,-1.953015E1,1.7573317E1,-5.7018764E1,2.1951157E1,-2.3063124E1,2.1772215E0,5.881635E0,-5.2886477E0,-3.2787445E1,5.194464E0,4.7367355E1,-7.0816154E1,-7.9988303E0,1.0811729E1,-2.846903E1,1.8001108E1,1.2334961E1,3.9453472E1,1.4473636E1],"split_indices":[0,0,0,0,3,0,3,1,3,3,0,3,0,0,3,0,3,3,0,0,0,0,0,0,0,0,3,0,3,0,1,1,1,1,0,0,0,0,0,0,0,0,0,0,0,0,0,0,0,0,0,0,0,0,0,0,0,0,0,0,0,0,0,0,0],"split_type":[0,0,0,0,0,0,0,0,0,0,0,0,0,0,0,0,0,0,0,0,0,0,0,0,0,0,0,0,0,0,0,0,0,0,0,0,0,0,0,0,0,0,0,0,0,0,0,0,0,0,0,0,0,0,0,0,0,0,0,0,0,0,0,0,0],"sum_hessian":[8.523E3,5.5E3,3.023E3,1.586E3,3.914E3,2.287E3,7.36E2,3.871E3,4.3E1,1.743E3,5.44E2,7.34E2,2E0,3.815E3,5.6E1,3E0,4E1,1.707E3,3.6E1,4.89E2,5.5E1,7.33E2,1E0,2.965E3,8.5E2,2.8E1,2.8E1,4E0,3.6E1,1.703E3,4E0,2.9E1,7E0,4.61E2,2.8E1,2.7E1,2.8E1,6.51E2,8.2E1,1.06E2,2.859E3,2.5E1,8.25E2,4E0,2.4E1,5E0,2.3E1,1E0,3E0,3.1E1,5E0,4.83E2,1.22E3,1E0,3E0,7E0,2.2E1,3E0,4E0,4.58E2,3E0,3.53E2,2.98E2,2.5E1,5.7E1],"tree_param":{"num_deleted":"0","num_feature":"10","num_nodes":"65","size_leaf_vector":"1"}},{"base_weights":[6.9683564E-1,-9.041438E1,1.6643828E2,-1.7292688E-2,-1.26901825E2,1.1174167E2,2.894737E2,-1.3182826E2,3.0950912E2,1.102326E2,5.6366108E1,2.8518768E2,5.1267525E1,-1.2592779E2,-5.245371E2,8.259364E1,1.7099779E2,6.491688E1,1.3743478E2,2.3018498E2,3.282552E2,-1.5004758E2,-4.1714825E1,-7.6936053E2,-2.6162622E2,-2.6511652E2,4.3279898E2,8.3791115E1,-2.0706808E1,1.3251941E2,5.819389E2,2.352102E2,-2.6498625E1,6.018026E2,2.9438742E2,-4.6333156E0,-9.081542E0,-1.2794714E0,-9.840173E0,-1.0960644E0,-4.4403698E1,-2.5661857E0,-2.776389E1,-3.7050854E1,-2.2365777E0,3.979036E1,-1.1379743E1,3.660907E0,2.0204863E1,6.9859595E0,-4.0295246E1,8.896088E1,1.1706218E1,1.1527148E1,5.3369335E1,1.9639647E1,3.9839203E1,1.0875787E1,1.796358E1],"categories":[],"categories_nodes":[],"categories_segments":[],"categories_sizes":[],"default_left":[0,0,0,0,0,0,0,0,0,0,0,0,0,0,0,0,0,0,0,0,0,0,0,0,0,0,0,0,0,0,0,0,0,0,0,0,0,0,0,0,0,0,0,0,0,0,0,0,0,0,0,0,0,0,0,0,0,0,0],"id":24,"left_children":[1,3,5,-1,7,9,11,13,15,17,-1,19,-1,21,23,-1,25,27,29,31,33,35,37,39,41,43,45,47,-1,49,51,53,-1,55,57,-1,-1,-1,-1,-1,-1,-1,-1,-1,-1,-1,-1,-1,-1,-1,-1,-1,-1,-1,-1,-1,-1,-1,-1],"loss_changes":[1.2873516E8,1.8078276E7,2.0318024E7,0E0,8.457868E6,3.086492E6,2.640792E6,8.906024E6,7.8985665E6,2.571092E6,0E0,2.117976E6,0E0,7.744796E6,3.467619E6,0E0,4.795927E6,7.150568E6,2.77855E6,1.690838E6,4.61256E6,5.358412E6,2.1232005E6,2.553734E6,1.7624152E6,1.6449544E6,6.414059E6,2.537447E6,0E0,8.85545E6,5.4134745E6,1.338576E6,0E0,1.969198E6,2.226192E6,0E0,0E0,0E0,0E0,0E0,0E0,0E0,0E0,0E0,0E0,0E0,0E0,0E0,0E0,0E0,0E0,0E0,0E0,0E0,0E0,0E0,0E0,0E0,0E0],"parents":[2147483647,0,0,1,1,2,2,4,4,5,5,6,6,7,7,8,8,9,9,11,11,13,13,14,14,16,16,17,17,18,18,19,19,20,20,21,21,22,22,23,23,24,24,25,25,26,26,27,27,29,29,30,30,31,31,33,33,34,34],"right_children":[2,4,6,-1,8,10,12,14,16,18,-1,20,-1,22,24,-1,26,28,30,32,34,36,38,40,42,44,46,48,-1,50,52,54,-1,56,58,-1,-1,-1,-1,-1,-1,-1,-1,-1,-1,-1,-1,-1,-1,-1,-1,-1,-1,-1,-1,-1,-1,-1,-1],"split_conditions":[2.087283E3,4.59402E1,4.138613E3,-1.7292688E-2,1.9545985E3,4.256174E3,5.273136E3,3.79506E1,2.0270757E3,2.6845056E3,5.6366108E1,5.007482E3,5.1267525E1,1.5566404E3,1.1998667E3,8.259364E1,2.3533176E3,2.656542E3,3.202498E3,2.1252336E3,5.193906E3,5.313084E2,2.0253636E3,1.717764E2,1.0905804E3,2.0649312E3,3.1002502E3,2.636568E3,-2.0706808E1,